{"val_loss":1.0746619800726573,"val_accuracy":0.5864681295715779,"parameters/gru.weight_hh_l0_reverse":{"_type":"histogram","values":[2,1,3,5,7,7,8,10,11,21,28,28,44,52,65,81,118,168,236,282,322,392,395,483,503,540,524,552,542,565,596,548,599,530,550,515,484,435,386,356,291,239,185,129,89,74,65,53,38,22,24,21,9,16,11,6,4,4,6,2,1,2,1,2],"bins":[-0.3821525573730469,-0.36945992708206177,-0.35676729679107666,-0.34407466650009155,-0.33138203620910645,-0.31868940591812134,-0.30599674582481384,-0.29330411553382874,-0.28061148524284363,-0.2679188549518585,-0.2552262246608734,-0.2425335943698883,-0.2298409640789032,-0.2171483337879181,-0.2044556885957718,-0.19176305830478668,-0.17907042801380157,-0.16637779772281647,-0.15368516743183136,-0.14099252223968506,-0.12829989194869995,-0.11560726165771484,-0.10291463136672974,-0.09022199362516403,-0.07752936333417892,-0.06483673304319382,-0.05214409530162811,-0.039451465010643005,-0.0267588309943676,-0.014066197909414768,-0.001373564824461937,0.011319068260490894,0.024011701345443726,0.03670433536171913,0.04939696937799454,0.062089599668979645,0.07478223741054535,0.08747486770153046,0.10016749799251556,0.11286013573408127,0.12555277347564697,0.13824540376663208,0.1509380340576172,0.1636306643486023,0.1763232946395874,0.1890159249305725,0.2017085701227188,0.21440120041370392,0.22709383070468903,0.23978646099567413,0.25247910618782043,0.26517173647880554,0.27786436676979065,0.29055699706077576,0.30324962735176086,0.31594225764274597,0.3286348879337311,0.3413275182247162,0.3540201485157013,0.3667128086090088,0.3794054388999939,0.392098069190979,0.4047906994819641,0.4174833297729492,0.4301759600639343]},"parameters/gru.weight_ih_l0_reverse":{"bins":[-0.6338216662406921,-0.615914523601532,-0.598007321357727,-0.5801001787185669,-0.5621930360794067,-0.5442858338356018,-0.5263786911964417,-0.5084714889526367,-0.49056434631347656,-0.472657173871994,-0.4547500014305115,-0.4368428587913513,-0.4189356863498688,-0.40102851390838623,-0.3831213712692261,-0.36521419882774353,-0.347307026386261,-0.32939985394477844,-0.3114926815032959,-0.29358553886413574,-0.2756783664226532,-0.25777119398117065,-0.2398640364408493,-0.22195687890052795,-0.2040497064590454,-0.18614253401756287,-0.16823537647724152,-0.15032821893692017,-0.13242104649543762,-0.11451388150453568,-0.09660671651363373,-0.07869955152273178,-0.06079232692718506,-0.04288516193628311,-0.024977996945381165,-0.0070708319544792175,0.01083633303642273,0.028743498027324677,0.046650663018226624,0.06455782800912857,0.08246499300003052,0.10037215799093246,0.11827932298183441,0.13618648052215576,0.1540936529636383,0.17200082540512085,0.1899079829454422,0.20781514048576355,0.2257223129272461,0.24362948536872864,0.2615366578102112,0.27944380044937134,0.2973509728908539,0.3152581453323364,0.3331652879714966,0.3510724604129791,0.36897963285446167,0.3868868052959442,0.40479397773742676,0.4227011203765869,0.44060829281806946,0.458515465259552,0.47642260789871216,0.4943297803401947,0.5122369527816772],"_type":"histogram","values":[1,0,0,0,0,0,1,0,0,0,0,0,1,0,0,1,3,3,3,8,1,4,16,13,14,19,25,46,38,56,55,69,65,46,57,71,63,57,71,64,51,55,34,41,30,20,16,8,8,5,3,3,1,1,0,2,0,1,0,0,1,0,0,1]},"gradients/gru.bias_ih_l0_reverse":{"bins":[-0.13059519231319427,-0.12563571333885193,-0.12067624926567078,-0.11571677774190903,-0.11075730621814728,-0.10579782724380493,-0.10083835572004318,-0.09587888419628143,-0.09091941267251968,-0.08595994114875793,-0.08100046962499619,-0.07604099810123444,-0.07108151912689209,-0.06612204760313034,-0.06116257607936859,-0.05620310455560684,-0.05124363303184509,-0.046284161508083344,-0.041324689984321594,-0.036365214735269547,-0.0314057432115078,-0.026446271687746048,-0.02148679830133915,-0.01652732491493225,-0.011567853391170502,-0.006608380936086178,-0.001648908481001854,0.00331056397408247,0.008270036429166794,0.013229508884251118,0.01818898133933544,0.02314845472574234,0.02810792624950409,0.03306739777326584,0.03802686929702759,0.042986344546079636,0.047945816069841385,0.052905287593603134,0.05786476284265518,0.06282423436641693,0.06778370589017868,0.07274317741394043,0.07770264893770218,0.08266212046146393,0.08762159943580627,0.09258107095956802,0.09754054248332977,0.10250001400709152,0.10745948553085327,0.11241895705461502,0.11737842857837677,0.12233790010213852,0.12729737162590027,0.13225685060024261,0.13721631467342377,0.1421757936477661,0.14713525772094727,0.1520947366952896,0.15705421566963196,0.1620136797428131,0.16697315871715546,0.1719326227903366,0.17689210176467896,0.1818515658378601,0.18681104481220245],"_type":"histogram","values":[1,0,1,0,2,1,2,0,0,1,0,1,1,0,2,1,1,0,1,6,1,0,4,4,4,16,88,18,7,3,0,2,3,1,1,5,2,3,3,1,0,1,0,0,1,1,0,0,1,0,0,0,0,0,0,0,0,0,0,0,0,0,0,1]},"parameters/gru.bias_hh_l0_reverse":{"_type":"histogram","values":[1,1,1,2,0,1,2,0,6,8,5,3,4,6,6,1,7,5,7,4,4,10,11,4,7,2,4,7,7,7,12,5,2,5,2,4,3,4,3,2,2,1,0,1,2,2,0,0,1,1,0,2,0,0,0,0,2,2,0,0,0,0,0,1],"bins":[-0.1688561737537384,-0.1602192223072052,-0.1515822559595108,-0.1429452896118164,-0.1343083381652832,-0.12567138671875,-0.1170344203710556,-0.1083974614739418,-0.099760502576828,-0.0911235436797142,-0.0824865847826004,-0.0738496258854866,-0.0652126669883728,-0.056575708091259,-0.0479387491941452,-0.0393017902970314,-0.030664831399917603,-0.022027872502803802,-0.013390913605690002,-0.004753954708576202,0.0038830041885375977,0.012519963085651398,0.021156921982765198,0.029793880879878998,0.0384308397769928,0.0470677986741066,0.0557047575712204,0.0643417164683342,0.072978675365448,0.0816156342625618,0.0902525931596756,0.0988895520567894,0.1075265109539032,0.116163469851017,0.1248004287481308,0.1334373950958252,0.1420743465423584,0.1507112979888916,0.159348264336586,0.1679852306842804,0.1766221821308136,0.1852591335773468,0.1938960999250412,0.2025330662727356,0.2111700177192688,0.219806969165802,0.2284439355134964,0.2370809018611908,0.245717853307724,0.2543548047542572,0.2629917860031128,0.271628737449646,0.2802656888961792,0.2889026403427124,0.2975395917892456,0.3061765730381012,0.3148135244846344,0.3234504759311676,0.3320874571800232,0.3407244086265564,0.3493613600730896,0.3579983115196228,0.366635262966156,0.3752722442150116,0.3839091956615448]},"_wandb":{"runtime":107},"parameters/gru.weight_ih_l0":{"_type":"histogram","values":[1,0,0,1,1,0,1,0,0,1,1,3,0,2,2,6,5,6,10,11,9,19,15,29,24,29,36,42,52,43,44,58,50,47,54,60,42,65,49,38,53,36,33,34,27,21,18,17,16,8,8,5,5,4,3,1,0,2,1,1,1,0,1,1],"bins":[-0.5197159051895142,-0.5048884153366089,-0.4900608956813812,-0.47523340582847595,-0.4604058861732483,-0.445578396320343,-0.43075087666511536,-0.4159233868122101,-0.4010958671569824,-0.38626837730407715,-0.3714408576488495,-0.3566133677959442,-0.34178584814071655,-0.3269583582878113,-0.3121308386325836,-0.29730334877967834,-0.2824758291244507,-0.2676483392715454,-0.25282084941864014,-0.23799332976341248,-0.223165825009346,-0.20833832025527954,-0.19351081550121307,-0.1786833107471466,-0.16385582089424133,-0.14902831614017487,-0.1342008113861084,-0.11937329918146133,-0.10454580187797546,-0.089718297123909,-0.07489079236984253,-0.06006328761577606,-0.045235782861709595,-0.030408278107643127,-0.01558077521622181,-0.0007532713934779167,0.014074232429265976,0.028901737183332443,0.04372923821210861,0.05855674296617508,0.07338424772024155,0.08821175247430801,0.10303925722837448,0.11786676198244095,0.13269425928592682,0.1475217640399933,0.16234926879405975,0.17717677354812622,0.1920042783021927,0.20683178305625916,0.22165928781032562,0.2364867925643921,0.25131428241729736,0.266141802072525,0.2809692919254303,0.29579681158065796,0.31062430143356323,0.3254518210887909,0.34027931094169617,0.35510683059692383,0.3699343204498291,0.38476184010505676,0.39958932995796204,0.4144168496131897,0.42924433946609497]},"_runtime":107.845002809,"train_loss":0.9234479740262032,"gradients/gru.weight_hh_l0":{"values":[2,1,2,6,7,2,10,8,4,9,2,6,9,6,11,8,4,9,4,8,9,15,19,28,38,47,65,144,176,300,516,2165,6925,682,302,195,140,89,69,45,26,20,13,14,10,6,15,7,9,13,8,6,4,6,4,3,8,7,4,8,2,4,2,2],"bins":[-0.2099701464176178,-0.20343713462352753,-0.19690412282943726,-0.19037111103534698,-0.1838380992412567,-0.17730508744716644,-0.17077207565307617,-0.1642390638589859,-0.15770605206489563,-0.15117304027080536,-0.1446400284767151,-0.13810701668262482,-0.13157400488853455,-0.12504099309444427,-0.1185079887509346,-0.11197497695684433,-0.10544196516275406,-0.09890895336866379,-0.09237594157457352,-0.08584292978048325,-0.07930991798639297,-0.0727769061923027,-0.06624389439821243,-0.05971088632941246,-0.05317787453532219,-0.04664486274123192,-0.04011185094714165,-0.033578839153051376,-0.027045829221606255,-0.020512817427515984,-0.013979806564748287,-0.0074467952363193035,-0.0009137839078903198,0.005619227420538664,0.012152238748967648,0.018685249611735344,0.025218261405825615,0.03175127133727074,0.03828428313136101,0.04481729492545128,0.05135030671954155,0.05788331851363182,0.0644163265824318,0.07094933837652206,0.07748235017061234,0.0840153619647026,0.09054837375879288,0.09708138555288315,0.10361439734697342,0.11014740914106369,0.11668042093515396,0.12321343272924423,0.1297464370727539,0.13627944886684418,0.14281246066093445,0.14934547245502472,0.155878484249115,0.16241149604320526,0.16894450783729553,0.1754775196313858,0.18201053142547607,0.18854354321956635,0.19507655501365662,0.2016095668077469,0.20814257860183716],"_type":"histogram"},"gradients/fc.weight":{"values":[3,1,0,5,3,2,4,5,5,0,5,2,1,2,3,8,3,5,5,5,2,4,6,11,13,15,19,14,24,36,49,96,110,53,48,28,22,9,12,19,23,11,3,6,12,4,6,8,7,5,3,3,5,2,0,0,2,2,0,0,3,2,2,2],"bins":[-0.08416622877120972,-0.0815478265285492,-0.07892942428588867,-0.07631102204322815,-0.07369261980056763,-0.0710742175579071,-0.06845581531524658,-0.06583741307258606,-0.06321901082992554,-0.060600604861974716,-0.057982202619314194,-0.05536380037665367,-0.05274539440870285,-0.05012699216604233,-0.047508589923381805,-0.04489018768072128,-0.04227178543806076,-0.03965338319540024,-0.037034980952739716,-0.03441657871007919,-0.03179817646741867,-0.029179772362113,-0.026561368256807327,-0.023942966014146805,-0.021324563771486282,-0.01870616152882576,-0.016087759286165237,-0.013469355180859566,-0.010850952938199043,-0.00823255069553852,-0.005614147521555424,-0.002995744813233614,-0.0003773495554924011,0.0022410531528294086,0.004859455861151218,0.007477858569473028,0.010096261277794838,0.01271466352045536,0.015333066694438457,0.017951469868421555,0.020569872111082077,0.0231882743537426,0.025806676596403122,0.028425080701708794,0.031043482944369316,0.03366188704967499,0.03628028929233551,0.03889869153499603,0.041517093777656555,0.04413549602031708,0.0467538982629776,0.04937230050563812,0.051990702748298645,0.054609108716249466,0.05722751095890999,0.05984591320157051,0.06246431544423103,0.06508272141218185,0.06770112365484238,0.0703195258975029,0.07293792814016342,0.07555633038282394,0.07817473262548447,0.08079313486814499,0.08341153711080551],"_type":"histogram"},"parameters/gru.bias_ih_l0_reverse":{"_type":"histogram","values":[1,0,0,0,1,2,1,1,4,0,0,4,3,6,8,7,2,8,7,4,5,7,0,3,6,3,7,1,6,9,6,8,8,4,7,1,6,7,6,3,3,3,1,4,5,1,3,1,0,0,1,1,0,0,0,1,1,0,2,0,1,0,0,2],"bins":[-0.19205625355243683,-0.18380257487297058,-0.17554891109466553,-0.16729524731636047,-0.15904156863689423,-0.15078788995742798,-0.14253422617912292,-0.13428056240081787,-0.12602688372135162,-0.11777321249246597,-0.10951954126358032,-0.10126587003469467,-0.09301219880580902,-0.08475852757692337,-0.07650485634803772,-0.06825118511915207,-0.05999751389026642,-0.05174384266138077,-0.04349017143249512,-0.03523650020360947,-0.026982828974723816,-0.018729157745838165,-0.010475486516952515,-0.002221815288066864,0.006031855940818787,0.014285527169704437,0.022539198398590088,0.03079286962747574,0.03904654085636139,0.04730021208524704,0.05555388331413269,0.06380755454301834,0.07206124067306519,0.08031491190195084,0.08856858313083649,0.09682225435972214,0.10507592558860779,0.11332959681749344,0.12158326804637909,0.12983694672584534,0.1380906105041504,0.14634427428245544,0.1545979529619217,0.16285163164138794,0.171105295419693,0.17935895919799805,0.1876126378774643,0.19586631655693054,0.2041199803352356,0.21237364411354065,0.2206273227930069,0.22888100147247314,0.2371346652507782,0.24538832902908325,0.2536420226097107,0.26189568638801575,0.2701493501663208,0.27840301394462585,0.2866566777229309,0.29491037130355835,0.3031640350818634,0.31141769886016846,0.3196713924407959,0.32792505621910095,0.336178719997406]},"_timestamp":1.7617147666014736e+09,"gradients/gru.weight_ih_l0":{"values":[1,1,0,0,0,0,0,0,0,0,0,2,1,0,2,1,0,1,0,5,2,2,0,2,1,2,4,10,8,15,22,47,156,654,98,37,20,10,8,4,6,9,7,0,0,4,0,2,1,0,0,1,1,0,0,1,1,0,0,0,0,1,1,1],"bins":[-0.14274020493030548,-0.1384495198726654,-0.13415883481502533,-0.12986814975738525,-0.12557744979858398,-0.1212867721915245,-0.11699607968330383,-0.11270539462566376,-0.10841470956802368,-0.1041240245103836,-0.09983333945274353,-0.09554264694452286,-0.09125196188688278,-0.0869612768292427,-0.08267058432102203,-0.07837989926338196,-0.07408921420574188,-0.0697985291481018,-0.06550784409046173,-0.06121715158224106,-0.05692646652460098,-0.05263578146696091,-0.04834509268403053,-0.04405440390110016,-0.03976371884346008,-0.03547303378582001,-0.031182345002889633,-0.026891658082604408,-0.022600971162319183,-0.01831028424203396,-0.014019597321748734,-0.009728910401463509,-0.00543820858001709,-0.001147521659731865,0.00314316526055336,0.007433852180838585,0.01172453910112381,0.016015226021409035,0.02030591294169426,0.024596599861979485,0.02888728678226471,0.033177971839904785,0.03746866062283516,0.04175934940576553,0.04605003446340561,0.050340719521045685,0.05463140830397606,0.05892209708690643,0.06321278214454651,0.06750346720218658,0.07179415225982666,0.07608484476804733,0.08037552982568741,0.08466621488332748,0.08895690739154816,0.09324759244918823,0.09753827750682831,0.10182896256446838,0.10611964762210846,0.11041034013032913,0.11470102518796921,0.11899171024560928,0.12328240275382996,0.12757308781147003,0.1318637728691101],"_type":"histogram"},"parameters/fc.bias":{"values":[1,0,0,0,0,0,0,0,0,0,0,1,0,0,0,0,0,0,0,0,0,0,0,0,1,0,0,0,0,0,0,0,1,0,0,0,0,0,0,0,0,0,0,0,0,0,0,1,0,0,0,0,0,0,0,0,0,0,0,0,0,0,0,1],"bins":[-0.11269412934780121,-0.10888965427875519,-0.10508517920970917,-0.10128069669008255,-0.09747622162103653,-0.09367174655199051,-0.08986727148294449,-0.08606278896331787,-0.08225831389427185,-0.07845383882522583,-0.07464936375617981,-0.07084488868713379,-0.06704040616750717,-0.06323593109846115,-0.05943145602941513,-0.05562697723507881,-0.05182250216603279,-0.04801802709698677,-0.04421354830265045,-0.04040907323360443,-0.03660459443926811,-0.03280011937022209,-0.028995642438530922,-0.025191165506839752,-0.021386688575148582,-0.017582211643457413,-0.013777734711766243,-0.009973258711397648,-0.006168781779706478,-0.002364305080845952,0.001440171618014574,0.0052446480840444565,0.009049125015735626,0.012853601947426796,0.016658078879117966,0.020462555810809135,0.024267032742500305,0.028071507811546326,0.031875986605882645,0.035680461674928665,0.039484940469264984,0.043289415538311005,0.047093890607357025,0.050898369401693344,0.054702844470739365,0.058507323265075684,0.062311798334121704,0.06611627340316772,0.06992074847221375,0.07372523099184036,0.07752970606088638,0.0813341811299324,0.08513865619897842,0.08894313871860504,0.09274761378765106,0.09655208885669708,0.1003565639257431,0.10416103899478912,0.10796552151441574,0.11176999658346176,0.11557447165250778,0.1193789467215538,0.12318342924118042,0.12698790431022644,0.13079237937927246],"_type":"histogram"},"gradients/gru.bias_hh_l0":{"bins":[-0.20545616745948792,-0.19881010055541992,-0.19216404855251312,-0.18551798164844513,-0.17887191474437714,-0.17222584784030914,-0.16557979583740234,-0.15893372893333435,-0.15228766202926636,-0.14564161002635956,-0.13899554312229156,-0.13234947621822357,-0.12570340931415558,-0.11905734986066818,-0.11241129040718079,-0.10576522350311279,-0.0991191640496254,-0.092473104596138,-0.08582703769207001,-0.07918097823858261,-0.07253491133451462,-0.06588885188102722,-0.05924278870224953,-0.05259672552347183,-0.04595066234469414,-0.03930459916591644,-0.03265853598713875,-0.026012474671006203,-0.019366411492228508,-0.012720348313450813,-0.006074286065995693,0.0005717766471207142,0.007217839360237122,0.013863902539014816,0.02050996571779251,0.027156027033925056,0.0338020920753479,0.0404481515288353,0.04709421470761299,0.053740277886390686,0.06038634106516838,0.06703240424394608,0.07367846369743347,0.08032453060150146,0.08697059005498886,0.09361665695905685,0.10026271641254425,0.10690878331661224,0.11355484277009964,0.12020090222358704,0.12684696912765503,0.13349303603172302,0.14013908803462982,0.14678515493869781,0.1534312218427658,0.1600772887468338,0.1667233407497406,0.1733694076538086,0.1800154745578766,0.1866615265607834,0.19330759346485138,0.19995366036891937,0.20659972727298737,0.21324577927589417,0.21989184617996216],"_type":"histogram","values":[1,0,0,0,0,0,0,0,0,1,0,0,1,0,0,0,0,0,0,1,0,1,2,1,2,1,5,1,5,7,86,42,13,7,4,2,3,1,1,0,0,1,1,0,0,0,0,0,0,0,0,0,0,0,0,0,0,0,0,0,1,0,0,1]},"gradients/gru.bias_ih_l0":{"_type":"histogram","values":[1,0,0,1,0,0,0,0,1,0,0,0,0,1,0,0,0,1,0,1,0,1,1,0,1,1,4,1,4,4,6,87,40,13,3,6,1,4,2,0,2,1,1,0,0,1,0,0,0,0,0,0,0,0,0,0,0,0,0,0,1,0,0,1],"bins":[-0.22150015830993652,-0.21456071734428406,-0.2076212614774704,-0.20068180561065674,-0.19374236464500427,-0.1868029236793518,-0.17986346781253815,-0.1729240119457245,-0.16598457098007202,-0.15904513001441956,-0.1521056741476059,-0.14516621828079224,-0.13822677731513977,-0.1312873363494873,-0.12434788048267365,-0.11740843206644058,-0.11046898365020752,-0.10352953523397446,-0.0965900868177414,-0.08965063840150833,-0.08271118998527527,-0.0757717415690422,-0.06883229315280914,-0.06189284473657608,-0.05495339632034302,-0.048013947904109955,-0.04107449948787689,-0.03413505107164383,-0.027195602655410767,-0.020256154239177704,-0.013316705822944641,-0.006377257406711578,0.0005621910095214844,0.007501639425754547,0.01444108784198761,0.021380536258220673,0.028319984674453735,0.0352594330906868,0.04219888150691986,0.049138329923152924,0.056077778339385986,0.06301722675561905,0.06995667517185211,0.07689612358808517,0.08383557200431824,0.0907750204205513,0.09771446883678436,0.10465391725301743,0.11159336566925049,0.11853281408548355,0.1254722625017166,0.13241171836853027,0.13935115933418274,0.1462906002998352,0.15323005616664886,0.16016951203346252,0.167108952999115,0.17404839396476746,0.18098784983158112,0.18792730569839478,0.19486674666404724,0.2018061876296997,0.20874564349651337,0.21568509936332703,0.2226245403289795]},"_step":397,"parameters/gru.weight_hh_l0":{"bins":[-0.5204022526741028,-0.5053682923316956,-0.49033433198928833,-0.4753004014492035,-0.46026644110679626,-0.44523248076438904,-0.4301985204219818,-0.415164589881897,-0.40013062953948975,-0.3850966691970825,-0.3700627088546753,-0.35502874851226807,-0.3399948179721832,-0.324960857629776,-0.3099268972873688,-0.29489293694496155,-0.2798590064048767,-0.2648250460624695,-0.24979108572006226,-0.23475712537765503,-0.219723179936409,-0.20468921959400177,-0.18965527415275574,-0.1746213138103485,-0.15958735346794128,-0.14455340802669525,-0.12951944768428802,-0.11448550224304199,-0.09945154190063477,-0.08441758900880814,-0.0693836361169815,-0.05434968322515488,-0.03931573033332825,-0.024281777441501617,-0.009247822687029839,0.005786131136119366,0.02082008495926857,0.0358540378510952,0.05088799446821213,0.06592194736003876,0.08095590025186539,0.09598985314369202,0.11102380603551865,0.12605775892734528,0.1410917192697525,0.15612566471099854,0.17115962505340576,0.1861935704946518,0.20122753083705902,0.21626149117946625,0.23129543662071228,0.2463293969631195,0.26136335730552673,0.2763972878456116,0.2914312481880188,0.306465208530426,0.32149916887283325,0.3365331292152405,0.3515670597553253,0.36660102009773254,0.38163498044013977,0.396668940782547,0.41170287132263184,0.42673683166503906,0.4417707920074463],"_type":"histogram","values":[1,0,0,0,2,1,0,2,2,2,4,8,6,6,13,19,23,30,33,48,61,86,118,171,237,325,422,454,556,645,672,620,649,712,672,632,676,656,642,595,547,472,392,310,244,178,90,65,37,42,20,22,12,12,6,6,13,5,6,5,1,1,0,1]},"gradients/fc.bias":{"_type":"histogram","values":[1,0,0,0,0,0,0,0,0,0,1,0,0,0,0,0,0,0,0,1,1,0,0,1,0,0,0,0,0,0,0,0,0,0,0,0,0,0,0,0,0,0,0,0,0,0,0,0,0,0,0,0,0,0,0,0,0,0,0,0,0,0,0,1],"bins":[-0.04970266669988632,-0.04755097255110741,-0.04539927840232849,-0.043247587978839874,-0.04109589383006096,-0.03894419968128204,-0.036792509257793427,-0.03464081510901451,-0.032489120960235596,-0.03033742681145668,-0.028185734525322914,-0.026034042239189148,-0.023882348090410233,-0.021730653941631317,-0.01957896165549755,-0.017427269369363785,-0.01527557522058487,-0.013123882003128529,-0.010972188785672188,-0.008820495568215847,-0.006668802350759506,-0.0045171091333031654,-0.0023654159158468246,-0.00021372269839048386,0.001937970519065857,0.004089663736522198,0.0062413569539785385,0.00839305017143488,0.01054474338889122,0.012696436606347561,0.014848129823803902,0.016999822109937668,0.019151508808135986,0.0213032029569149,0.023454895243048668,0.025606587529182434,0.02775828167796135,0.029909975826740265,0.03206166625022888,0.0342133603990078,0.03636505454778671,0.03851674869656563,0.04066844284534454,0.04282013326883316,0.044971827417612076,0.04712352156639099,0.04927521198987961,0.051426906138658524,0.05357860028743744,0.055730294436216354,0.05788198858499527,0.06003367900848389,0.0621853731572628,0.06433706730604172,0.06648875772953033,0.06864045560359955,0.07079214602708817,0.07294383645057678,0.075095534324646,0.07724722474813461,0.07939891517162323,0.08155061304569244,0.08370230346918106,0.08585400134325027,0.08800569176673889]},"parameters/gru.bias_hh_l0":{"values":[1,0,0,0,0,0,0,0,0,0,0,0,2,1,3,2,6,5,2,6,5,5,4,6,2,4,4,4,3,5,9,5,2,7,11,5,7,7,7,12,4,7,5,0,4,1,3,3,4,3,1,4,0,2,1,0,3,0,1,2,1,0,0,1],"bins":[-0.24791237711906433,-0.23908329010009766,-0.23025420308113098,-0.2214251160621643,-0.21259602904319763,-0.20376695692539215,-0.19493786990642548,-0.1861087828874588,-0.17727969586849213,-0.16845060884952545,-0.15962152183055878,-0.1507924348115921,-0.14196336269378662,-0.13313427567481995,-0.12430518865585327,-0.1154761016368866,-0.10664701461791992,-0.09781792759895325,-0.08898884057998657,-0.0801597610116005,-0.07133067399263382,-0.06250158697366714,-0.05367250367999077,-0.04484342038631439,-0.03601433336734772,-0.02718524821102619,-0.018356163054704666,-0.00952707789838314,-0.000697992742061615,0.00813109241425991,0.016960177570581436,0.02578926272690296,0.0346183180809021,0.043447405099868774,0.05227648839354515,0.06110557168722153,0.0699346587061882,0.07876374572515488,0.08759282529354095,0.09642191231250763,0.1052509993314743,0.11408008635044098,0.12290917336940765,0.13173826038837433,0.1405673325061798,0.14939641952514648,0.15822550654411316,0.16705459356307983,0.1758836805820465,0.18471276760101318,0.19354185461997986,0.20237094163894653,0.2112000286579132,0.2200291007757187,0.22885818779468536,0.23768727481365204,0.2465163618326187,0.2553454339504242,0.26417452096939087,0.27300360798835754,0.2818326950073242,0.2906617820262909,0.29949086904525757,0.30831995606422424,0.3171490430831909],"_type":"histogram"},"parameters/gru.bias_ih_l0":{"_type":"histogram","values":[3,0,1,2,5,3,0,6,5,7,15,3,4,3,6,2,4,3,2,3,6,4,6,5,3,7,9,7,4,3,7,2,9,5,5,4,6,2,2,1,3,1,0,2,2,1,4,0,2,0,0,1,0,0,0,0,0,0,0,1,0,0,0,1],"bins":[-0.14199048280715942,-0.13387852907180786,-0.1257665753364563,-0.11765462160110474,-0.10954266786575317,-0.10143071413040161,-0.09331876039505005,-0.08520680665969849,-0.07709485292434692,-0.06898289918899536,-0.0608709454536438,-0.052758991718292236,-0.044647037982940674,-0.03653508424758911,-0.02842313051223755,-0.020311176776885986,-0.012199223041534424,-0.004087269306182861,0.004024684429168701,0.012136638164520264,0.020248591899871826,0.02836054563522339,0.03647249937057495,0.044584453105926514,0.052696406841278076,0.06080836057662964,0.0689203143119812,0.07703226804733276,0.08514422178268433,0.09325617551803589,0.10136812925338745,0.10948008298873901,0.11759200692176819,0.12570396065711975,0.1338159143924713,0.14192786812782288,0.15003982186317444,0.158151775598526,0.16626372933387756,0.17437568306922913,0.1824876368045807,0.19059959053993225,0.1987115442752838,0.20682349801063538,0.21493545174598694,0.2230474054813385,0.23115935921669006,0.23927131295204163,0.2473832666873932,0.25549522042274475,0.2636071741580963,0.2717191278934479,0.27983108162879944,0.287943035364151,0.29605498909950256,0.3041669428348541,0.3122788965702057,0.32039085030555725,0.3285028040409088,0.3366147577762604,0.34472671151161194,0.3528386652469635,0.36095061898231506,0.3690625727176666,0.3771745264530182]},"gradients/gru.weight_ih_l0_reverse":{"bins":[-0.09119448810815811,-0.08789432048797607,-0.08459416031837463,-0.0812939926981926,-0.07799382507801056,-0.07469366490840912,-0.07139349728822708,-0.06809332966804504,-0.0647931694984436,-0.061493001878261566,-0.05819283425807953,-0.05489267036318779,-0.05159250646829605,-0.048292338848114014,-0.044992174953222275,-0.04169200733304024,-0.0383918434381485,-0.03509167954325676,-0.03179151192307472,-0.028491348028182983,-0.025191182270646095,-0.021891016513109207,-0.018590852618217468,-0.01529068686068058,-0.011990521103143692,-0.008690355345606804,-0.00539019051939249,-0.0020900252275168896,0.0012101400643587112,0.004510305356234312,0.007810470648109913,0.011110635474324226,0.014410793781280518,0.017710959538817406,0.021011125296354294,0.024311289191246033,0.02761145494878292,0.03091162070631981,0.03421178460121155,0.037511952221393585,0.040812116116285324,0.04411228001117706,0.0474124476313591,0.05071261152625084,0.05401277542114258,0.057312943041324615,0.060613106936216354,0.0639132708311081,0.06721343845129013,0.07051360607147217,0.07381376624107361,0.07711393386125565,0.08041410148143768,0.08371426165103912,0.08701442927122116,0.0903145968914032,0.09361475706100464,0.09691492468118668,0.10021509230136871,0.10351525992155075,0.10681542009115219,0.11011558771133423,0.11341575533151627,0.1167159155011177,0.12001608312129974],"_type":"histogram","values":[1,0,0,1,0,0,1,0,1,0,2,2,2,3,3,4,4,1,5,2,5,9,10,15,20,51,87,557,175,52,28,34,23,16,10,6,3,7,3,4,1,0,2,0,0,0,0,0,0,0,0,0,0,0,0,1,0,0,0,0,0,0,0,1]},"gradients/gru.weight_hh_l0_reverse":{"bins":[-0.12959477305412292,-0.12601275742053986,-0.12243073433637619,-0.11884871870279312,-0.11526669561862946,-0.11168467998504639,-0.10810265690088272,-0.10452064126729965,-0.10093861818313599,-0.09735660254955292,-0.09377457946538925,-0.09019256383180618,-0.08661054074764252,-0.08302852511405945,-0.07944650202989578,-0.07586448639631271,-0.07228246331214905,-0.06870044767856598,-0.06511843204498291,-0.061536408960819244,-0.05795438960194588,-0.05437237024307251,-0.05079035088419914,-0.047208331525325775,-0.043626315891742706,-0.04004429653286934,-0.03646227717399597,-0.032880257815122604,-0.029298238456249237,-0.02571621909737587,-0.022134199738502502,-0.018552180379629135,-0.014970161020755768,-0.0113881416618824,-0.0078061227686703205,-0.0042241038754582405,-0.0006420845165848732,0.0029399346094578505,0.006521953735500574,0.010103972628712654,0.013685991987586021,0.01726801134645939,0.020850030705332756,0.024432050064206123,0.02801406756043434,0.03159608691930771,0.035178106278181076,0.03876012563705444,0.04234214499592781,0.04592416435480118,0.049506183713674545,0.05308820307254791,0.05667022243142128,0.06025224179029465,0.06383425742387772,0.06741628050804138,0.07099829614162445,0.07458031922578812,0.07816233485937119,0.08174435794353485,0.08532637357711792,0.08890839666128159,0.09249041229486465,0.09607243537902832,0.09965445101261139],"_type":"histogram","values":[1,2,1,0,1,0,0,1,2,1,1,0,1,1,1,1,0,5,5,4,4,15,17,13,28,17,23,31,69,85,129,137,180,265,518,2061,6749,776,319,214,168,104,59,56,44,37,30,20,16,11,9,6,5,6,9,5,6,4,4,3,3,1,3,1]},"gradients/gru.bias_hh_l0_reverse":{"bins":[-0.11430318653583527,-0.11018778383731842,-0.10607238113880157,-0.10195697098970413,-0.09784156829118729,-0.09372616559267044,-0.089610755443573,-0.08549535274505615,-0.0813799500465393,-0.07726454734802246,-0.07314914464950562,-0.06903373450040817,-0.06491833180189133,-0.06080292910337448,-0.05668752267956734,-0.05257211625576019,-0.04845671355724335,-0.0443413108587265,-0.04022590443491936,-0.03611049801111221,-0.03199509531259537,-0.027879690751433372,-0.023764286190271378,-0.019648881629109383,-0.015533477067947388,-0.011418072506785393,-0.007302667945623398,-0.003187263384461403,0.000928141176700592,0.005043545737862587,0.009158950299024582,0.013274354860186577,0.017389774322509766,0.02150517888367176,0.025620583444833755,0.02973598800599575,0.033851392567157745,0.03796679526567459,0.042082201689481735,0.04619760811328888,0.050313010811805725,0.05442841351032257,0.058543819934129715,0.06265922635793686,0.0667746290564537,0.07089003175497055,0.075005441904068,0.07912084460258484,0.08323624730110168,0.08735164999961853,0.09146705269813538,0.09558246284723282,0.09969786554574966,0.10381326824426651,0.10792867839336395,0.1120440810918808,0.11615948379039764,0.12027488648891449,0.12439028918743134,0.12850569188594818,0.13262110948562622,0.13673651218414307,0.1408519148826599,0.14496731758117676,0.1490827202796936],"_type":"histogram","values":[1,0,0,1,0,1,0,0,0,0,1,0,0,1,3,0,2,0,2,1,2,2,3,1,3,7,11,72,32,15,4,3,2,4,3,5,3,1,0,0,1,0,2,1,0,0,1,0,0,0,0,0,0,0,0,0,0,0,0,0,0,0,0,1]},"parameters/fc.weight":{"values":[1,0,0,1,0,0,0,0,1,1,1,3,2,3,6,4,9,5,7,17,13,19,16,18,28,21,24,18,35,22,31,19,32,26,30,21,26,29,28,29,22,33,18,25,19,10,21,14,9,10,9,6,3,2,4,2,3,3,0,4,3,0,1,1],"bins":[-0.27674171328544617,-0.2686307430267334,-0.260519802570343,-0.25240883231163025,-0.24429786205291748,-0.2361869066953659,-0.22807595133781433,-0.21996498107910156,-0.21185402572155,-0.2037430703639984,-0.19563210010528564,-0.18752114474773407,-0.1794101893901825,-0.17129921913146973,-0.16318826377391815,-0.15507729351520538,-0.1469663381576538,-0.13885538280010223,-0.13074441254138947,-0.12263345718383789,-0.11452249437570572,-0.10641153156757355,-0.09830057621002197,-0.0901896134018898,-0.08207865059375763,-0.07396768778562546,-0.06585672497749329,-0.05774576961994171,-0.04963480681180954,-0.04152384400367737,-0.033412884920835495,-0.025301923975348473,-0.017190948128700256,-0.009079987183213234,-0.0009690262377262115,0.007141934707760811,0.015252895653247833,0.023363856598734856,0.03147481754422188,0.03958577662706375,0.04769673943519592,0.055807702243328094,0.06391866505146027,0.07202962040901184,0.08014058321714401,0.08825154602527618,0.09636250138282776,0.10447346419095993,0.1125844269990921,0.12069538980722427,0.12880635261535645,0.13691730797290802,0.1450282633304596,0.15313923358917236,0.16125018894672394,0.1693611592054367,0.17747211456298828,0.18558306992053986,0.19369404017925262,0.2018049955368042,0.20991596579551697,0.21802692115306854,0.22613787651062012,0.23424884676933289,0.24235980212688446],"_type":"histogram"},"epoch":397}