{"parameters/gru.weight_hh_l1":{"_type":"histogram","values":[2,1,2,1,3,9,4,9,18,22,21,41,50,65,71,102,136,182,227,243,272,337,461,455,487,555,598,630,654,648,673,639,619,583,474,530,392,360,337,276,256,208,141,117,91,78,45,43,40,26,17,6,10,6,6,4,2,1,0,1,0,0,0,1],"bins":[-0.3628133535385132,-0.3506300151348114,-0.3384466767311096,-0.32626333832740784,-0.31407999992370605,-0.3018966615200043,-0.2897133231163025,-0.2775299847126007,-0.2653466463088989,-0.25316330790519714,-0.24097996950149536,-0.22879663109779358,-0.2166132926940918,-0.20442995429039001,-0.19224661588668823,-0.18006327748298645,-0.16787993907928467,-0.15569660067558289,-0.1435132622718811,-0.13132992386817932,-0.11914658546447754,-0.10696324706077576,-0.09477990865707397,-0.08259657025337219,-0.07041323184967041,-0.05822989344596863,-0.046046555042266846,-0.033863216638565063,-0.02167987823486328,-0.009496539831161499,0.002686798572540283,0.014870136976242065,0.02705344557762146,0.03923678398132324,0.051420122385025024,0.0636034607887268,0.07578679919242859,0.08797013759613037,0.10015347599983215,0.11233681440353394,0.12452015280723572,0.1367034912109375,0.14888682961463928,0.16107016801834106,0.17325350642204285,0.18543684482574463,0.1976201832294464,0.2098035216331482,0.22198686003684998,0.23417019844055176,0.24635353684425354,0.2585368752479553,0.2707202136516571,0.2829035520553589,0.29508689045906067,0.30727022886276245,0.31945356726646423,0.331636905670166,0.3438202440738678,0.3560035824775696,0.36818692088127136,0.38037025928497314,0.3925535976886749,0.4047369360923767,0.4169202744960785]},"gradients/gru.weight_ih_l1":{"_type":"histogram","values":[4,1,0,1,1,3,2,2,1,3,7,6,4,7,4,8,19,10,23,19,42,58,80,93,124,153,240,295,496,721,1319,12672,4934,1040,638,412,300,227,132,121,68,68,45,33,17,28,20,16,16,9,2,12,5,0,4,3,3,1,0,1,0,0,0,3],"bins":[-0.027647262439131737,-0.026779143139719963,-0.02591102570295334,-0.025042906403541565,-0.02417478710412979,-0.023306667804718018,-0.022438548505306244,-0.02157043106853962,-0.020702311769127846,-0.019834192469716072,-0.018966075032949448,-0.018097955733537674,-0.0172298364341259,-0.016361717134714127,-0.015493598766624928,-0.014625480398535728,-0.013757361099123955,-0.012889241799712181,-0.012021123431622982,-0.011153005063533783,-0.01028488576412201,-0.009416766464710236,-0.008548648096621037,-0.00768052926287055,-0.006812410429120064,-0.005944291595369577,-0.005076172761619091,-0.004208053927868605,-0.0033399350941181183,-0.002471816260367632,-0.0016036974266171455,-0.0007355785928666592,0.00013253837823867798,0.0010006572119891644,0.0018687760457396507,0.002736894879490137,0.0036050137132406235,0.00447313254699111,0.005341251380741596,0.006209370214492083,0.007077489048242569,0.007945608347654343,0.008813726715743542,0.00968184508383274,0.010549964383244514,0.011418083682656288,0.012286202050745487,0.013154320418834686,0.01402243971824646,0.014890559017658234,0.015758678317070007,0.016626795753836632,0.017494915053248405,0.01836303435266018,0.019231151789426804,0.020099271088838577,0.02096739038825035,0.021835509687662125,0.0227036289870739,0.023571746423840523,0.024439865723252296,0.02530798502266407,0.026176102459430695,0.027044221758842468,0.027912341058254242]},"gradients/head.1.bias":{"bins":[-0.014682726934552193,-0.014377724379301071,-0.014072720892727375,-0.013767718337476254,-0.013462714850902557,-0.013157712295651436,-0.012852709740400314,-0.012547706253826618,-0.012242703698575497,-0.011937701143324375,-0.011632697656750679,-0.011327695101499557,-0.011022692546248436,-0.01071768905967474,-0.010412686504423618,-0.010107683017849922,-0.0098026804625988,-0.00949767790734768,-0.009192674420773983,-0.008887671865522861,-0.008582668378949165,-0.008277665823698044,-0.007972663268446922,-0.0076676602475345135,-0.007362657226622105,-0.007057654205709696,-0.006752651184797287,-0.0064476486295461655,-0.006142645608633757,-0.005837642587721348,-0.005532640032470226,-0.0052276370115578175,-0.004922633990645409,-0.004617630969733,-0.004312627948820591,-0.0040076253935694695,-0.0037026223726570606,-0.003397619351744652,-0.0030926165636628866,-0.0027876137755811214,-0.0024826107546687126,-0.002177607733756304,-0.0018726049456745386,-0.0015676020411774516,-0.0012625991366803646,-0.0009575962321832776,-0.0006525933276861906,-0.0003475904231891036,-4.25875186920166e-05,0.0002624153858050704,0.0005674182903021574,0.0008724211947992444,0.0011774240992963314,0.0014824270037934184,0.0017874299082905054,0.0020924326963722706,0.0023974357172846794,0.0027024387381970882,0.0030074415262788534,0.0033124443143606186,0.0036174473352730274,0.003922450356185436,0.004227452911436558,0.004532455932348967,0.004837458953261375],"_type":"histogram","values":[1,0,0,0,0,0,0,0,0,0,1,0,0,0,0,0,0,0,1,0,0,3,3,1,1,2,2,2,6,2,1,0,0,1,2,3,2,2,3,1,1,4,5,7,6,3,4,13,7,6,7,3,1,2,1,3,2,2,1,3,1,4,0,2]},"parameters/head.1.weight":{"_type":"histogram","values":[4,4,8,8,22,24,32,68,76,145,199,237,322,352,387,389,364,373,361,382,397,391,436,441,425,391,389,419,384,419,391,408,382,431,376,406,434,427,416,378,435,418,411,436,414,380,386,338,346,272,203,172,90,85,25,31,17,8,5,7,1,4,0,2],"bins":[-0.31718581914901733,-0.3068279027938843,-0.29646995663642883,-0.2861120402812958,-0.27575409412384033,-0.2653961777687073,-0.25503823161125183,-0.24468031525611877,-0.23432238399982452,-0.22396445274353027,-0.21360652148723602,-0.20324859023094177,-0.19289067387580872,-0.18253274261951447,-0.17217481136322021,-0.16181688010692596,-0.1514589488506317,-0.14110101759433746,-0.1307430863380432,-0.12038516253232956,-0.11002723127603531,-0.09966930001974106,-0.0893113762140274,-0.07895344495773315,-0.0685955137014389,-0.05823758244514465,-0.0478796549141407,-0.03752172738313675,-0.0271637961268425,-0.016805866733193398,-0.006447937339544296,0.003909992054104805,0.014267921447753906,0.024625850841403008,0.03498378023505211,0.04534170776605606,0.05569963902235031,0.06605757027864456,0.07641549408435822,0.08677342534065247,0.09713135659694672,0.10748928785324097,0.11784721910953522,0.12820515036582947,0.13856306672096252,0.14892099797725677,0.15927892923355103,0.16963686048984528,0.17999479174613953,0.19035272300243378,0.20071065425872803,0.21106858551502228,0.22142651677131653,0.23178443312644958,0.24214236438274384,0.2525002956390381,0.26285821199417114,0.2732161581516266,0.28357407450675964,0.2939320206642151,0.30428993701934814,0.3146478831768036,0.32500579953193665,0.3353637456893921,0.34572166204452515]},"gradients/head.4.weight":{"_type":"histogram","values":[1,0,0,0,0,0,1,1,0,1,0,1,1,1,0,1,1,0,2,1,0,0,0,1,0,1,3,5,6,12,54,77,464,56,43,10,6,3,1,1,1,0,0,1,1,1,1,0,2,0,1,1,1,0,0,1,0,1,0,0,0,0,0,1],"bins":[-0.11346657574176788,-0.10995199531316757,-0.10643742233514786,-0.10292284190654755,-0.09940826147794724,-0.09589368104934692,-0.09237910807132721,-0.0888645276427269,-0.08534994721412659,-0.08183537423610687,-0.07832079380750656,-0.07480621337890625,-0.07129163295030594,-0.06777705997228622,-0.06426247954368591,-0.0607478991150856,-0.05723332241177559,-0.053718745708465576,-0.050204165279865265,-0.04668958857655525,-0.04317500814795494,-0.03966043144464493,-0.03614585101604462,-0.032631274312734604,-0.029116695746779442,-0.02560211718082428,-0.022087538614869118,-0.018572960048913956,-0.015058382414281368,-0.011543803848326206,-0.008029226213693619,-0.004514647647738457,-0.0010000690817832947,0.0025145092513412237,0.006029087584465742,0.009543665684759617,0.013058244250714779,0.016572821885347366,0.02008740045130253,0.02360197901725769,0.027116557583212852,0.030631136149168015,0.03414571285247803,0.03766029328107834,0.04117486998438835,0.04468945041298866,0.048204027116298676,0.05171860754489899,0.055233184248209,0.05874776095151901,0.062262341380119324,0.06577692180871964,0.06929149478673935,0.07280607521533966,0.07632065564393997,0.07983523607254028,0.08334980905056,0.08686438947916031,0.09037896990776062,0.09389354288578033,0.09740812331438065,0.10092270374298096,0.10443728417158127,0.10795185714960098,0.1114664375782013]},"_runtime":277,"gradients/head.4.bias":{"values":[1,0,0,0,0,0,0,0,0,0,0,0,0,0,0,0,0,0,0,0,0,0,0,0,0,0,0,0,0,0,0,0,1,1,1,1,0,0,0,0,0,0,0,0,0,0,0,0,0,0,0,0,0,0,0,0,0,0,0,0,0,0,0,1],"bins":[-0.058298081159591675,-0.05654535070061684,-0.0547926239669323,-0.05303989350795746,-0.05128716677427292,-0.04953443631529808,-0.04778170958161354,-0.0460289791226387,-0.04427625238895416,-0.042523521929979324,-0.040770791471004486,-0.039018064737319946,-0.03726533427834511,-0.03551260754466057,-0.03375987708568573,-0.03200715035200119,-0.030254419893026352,-0.028501691296696663,-0.026748962700366974,-0.024996234104037285,-0.023243505507707596,-0.021490775048732758,-0.01973804645240307,-0.01798531785607338,-0.01623258925974369,-0.014479860663414001,-0.012727132067084312,-0.010974402539432049,-0.00922167394310236,-0.007468945346772671,-0.005716216284781694,-0.003963487222790718,-0.002210758626461029,-0.0004580297973006964,0.0012946990318596363,0.003047427861019969,0.004800156690180302,0.006552885286509991,0.008305614814162254,0.010058343410491943,0.011811072006821632,0.013563800603151321,0.01531652919948101,0.0170692577958107,0.018821988254785538,0.020574716851115227,0.022327445447444916,0.024080174043774605,0.025832902640104294,0.027585631236433983,0.029338359832763672,0.03109108842909336,0.03284381702542305,0.03459654748439789,0.03634927421808243,0.038102004677057266,0.039854735136032104,0.041607461869716644,0.04336019232869148,0.04511291906237602,0.04686564952135086,0.0486183762550354,0.05037110671401024,0.05212383344769478,0.05387656390666962],"_type":"histogram"},"parameters/gru.weight_hh_l1_reverse":{"values":[1,0,2,1,2,6,3,9,5,11,16,24,40,57,70,82,106,138,181,221,277,288,350,401,440,502,564,586,629,662,668,614,677,641,593,540,442,452,366,302,269,247,196,121,132,92,69,62,37,27,23,14,10,6,4,3,1,2,1,1,0,0,1,1],"bins":[-0.3803717792034149,-0.36802709102630615,-0.3556824028491974,-0.3433377146720886,-0.33099302649497986,-0.3186483383178711,-0.30630365014076233,-0.29395896196365356,-0.2816142737865448,-0.26926958560943604,-0.25692489743232727,-0.2445802092552185,-0.23223552107810974,-0.21989083290100098,-0.2075461447238922,-0.19520145654678345,-0.18285676836967468,-0.17051208019256592,-0.15816739201545715,-0.1458227038383484,-0.13347801566123962,-0.12113332748413086,-0.1087886393070221,-0.09644395112991333,-0.08409926295280457,-0.0717545747756958,-0.059409886598587036,-0.04706519842147827,-0.03472051024436951,-0.022375822067260742,-0.010031133890151978,0.002313554286956787,0.014658212661743164,0.02700290083885193,0.03934758901596069,0.05169227719306946,0.06403696537017822,0.07638165354728699,0.08872634172439575,0.10107102990150452,0.11341571807861328,0.12576040625572205,0.1381050944328308,0.15044978260993958,0.16279447078704834,0.1751391589641571,0.18748384714126587,0.19982853531837463,0.2121732234954834,0.22451791167259216,0.23686259984970093,0.2492072880268097,0.26155197620391846,0.2738966643810272,0.286241352558136,0.29858604073524475,0.3109307289123535,0.3232754170894623,0.33562010526657104,0.3479647934436798,0.3603094816207886,0.37265416979789734,0.3849988579750061,0.39734354615211487,0.40968823432922363],"_type":"histogram"},"parameters/gru.weight_ih_l1":{"_type":"histogram","values":[1,1,0,3,1,2,7,13,15,28,21,57,62,100,154,225,340,502,583,649,648,684,722,688,736,728,760,695,734,732,737,750,756,789,770,745,775,777,716,729,736,729,722,730,744,686,681,588,503,352,205,167,100,71,40,23,19,19,11,5,3,2,3,2],"bins":[-0.38716360926628113,-0.3754245638847351,-0.3636854887008667,-0.3519464433193207,-0.34020736813545227,-0.32846832275390625,-0.31672924757003784,-0.3049902021884918,-0.2932511568069458,-0.2815120816230774,-0.26977303624153137,-0.25803396105766296,-0.24629491567611694,-0.23455585539340973,-0.22281679511070251,-0.2110777348279953,-0.19933867454528809,-0.18759961426258087,-0.17586055397987366,-0.16412149369716644,-0.15238243341445923,-0.1406433880329132,-0.128904327750206,-0.11716526746749878,-0.10542620718479156,-0.09368714690208435,-0.08194808661937714,-0.07020903378725052,-0.058469973504543304,-0.04673091322183609,-0.034991856664419174,-0.02325279824435711,-0.011513769626617432,0.00022528879344463348,0.011964347213506699,0.023703405633568764,0.03544246405363083,0.04718152433633804,0.05892058089375496,0.07065963745117188,0.08239869773387909,0.0941377580165863,0.10587681829929352,0.11761587113142014,0.12935492396354675,0.14109398424625397,0.15283304452896118,0.1645721048116684,0.1763111650943756,0.18805022537708282,0.19978928565979004,0.21152834594249725,0.22326740622520447,0.2350064516067505,0.2467455118894577,0.2584845721721649,0.27022361755371094,0.28196269273757935,0.29370173811912537,0.3054408133029938,0.3171798586845398,0.3289189338684082,0.3406579792499542,0.35239705443382263,0.36413609981536865]},"val_accuracy":0.5869252873563219,"epoch":500,"gradients/gru.bias_ih_l1_reverse":{"values":[1,0,1,0,0,0,1,1,1,0,0,1,1,0,0,1,1,1,2,1,4,2,0,2,3,3,5,5,19,94,17,7,2,1,1,1,1,1,0,1,2,1,0,1,0,0,0,1,0,0,0,0,1,0,0,0,0,1,0,0,0,0,1,2],"bins":[-0.016936618834733963,-0.016362348571419716,-0.01578807644546032,-0.015213805250823498,-0.014639534056186676,-0.014065263792872429,-0.013490992598235607,-0.012916721403598785,-0.012342450208961964,-0.011768179014325142,-0.01119390781968832,-0.010619636625051498,-0.010045366361737251,-0.00947109516710043,-0.008896823972463608,-0.008322552777826786,-0.007748281583189964,-0.0071740103885531425,-0.006599739193916321,-0.006025468464940786,-0.005451197270303965,-0.004876926075667143,-0.004302655346691608,-0.0037283841520547867,-0.003154112957417965,-0.002579841762781143,-0.002005570800974965,-0.0014312997227534652,-0.0008570286445319653,-0.00028275756631046534,0.0002915135119110346,0.0008657845901325345,0.0014400538057088852,0.002014325000345707,0.002588595962151885,0.003162866923958063,0.003737138118594885,0.004311409313231707,0.004885680042207241,0.005459951236844063,0.0060342224314808846,0.006608493626117706,0.007182764820754528,0.0077570355497300625,0.008331306278705597,0.008905577473342419,0.00947984866797924,0.010054119862616062,0.010628391057252884,0.011202662251889706,0.011776933446526527,0.01235120464116335,0.012925475835800171,0.013499746099114418,0.01407401729375124,0.014648288488388062,0.015222559683024883,0.015796830877661705,0.016371101140975952,0.01694537326693535,0.017519643530249596,0.018093915656208992,0.01866818591952324,0.019242458045482635,0.019816728308796883],"_type":"histogram"},"parameters/head.4.bias":{"_type":"histogram","values":[1,0,0,0,0,0,0,0,1,0,0,0,0,0,0,0,0,0,0,0,0,0,0,0,0,0,0,0,0,0,0,0,0,0,0,0,0,0,0,0,0,0,0,0,0,0,0,0,0,0,0,0,1,0,0,0,0,0,0,1,0,1,0,1],"bins":[-0.23995287716388702,-0.2355860471725464,-0.23121923208236694,-0.2268524020910263,-0.22248558700084686,-0.21811875700950623,-0.21375194191932678,-0.20938511192798615,-0.2050182968378067,-0.20065146684646606,-0.19628465175628662,-0.19191782176494598,-0.18755100667476654,-0.1831841766834259,-0.17881736159324646,-0.17445053160190582,-0.17008370161056519,-0.16571688652038574,-0.1613500565290451,-0.15698324143886566,-0.15261641144752502,-0.14824959635734558,-0.14388276636600494,-0.1395159512758255,-0.13514912128448486,-0.13078230619430542,-0.12641547620296478,-0.12204865366220474,-0.1176818311214447,-0.11331500858068466,-0.10894818603992462,-0.10458136349916458,-0.10021454095840454,-0.0958477184176445,-0.09148089587688446,-0.08711407333612442,-0.08274725079536438,-0.07838042825460434,-0.0740136057138443,-0.06964678317308426,-0.06527996063232422,-0.06091313436627388,-0.05654631182551384,-0.0521794892847538,-0.04781266301870346,-0.04344584047794342,-0.03907901793718338,-0.03471219539642334,-0.0303453728556633,-0.02597855031490326,-0.02161172777414322,-0.01724490337073803,-0.01287808082997799,-0.008511258289217949,-0.004144434817135334,0.00022238818928599358,0.004589211195707321,0.008956033736467361,0.013322857208549976,0.01768968068063259,0.02205650322139263,0.026423325762152672,0.03079015016555786,0.0351569727063179,0.03952379524707794]},"gradients/gru.weight_ih_l1_reverse":{"_type":"histogram","values":[1,2,2,2,2,3,2,2,11,7,9,13,8,12,23,25,38,36,50,66,60,93,99,138,194,189,250,311,375,519,724,2153,13686,2216,780,524,355,249,240,187,181,138,113,101,64,67,51,35,32,25,31,22,15,11,4,5,9,3,7,1,1,0,2,2],"bins":[-0.008056076243519783,-0.007808187510818243,-0.007560298778116703,-0.007312409579753876,-0.007064520847052336,-0.006816632114350796,-0.0065687429159879684,-0.0063208541832864285,-0.0060729654505848885,-0.0058250767178833485,-0.0055771879851818085,-0.005329298786818981,-0.005081410054117441,-0.004833521321415901,-0.004585632123053074,-0.004337743390351534,-0.004089854657649994,-0.003841965924948454,-0.0035940769594162703,-0.0033461879938840866,-0.0030982992611825466,-0.0028504105284810066,-0.002602521562948823,-0.0023546325974166393,-0.0021067438647150993,-0.0018588550155982375,-0.0016109661664813757,-0.0013630773173645139,-0.001115188468247652,-0.0008672996191307902,-0.0006194107700139284,-0.0003715219208970666,-0.0001236340031027794,0.00012425484601408243,0.00037214369513094425,0.0006200325442478061,0.0008679213933646679,0.0011158102424815297,0.0013636990915983915,0.0016115879407152534,0.0018594767898321152,0.002107365522533655,0.002355254488065839,0.0026031434535980225,0.0028510321862995625,0.0030989209190011024,0.003346809884533286,0.0035946988500654697,0.0038425875827670097,0.00409047631546855,0.00433836504817009,0.004586254246532917,0.004834142979234457,0.005082031711935997,0.005329920910298824,0.005577809643000364,0.005825698375701904,0.006073587108403444,0.006321475841104984,0.006569365039467812,0.006817253772169352,0.007065142504870892,0.007313031703233719,0.007560920435935259,0.007808809168636799]},"train_loss":0.9200462028384209,"gradients/in_norm.weight":{"values":[1,0,0,0,0,0,0,0,0,0,0,0,1,0,0,0,0,0,0,0,0,0,1,0,0,1,0,0,1,0,0,0,0,0,0,0,0,0,0,0,0,0,0,0,0,0,0,0,0,0,0,0,0,0,0,0,0,0,0,0,0,0,0,1],"bins":[-0.025199100375175476,-0.024188295006752014,-0.023177487775683403,-0.022166680544614792,-0.02115587517619133,-0.020145069807767868,-0.019134262576699257,-0.018123455345630646,-0.017112649977207184,-0.016101844608783722,-0.01509103737771511,-0.014080231077969074,-0.013069424778223038,-0.012058618478477001,-0.011047812178730965,-0.010037005878984928,-0.009026199579238892,-0.008015393279492855,-0.0070045869797468185,-0.005993780680000782,-0.0049829743802547455,-0.003972168080508709,-0.0029613617807626724,-0.001950555481016636,-0.0009397491812705994,7.105711847543716e-05,0.0010818634182214737,0.0020926697179675102,0.0031034760177135468,0.004114282317459583,0.00512508861720562,0.006135894916951656,0.007146697491407394,0.008157503791153431,0.009168310090899467,0.010179116390645504,0.01118992269039154,0.012200728990137577,0.013211535289883614,0.01422234158962965,0.015233147889375687,0.01624395325779915,0.01725476048886776,0.01826556771993637,0.019276373088359833,0.020287178456783295,0.021297985687851906,0.022308792918920517,0.02331959828734398,0.02433040365576744,0.025341210886836052,0.026352018117904663,0.027362823486328125,0.028373628854751587,0.029384436085820198,0.03039524331688881,0.03140604868531227,0.03241685405373573,0.03342766314744949,0.034438468515872955,0.03544927388429642,0.03646007925271988,0.03747088462114334,0.0384816937148571,0.03949249908328056],"_type":"histogram"},"parameters/gru.bias_ih_l1_reverse":{"_type":"histogram","values":[1,0,1,1,0,1,2,5,6,5,11,7,8,7,6,6,7,8,9,5,9,10,7,8,6,6,1,6,4,4,5,2,1,3,0,3,3,1,1,1,3,2,1,1,0,1,1,1,1,2,0,0,0,1,0,0,0,0,0,0,0,0,0,1],"bins":[-0.06587912887334824,-0.06056753545999527,-0.0552559420466423,-0.04994434863328934,-0.04463275521993637,-0.039321158081293106,-0.03400956466794014,-0.028697971254587173,-0.023386377841234207,-0.01807478442788124,-0.0127631900832057,-0.007451596204191446,-0.0021400023251771927,0.003171591553837061,0.008483185432851315,0.013794779777526855,0.019106373190879822,0.024417966604232788,0.029729560017585754,0.03504115343093872,0.04035274684429169,0.04566434398293495,0.05097593739628792,0.056287530809640884,0.06159912422299385,0.06691072136163712,0.07222231477499008,0.07753390818834305,0.08284550160169601,0.08815709501504898,0.09346868842840195,0.09878028184175491,0.10409186780452728,0.10940346121788025,0.11471505463123322,0.12002664804458618,0.12533824145793915,0.13064983487129211,0.13596142828464508,0.14127302169799805,0.146584615111351,0.15189620852470398,0.15720780193805695,0.1625193953514099,0.16783098876476288,0.17314258217811584,0.1784541755914688,0.18376576900482178,0.18907737731933594,0.1943889707326889,0.19970056414604187,0.20501215755939484,0.2103237509727478,0.21563534438610077,0.22094693779945374,0.2262585312128067,0.23157012462615967,0.23688171803951263,0.2421933114528656,0.24750490486621857,0.25281649827957153,0.2581280767917633,0.26343968510627747,0.26875126361846924,0.2740628719329834]},"parameters/gru.bias_ih_l0":{"bins":[-0.0762239620089531,-0.07271865755319595,-0.06921335309743881,-0.06570805609226227,-0.06220275163650513,-0.058697447180747986,-0.055192142724990845,-0.051686841994524,-0.04818153753876686,-0.04467623308300972,-0.04117093235254288,-0.037665627896785736,-0.034160323441028595,-0.030655022710561752,-0.02714971825480461,-0.02364441566169262,-0.020139113068580627,-0.016633810475468636,-0.013128506951034069,-0.009623203426599503,-0.006117900833487511,-0.0026125977747142315,0.0008927052840590477,0.004398008342832327,0.007903311401605606,0.011408613994717598,0.014913917519152164,0.01841922104358673,0.021924523636698723,0.025429826229810715,0.028935130685567856,0.0324404314160347,0.03594572842121124,0.039451032876968384,0.042956333607435226,0.04646163806319237,0.04996693879365921,0.05347224324941635,0.05697754770517349,0.060482848435640335,0.06398814916610718,0.06749345362186432,0.07099875807762146,0.0745040625333786,0.07800936698913574,0.08151467144489288,0.08501996845006943,0.08852527290582657,0.09203057736158371,0.09553588181734085,0.09904118627309799,0.10254648327827454,0.10605178773403168,0.10955709218978882,0.11306239664554596,0.1165677011013031,0.12007300555706024,0.12357830256223679,0.12708361446857452,0.13058890402317047,0.1340942084789276,0.13759951293468475,0.1411048173904419,0.14461012184619904,0.14811542630195618],"_type":"histogram","values":[1,0,0,0,0,2,0,0,1,0,0,4,3,2,1,7,7,6,5,8,6,10,8,5,12,11,11,10,14,12,8,4,7,2,3,4,0,3,0,3,0,0,2,0,0,4,1,0,0,2,1,1,0,0,0,0,0,0,0,0,0,0,0,1]},"gradients/gru.bias_ih_l1":{"values":[1,0,0,0,1,2,1,3,0,0,1,1,0,1,1,0,0,0,1,2,4,1,1,5,7,71,45,15,3,1,3,1,3,1,3,3,1,1,0,0,0,0,0,1,1,0,0,1,1,0,1,0,1,1,0,0,0,0,0,0,0,0,0,1],"bins":[-0.06867481768131256,-0.06602143496274948,-0.0633680447936058,-0.060714662075042725,-0.058061279356479645,-0.055407892912626266,-0.05275450646877289,-0.05010112375020981,-0.04744773730635643,-0.04479435086250305,-0.04214096814393997,-0.039487581700086594,-0.036834195256233215,-0.034180812537670135,-0.03152742609381676,-0.028874041512608528,-0.0262206569314003,-0.02356727235019207,-0.02091388776898384,-0.018260501325130463,-0.015607116743922234,-0.012953732162714005,-0.0103003466501832,-0.0076469616033136845,-0.004993576556444168,-0.0023401915095746517,0.00031319353729486465,0.002966578584164381,0.005619963631033897,0.008273348212242126,0.01092673372477293,0.013580119237303734,0.016233503818511963,0.018886888399720192,0.02154027298092842,0.0241936594247818,0.02684704400599003,0.029500428587198257,0.032153815031051636,0.034807197749614716,0.037460584193468094,0.04011397063732147,0.04276735335588455,0.04542073979973793,0.04807412624359131,0.05072750896215439,0.05338089540600777,0.05603427812457085,0.058687664568424225,0.0613410510122776,0.06399443745613098,0.06664782017469406,0.06930120289325714,0.07195459306240082,0.0746079757809639,0.07726135849952698,0.07991474866867065,0.08256813138723373,0.08522151410579681,0.0878748968243599,0.09052828699350357,0.09318166971206665,0.09583505243062973,0.09848844259977341,0.10114182531833649],"_type":"histogram"},"parameters/in_norm.weight":{"values":[1,0,0,0,0,1,0,0,0,0,0,0,0,0,0,0,0,0,0,0,0,0,0,1,0,0,0,0,0,0,0,0,0,1,0,0,0,0,0,0,1,0,0,0,0,0,0,0,0,0,0,0,0,0,0,0,0,0,0,0,0,0,0,1],"bins":[1.03834867477417,1.0396699905395508,1.0409913063049316,1.0423126220703125,1.0436339378356934,1.0449552536010742,1.046276569366455,1.0475980043411255,1.0489193201065063,1.0502406358718872,1.051561951637268,1.052883267402649,1.0542045831680298,1.0555258989334106,1.0568472146987915,1.0581685304641724,1.0594898462295532,1.060811161994934,1.062132477760315,1.0634537935256958,1.0647752285003662,1.066096544265747,1.067417860031128,1.0687391757965088,1.0700604915618896,1.0713818073272705,1.0727031230926514,1.0740244388580322,1.075345754623413,1.076667070388794,1.0779883861541748,1.0793097019195557,1.0806310176849365,1.081952452659607,1.0832737684249878,1.0845950841903687,1.0859163999557495,1.0872377157211304,1.0885590314865112,1.089880347251892,1.091201663017273,1.0925229787826538,1.0938442945480347,1.0951656103134155,1.0964869260787964,1.0978083610534668,1.0991296768188477,1.1004509925842285,1.1017723083496094,1.1030936241149902,1.104414939880371,1.105736255645752,1.1070575714111328,1.1083788871765137,1.1097002029418945,1.1110215187072754,1.1123428344726562,1.113664150238037,1.1149855852127075,1.1163069009780884,1.1176282167434692,1.11894953250885,1.120270848274231,1.1215921640396118,1.1229134798049927],"_type":"histogram"},"parameters/gru.bias_hh_l1":{"values":[1,0,3,0,3,4,5,4,6,3,2,5,3,8,8,10,13,7,2,9,4,5,6,4,3,4,10,4,4,2,5,2,0,2,3,2,5,2,1,3,1,1,1,3,0,1,4,2,2,0,2,2,0,0,0,1,2,0,0,0,1,0,1,1],"bins":[-0.045967213809490204,-0.04174842685461044,-0.03752963989973068,-0.03331085294485092,-0.02909206412732601,-0.02487327717244625,-0.02065448835492134,-0.01643570140004158,-0.01221691444516182,-0.007998127490282059,-0.0037793396040797234,0.0004394478164613247,0.004658235237002373,0.008877022191882133,0.013095810078084469,0.017314597964286804,0.021533384919166565,0.025752171874046326,0.029970958828926086,0.03418974578380585,0.03840853273868561,0.04262732341885567,0.04684611037373543,0.05106489732861519,0.05528368428349495,0.05950247123837471,0.06372126191854477,0.06794004887342453,0.07215883582830429,0.07637762278318405,0.08059640973806381,0.08481519669294357,0.08903399109840393,0.09325277805328369,0.09747156500816345,0.10169035196304321,0.10590913891792297,0.11012792587280273,0.1143467128276825,0.11856549978256226,0.12278428673744202,0.12700307369232178,0.13122186064720154,0.1354406476020813,0.13965943455696106,0.14387822151184082,0.14809700846672058,0.15231579542160034,0.1565345823764801,0.16075338423252106,0.16497217118740082,0.16919095814228058,0.17340974509716034,0.1776285320520401,0.18184731900691986,0.18606610596179962,0.19028489291667938,0.19450367987155914,0.1987224668264389,0.20294125378131866,0.20716004073619843,0.21137882769107819,0.21559761464595795,0.2198164016008377,0.22403518855571747],"_type":"histogram"},"parameters/gru.bias_hh_l1_reverse":{"_type":"histogram","values":[1,1,0,1,1,1,4,5,5,6,11,7,11,4,7,5,9,7,4,10,11,6,9,7,7,3,2,6,3,4,6,0,1,3,1,2,3,1,1,3,1,2,1,1,0,1,1,2,1,1,0,0,0,1,0,0,0,0,0,0,0,0,0,1],"bins":[-0.0620989166200161,-0.056846387684345245,-0.05159386247396469,-0.04634133353829384,-0.041088804602622986,-0.03583627566695213,-0.03058374859392643,-0.025331221520900726,-0.020078692585229874,-0.014826164580881596,-0.009573636576533318,-0.0043211085721850395,0.0009314194321632385,0.006183947436511517,0.011436475440859795,0.016689002513885498,0.02194153144955635,0.027194060385227203,0.03244658559560776,0.03769911453127861,0.04295164346694946,0.048204172402620316,0.05345670133829117,0.05870922654867172,0.06396175920963287,0.06921428442001343,0.07446680963039398,0.07971934229135513,0.08497186750173569,0.09022439271211624,0.09547692537307739,0.10072945058345795,0.1059819757938385,0.11123450100421906,0.1164870336651802,0.12173955887556076,0.1269920915365219,0.13224461674690247,0.13749714195728302,0.14274966716766357,0.14800220727920532,0.15325473248958588,0.15850725769996643,0.16375978291034698,0.16901230812072754,0.1742648333311081,0.17951737344264984,0.1847698986530304,0.19002242386341095,0.1952749490737915,0.20052747428417206,0.2057800143957138,0.21103253960609436,0.21628506481647491,0.22153759002685547,0.22679011523723602,0.23204264044761658,0.23729518055915833,0.24254770576953888,0.24780023097991943,0.2530527710914612,0.25830528140068054,0.2635578215122223,0.26881033182144165,0.2740628719329834]},"gradients/gru.bias_hh_l1":{"_type":"histogram","values":[4,0,0,0,0,0,1,1,1,1,0,3,0,0,0,1,1,1,4,1,4,5,11,52,50,16,10,2,1,2,2,2,2,3,2,0,2,0,0,0,0,0,0,0,1,2,1,0,0,0,0,0,0,0,2,0,0,0,0,0,0,0,0,1],"bins":[-0.040718503296375275,-0.039016276597976685,-0.037314046174287796,-0.035611819475889206,-0.033909592777490616,-0.03220736235380173,-0.030505135655403137,-0.028802908957004547,-0.027100680395960808,-0.02539845183491707,-0.02369622513651848,-0.02199399657547474,-0.020291768014431,-0.01858954131603241,-0.01688731275498867,-0.015185085125267506,-0.013482857495546341,-0.011780629865825176,-0.010078402236104012,-0.008376173675060272,-0.0066739460453391075,-0.004971718415617943,-0.003269490320235491,-0.0015672624576836824,0.00013496540486812592,0.0018371932674199343,0.0035394211299717426,0.005241649225354195,0.006943876855075359,0.008646104484796524,0.010348333045840263,0.012050560675561428,0.013752788305282593,0.015455015935003757,0.017157243564724922,0.01885947212576866,0.02056169882416725,0.02226392738521099,0.02396615594625473,0.02566838264465332,0.02737061120569706,0.0290728397667408,0.03077506646513939,0.03247729316353798,0.03417952358722687,0.03588175028562546,0.03758397698402405,0.039286207407712936,0.040988434106111526,0.04269066080451012,0.044392891228199005,0.046095117926597595,0.047797344624996185,0.049499575048685074,0.051201801747083664,0.052904028445482254,0.05460625886917114,0.05630848556756973,0.05801071226596832,0.05971293896436691,0.0614151693880558,0.06311739981174469,0.06481962651014328,0.06652185320854187,0.06822407990694046]},"_step":499,"parameters/gru.weight_hh_l0_reverse":{"_type":"histogram","values":[2,0,3,3,4,1,5,9,5,21,28,30,52,64,85,96,112,152,191,230,245,278,331,379,404,496,529,581,607,559,608,611,562,550,546,523,494,471,399,326,320,274,241,176,154,110,100,82,62,49,37,27,21,8,13,9,4,2,1,1,1,1,0,3],"bins":[-0.3104551434516907,-0.30043601989746094,-0.2904168665409088,-0.2803977429866791,-0.27037861943244934,-0.2603594958782196,-0.2503403425216675,-0.24032121896743774,-0.230302095413208,-0.22028295695781708,-0.21026381850242615,-0.2002446949481964,-0.19022555649280548,-0.18020643293857574,-0.17018729448318481,-0.16016817092895508,-0.15014903247356415,-0.14012989401817322,-0.13011077046394348,-0.12009163945913315,-0.11007250845432281,-0.10005336999893188,-0.09003423899412155,-0.08001510798931122,-0.06999597698450089,-0.05997684597969055,-0.04995771497488022,-0.03993858024477959,-0.029919449239969254,-0.01990031823515892,-0.009881185367703438,0.00013794656842947006,0.010157078504562378,0.02017620950937271,0.030195342376828194,0.040214475244283676,0.05023360624909401,0.06025273725390434,0.07027187198400497,0.08029100298881531,0.09031013399362564,0.10032926499843597,0.11034839600324631,0.12036752700805664,0.13038666546344757,0.1404057890176773,0.15042492747306824,0.16044405102729797,0.1704631894826889,0.18048232793807983,0.19050145149230957,0.2005205899477005,0.21053971350193024,0.22055885195732117,0.2305779755115509,0.24059711396694183,0.25061625242233276,0.2606353759765625,0.27065449953079224,0.28067365288734436,0.2906927764415741,0.30071189999580383,0.31073102355003357,0.3207501769065857,0.33076930046081543]},"parameters/in_norm.bias":{"bins":[-0.02714547887444496,-0.02643514983355999,-0.02572482079267502,-0.025014491751790047,-0.024304162710905075,-0.023593833670020103,-0.022883504629135132,-0.02217317558825016,-0.02146284654736519,-0.020752517506480217,-0.020042188465595245,-0.019331859424710274,-0.018621530383825302,-0.01791120134294033,-0.01720087230205536,-0.016490543261170387,-0.015780214220285416,-0.015069885179400444,-0.014359556138515472,-0.0136492270976305,-0.01293889805674553,-0.012228569015860558,-0.011518239974975586,-0.010807910934090614,-0.010097581893205643,-0.009387252852320671,-0.0086769238114357,-0.007966594770550728,-0.007256265729665756,-0.006545936688780785,-0.005835607647895813,-0.005125278607010841,-0.00441494956612587,-0.003704620525240898,-0.0029942914843559265,-0.002283962443470955,-0.0015736334025859833,-0.0008633043617010117,-0.00015297532081604004,0.0005573537200689316,0.0012676827609539032,0.001978011801838875,0.0026883408427238464,0.003398669883608818,0.00410899892449379,0.004819327965378761,0.005529657006263733,0.0062399860471487045,0.006950315088033676,0.007660644128918648,0.00837097316980362,0.009081302210688591,0.009791631251573563,0.010501960292458534,0.011212289333343506,0.011922618374228477,0.012632947415113449,0.01334327645599842,0.014053605496883392,0.014763934537768364,0.015474263578653336,0.016184592619538307,0.01689492166042328,0.01760525070130825,0.018315579742193222],"_type":"histogram","values":[1,0,0,1,0,1,0,0,0,0,0,0,0,0,0,0,0,0,0,0,0,0,0,0,0,0,0,0,0,0,0,0,0,0,0,0,0,0,1,0,0,0,0,0,0,0,0,0,0,0,0,0,0,0,0,0,0,0,1,0,0,0,0,1]},"gradients/gru.bias_hh_l0":{"_type":"histogram","values":[2,0,0,1,1,0,1,1,2,0,0,0,1,1,0,1,1,2,0,2,2,0,3,2,0,2,3,1,1,3,17,77,31,7,7,2,1,3,1,2,0,0,3,3,0,0,0,1,0,0,1,1,0,0,0,1,0,0,0,0,0,0,0,1],"bins":[-0.047387201339006424,-0.045890968292951584,-0.044394735246896744,-0.042898502200841904,-0.041402269154787064,-0.039906036108732224,-0.03840980306267738,-0.03691357001662254,-0.035417333245277405,-0.033921100199222565,-0.032424867153167725,-0.030928635969758034,-0.029432401061058044,-0.027936168015003204,-0.026439934968948364,-0.024943701922893524,-0.023447468876838684,-0.021951235830783844,-0.020455002784729004,-0.018958769738674164,-0.017462536692619324,-0.015966301783919334,-0.014470068737864494,-0.012973835691809654,-0.011477602645754814,-0.009981369599699974,-0.008485136553645134,-0.006988902576267719,-0.005492669530212879,-0.003996436484158039,-0.0025002029724419117,-0.001003969693556428,0.0004922598600387573,0.001988493138924241,0.003484726417809725,0.004980959929525852,0.006477192975580692,0.007973426021635532,0.009469659999012947,0.010965893045067787,0.012462126091122627,0.013958359137177467,0.015454592183232307,0.016950825229287148,0.018447060137987137,0.019943293184041977,0.021439526230096817,0.022935759276151657,0.024431992322206497,0.025928225368261337,0.027424458414316177,0.028920691460371017,0.030416924506425858,0.0319131575524807,0.03340939059853554,0.03490562364459038,0.036401860415935516,0.037898093461990356,0.0393943265080452,0.04089055955410004,0.04238679260015488,0.04388302564620972,0.04537925869226456,0.0468754917383194,0.04837172478437424]},"gradients/in_norm.bias":{"bins":[-0.03730439394712448,-0.0359857939183712,-0.03466719388961792,-0.03334859386086464,-0.03202999383211136,-0.03071139194071293,-0.0293927900493145,-0.028074190020561218,-0.026755589991807938,-0.025436989963054657,-0.024118389934301376,-0.022799788042902946,-0.021481188014149666,-0.020162587985396385,-0.018843986093997955,-0.017525386065244675,-0.016206786036491394,-0.014888186007738113,-0.013569585047662258,-0.012250984087586403,-0.010932384058833122,-0.009613784030079842,-0.008295183070003986,-0.006976582575589418,-0.0056579820811748505,-0.0043393815867602825,-0.0030207810923457146,-0.0017021805979311466,-0.0003835801035165787,0.0009350203908979893,0.0022536208853125572,0.003572221379727125,0.004890821874141693,0.006209422368556261,0.007528022862970829,0.008846623823046684,0.010165223851799965,0.011483823880553246,0.0128024248406291,0.014121025800704956,0.015439625829458237,0.016758225858211517,0.018076825886964798,0.019395427778363228,0.02071402780711651,0.02203262783586979,0.02335122972726822,0.0246698297560215,0.02598842978477478,0.02730702981352806,0.02862562984228134,0.02994423173367977,0.0312628298997879,0.03258143365383148,0.03390003368258476,0.03521863371133804,0.036537233740091324,0.037855833768844604,0.039174433797597885,0.040493033826351166,0.041811637580394745,0.043130237609148026,0.044448837637901306,0.04576743766665459,0.04708603769540787],"_type":"histogram","values":[1,0,0,0,0,0,0,0,0,0,0,0,0,0,1,0,0,1,0,0,0,0,0,0,0,0,0,0,0,0,0,0,0,0,0,0,0,1,1,0,0,0,0,0,0,0,0,0,0,0,0,0,0,0,0,0,0,0,0,0,0,0,0,1]},"gradients/head.1.weight":{"values":[2,0,0,0,0,1,0,1,3,0,1,1,2,4,3,6,8,5,9,15,23,20,30,30,42,58,79,111,155,239,318,441,717,1160,2464,5072,2052,1070,682,416,299,223,179,118,84,69,51,34,26,23,10,8,6,1,1,5,0,1,4,0,0,1,0,1],"bins":[-0.013669981621205807,-0.01328369788825512,-0.012897414155304432,-0.012511130422353745,-0.012124846689403057,-0.01173856295645237,-0.011352279223501682,-0.010965995490550995,-0.010579711757600307,-0.01019342802464962,-0.009807144291698933,-0.009420860558748245,-0.009034576825797558,-0.00864829309284687,-0.008262009359896183,-0.007875725626945496,-0.0074894423596560955,-0.007103158626705408,-0.006716874893754721,-0.006330591160804033,-0.005944307427853346,-0.0055580236949026585,-0.005171739961951971,-0.004785456229001284,-0.0043991729617118835,-0.004012889228761196,-0.003626605262979865,-0.0032403215300291777,-0.002854038029909134,-0.0024677542969584465,-0.002081470564007759,-0.0016951868310570717,-0.0013089030981063843,-0.0009226193651556969,-0.0005363356904126704,-0.00015005198656581342,0.00023623171728104353,0.0006225154502317309,0.0010087990667670965,0.001395082799717784,0.0017813665326684713,0.0021676502656191587,0.002553933998569846,0.0029402177315205336,0.0033265012316405773,0.0037127849645912647,0.004099068697541952,0.0044853524304926395,0.004871636163443327,0.005257919896394014,0.005644203629344702,0.006030487362295389,0.006416771095246077,0.006803054828196764,0.007189338561147451,0.007575622294098139,0.007961905561387539,0.008348189294338226,0.008734473027288914,0.009120756760239601,0.009507040493190289,0.009893324226140976,0.010279607959091663,0.01066589169204235,0.011052175424993038],"_type":"histogram"},"parameters/gru.bias_hh_l0":{"values":[1,0,0,0,0,2,0,0,1,0,1,3,2,3,1,7,9,3,7,7,7,7,9,6,12,10,13,12,10,13,7,7,4,3,3,4,0,3,0,3,0,0,2,0,0,4,1,0,0,2,1,1,0,0,0,0,0,0,0,0,0,0,0,1],"bins":[-0.0762239620089531,-0.07271865755319595,-0.06921335309743881,-0.06570805609226227,-0.06220275163650513,-0.058697447180747986,-0.055192142724990845,-0.051686841994524,-0.04818153753876686,-0.04467623308300972,-0.04117093235254288,-0.037665627896785736,-0.034160323441028595,-0.030655022710561752,-0.02714971825480461,-0.02364441566169262,-0.020139113068580627,-0.016633810475468636,-0.013128506951034069,-0.009623203426599503,-0.006117900833487511,-0.0026125977747142315,0.0008927052840590477,0.004398008342832327,0.007903311401605606,0.011408613994717598,0.014913917519152164,0.01841922104358673,0.021924523636698723,0.025429826229810715,0.028935130685567856,0.0324404314160347,0.03594572842121124,0.039451032876968384,0.042956333607435226,0.04646163806319237,0.04996693879365921,0.05347224324941635,0.05697754770517349,0.060482848435640335,0.06398814916610718,0.06749345362186432,0.07099875807762146,0.0745040625333786,0.07800936698913574,0.08151467144489288,0.08501996845006943,0.08852527290582657,0.09203057736158371,0.09553588181734085,0.09904118627309799,0.10254648327827454,0.10605178773403168,0.10955709218978882,0.11306239664554596,0.1165677011013031,0.12007300555706024,0.12357830256223679,0.12708361446857452,0.13058890402317047,0.1340942084789276,0.13759951293468475,0.1411048173904419,0.14461012184619904,0.14811542630195618],"_type":"histogram"},"parameters/gru.weight_ih_l0_reverse":{"values":[3,1,0,7,3,7,8,9,22,23,21,19,17,30,21,12,30,16,20,24,22,22,24,25,21,23,31,18,15,22,24,22,17,26,18,17,11,13,20,17,16,24,19,31,23,27,31,26,23,25,18,20,30,20,22,21,16,17,13,11,13,1,1,3],"bins":[-0.31915396451950073,-0.30951201915740967,-0.2998700737953186,-0.2902281582355499,-0.28058621287345886,-0.2709442675113678,-0.26130232214927673,-0.25166037678718567,-0.2420184463262558,-0.23237650096416473,-0.22273457050323486,-0.2130926251411438,-0.20345067977905273,-0.19380874931812286,-0.1841668039560318,-0.17452487349510193,-0.16488292813301086,-0.1552409827709198,-0.14559905230998993,-0.13595710694789886,-0.126315176486969,-0.11667323112487793,-0.10703128576278687,-0.0973893478512764,-0.08774740993976593,-0.07810547202825546,-0.068463534116745,-0.05882158875465393,-0.04917965084314346,-0.039537712931632996,-0.02989577129483223,-0.020253831520676613,-0.010611921548843384,-0.000969981774687767,0.00867195799946785,0.018313897773623466,0.027955837547779083,0.03759777545928955,0.04723971709609032,0.05688165873289108,0.06652359664440155,0.07616553455591202,0.08580747246742249,0.09544941782951355,0.10509135574102402,0.11473329365253448,0.12437523901462555,0.13401716947555542,0.14365911483764648,0.15330106019973755,0.16294299066066742,0.17258493602275848,0.18222686648368835,0.19186881184577942,0.20151075720787048,0.21115268766880035,0.22079463303089142,0.23043657839298248,0.24007850885391235,0.24972045421600342,0.2593623995780945,0.26900434494018555,0.2786462604999542,0.2882882058620453,0.29793015122413635],"_type":"histogram"},"_timestamp":1.761715102892216e+09,"parameters/gru.bias_ih_l1":{"bins":[-0.04002995043992996,-0.0359039306640625,-0.031777914613485336,-0.027651896700263023,-0.02352587878704071,-0.019399860873818398,-0.015273842960596085,-0.011147825047373772,-0.007021807134151459,-0.002895789220929146,0.0012302286922931671,0.00535624660551548,0.009482264518737793,0.013608282431960106,0.01773430034518242,0.021860318258404732,0.025986336171627045,0.030112354084849358,0.03423837199807167,0.038364388048648834,0.042490407824516296,0.04661642760038376,0.05074244365096092,0.054868459701538086,0.05899447947740555,0.06312049925327301,0.06724651157855988,0.07137253135442734,0.0754985511302948,0.07962457090616226,0.08375059068202972,0.08787660300731659,0.09200261533260345,0.09612863510847092,0.10025465488433838,0.10438066720962524,0.1085066869854927,0.11263270676136017,0.11675871908664703,0.1208847388625145,0.12501075863838196,0.12913677096366882,0.13326279819011688,0.13738881051540375,0.1415148377418518,0.14564085006713867,0.14976686239242554,0.1538928896188736,0.15801890194416046,0.16214491426944733,0.16627094149589539,0.17039695382118225,0.17452296614646912,0.17864899337291718,0.18277500569820404,0.1869010329246521,0.19102704524993896,0.19515305757522583,0.1992790848016739,0.20340509712696075,0.2075311243534088,0.21165713667869568,0.21578314900398254,0.2199091762304306,0.22403518855571747],"_type":"histogram","values":[2,1,3,2,4,7,6,2,1,5,2,6,8,10,7,12,6,3,9,5,3,7,4,2,5,10,3,4,3,3,4,0,0,4,3,5,0,2,4,0,2,0,3,1,0,2,3,3,1,1,2,1,0,0,1,0,2,0,0,0,1,0,1,1]},"gradients/gru.bias_hh_l1_reverse":{"bins":[-0.011268304660916328,-0.010875413194298744,-0.010482522659003735,-0.010089632123708725,-0.00969674065709114,-0.009303849190473557,-0.008910958655178547,-0.008518068119883537,-0.008125176653265953,-0.007732285652309656,-0.007339394651353359,-0.006946503650397062,-0.006553612649440765,-0.0061607216484844685,-0.0057678306475281715,-0.005374939646571875,-0.004982048645615578,-0.004589157644659281,-0.004196266643702984,-0.003803375642746687,-0.00341048464179039,-0.003017593640834093,-0.002624702639877796,-0.0022318116389214993,-0.0018389206379652023,-0.0014460296370089054,-0.0010531386360526085,-0.0006602476350963116,-0.00026735663414001465,0.00012553436681628227,0.0005184253677725792,0.0009113163687288761,0.001304207369685173,0.00169709837064147,0.002089989371597767,0.002482880372554064,0.0028757713735103607,0.0032686623744666576,0.0036615533754229546,0.0040544443763792515,0.004447335377335548,0.004840226378291845,0.005233117379248142,0.005626008380204439,0.006018899381160736,0.006411790382117033,0.00680468138307333,0.007197572384029627,0.007590463384985924,0.007983354851603508,0.008376245386898518,0.008769135922193527,0.009162027388811111,0.009554918855428696,0.009947809390723705,0.010340699926018715,0.0107335913926363,0.011126482859253883,0.011519373394548893,0.011912263929843903,0.012305155396461487,0.012698046863079071,0.01309093739837408,0.01348382793366909,0.013876719400286674],"_type":"histogram","values":[1,0,1,0,0,0,0,0,0,0,1,1,1,2,0,1,0,3,0,1,3,0,1,2,6,3,10,16,78,29,9,3,4,1,1,4,1,0,0,1,1,1,0,0,0,0,1,0,0,0,3,0,0,0,0,0,0,0,0,1,0,0,0,1]},"val_loss":1.1099578340848286,"gradients/gru.weight_hh_l1_reverse":{"values":[2,1,2,1,0,1,0,3,0,1,4,11,2,6,11,3,10,14,13,17,19,28,25,35,54,80,82,114,203,327,740,6725,2305,541,254,153,102,95,62,46,32,24,31,16,17,13,10,12,7,4,9,3,4,2,4,3,0,0,0,2,0,1,0,2],"bins":[-0.008894812315702438,-0.008615096099674702,-0.008335379883646965,-0.008055663667619228,-0.007775947451591492,-0.007496231235563755,-0.007216515019536018,-0.006936798803508282,-0.006657082587480545,-0.006377366837114096,-0.006097650621086359,-0.005817934405058622,-0.005538218189030886,-0.005258501973003149,-0.004978785756975412,-0.004699069540947676,-0.004419353324919939,-0.004139637108892202,-0.0038599208928644657,-0.003580204676836729,-0.0033004884608089924,-0.0030207724776118994,-0.0027410562615841627,-0.002461340045556426,-0.0021816238295286894,-0.0019019076135009527,-0.001622191397473216,-0.0013424752978608012,-0.0010627590818330646,-0.0007830428658053279,-0.0005033267079852521,-0.00022361052106134593,5.610566586256027e-05,0.0003358218527864665,0.0006155380397103727,0.0008952541975304484,0.001174970413558185,0.0014546866295859218,0.0017344027291983366,0.0020141189452260733,0.00229383516125381,0.0025735513772815466,0.0028532675933092833,0.00313298380933702,0.003412699792534113,0.0036924160085618496,0.003972132224589586,0.004251848440617323,0.00453156465664506,0.004811280872672796,0.005090997088700533,0.00537071330472827,0.005650429520756006,0.005930145736783743,0.00620986195281148,0.006489578168839216,0.006769293919205666,0.007049010135233402,0.007328726351261139,0.007608442567288876,0.007888158783316612,0.008167874999344349,0.008447591215372086,0.008727307431399822,0.009007023647427559],"_type":"histogram"},"_wandb":{"runtime":277},"gradients/gru.weight_hh_l0_reverse":{"bins":[-0.014717116951942444,-0.014249972067773342,-0.01378282718360424,-0.013315681368112564,-0.012848536483943462,-0.01238139159977436,-0.011914246715605259,-0.011447101831436157,-0.010979956015944481,-0.01051281113177538,-0.010045666247606277,-0.009578521363437176,-0.009111376479268074,-0.008644231595098972,-0.008177085779607296,-0.007709940895438194,-0.0072427960112690926,-0.006775651127099991,-0.006308505777269602,-0.0058413608931005,-0.005374215543270111,-0.004907070659101009,-0.004439925774931908,-0.003972780425101519,-0.003505635540932417,-0.0030384904239326715,-0.002571345306932926,-0.0021042004227638245,-0.001637055305764079,-0.0011699101887643337,-0.0007027651881799102,-0.00023562012938782573,0.00023152492940425873,0.0006986699881963432,0.0011658150469884276,0.0016329600475728512,0.0021001051645725965,0.002567250281572342,0.0030343951657414436,0.003501540282741189,0.003968685399740934,0.004435830283910036,0.004902975633740425,0.005370120517909527,0.0058372654020786285,0.0063044107519090176,0.006771555636078119,0.007238700985908508,0.00770584587007761,0.008172990754246712,0.008640135638415813,0.00910728145390749,0.009574426338076591,0.010041571222245693,0.010508716106414795,0.010975860990583897,0.011443005874752998,0.011910151690244675,0.012377296574413776,0.012844441458582878,0.01331158634275198,0.013778731226921082,0.014245877042412758,0.01471302192658186,0.015180166810750961],"_type":"histogram","values":[1,0,0,0,0,0,0,1,1,0,0,2,1,4,3,5,15,7,22,20,20,25,38,56,95,94,147,188,367,639,1617,5495,1672,637,339,224,143,109,64,51,28,40,22,27,18,11,12,5,5,5,4,0,3,0,3,1,0,0,0,0,1,0,0,1]},"parameters/gru.weight_ih_l0":{"bins":[-0.31468984484672546,-0.3047778904438019,-0.2948659360408783,-0.2849540114402771,-0.2750420570373535,-0.26513010263442993,-0.25521814823150635,-0.24530620872974396,-0.23539425432682037,-0.2254822999238968,-0.2155703604221344,-0.20565840601921082,-0.19574645161628723,-0.18583451211452484,-0.17592255771160126,-0.16601061820983887,-0.15609866380691528,-0.1461867094039917,-0.1362747699022293,-0.12636281549930573,-0.11645086854696274,-0.10653892159461975,-0.09662696719169617,-0.08671502023935318,-0.07680307328701019,-0.0668911263346672,-0.05697917565703392,-0.047067224979400635,-0.03715527802705765,-0.02724332921206951,-0.017331380397081375,-0.007419431582093239,0.002492547035217285,0.012404495850205421,0.022316444665193558,0.03222839534282684,0.04214034229516983,0.05205228924751282,0.0619642399251461,0.07187619060277939,0.08178813755512238,0.09170008450746536,0.10161203145980835,0.11152398586273193,0.12143593281507492,0.1313478797674179,0.1412598341703415,0.15117177367210388,0.16108372807502747,0.17099568247795105,0.18090762197971344,0.19081957638263702,0.20073151588439941,0.210643470287323,0.22055542469024658,0.23046736419200897,0.24037931859493256,0.25029125809669495,0.26020321249961853,0.2701151669025421,0.2800271213054657,0.2899390757083893,0.2998510003089905,0.30976295471191406,0.31967490911483765],"_type":"histogram","values":[2,0,1,6,6,7,14,14,15,16,19,25,30,26,21,24,20,26,22,29,22,23,23,21,26,19,23,17,25,31,26,24,23,17,21,13,19,28,20,27,17,20,17,16,21,21,29,31,20,26,20,23,24,21,21,20,13,8,4,2,1,5,0,1]},"parameters/gru.bias_hh_l0_reverse":{"bins":[-0.11797472834587097,-0.11377491801977158,-0.10957510769367218,-0.10537529736757278,-0.10117548704147339,-0.09697568416595459,-0.0927758738398552,-0.0885760635137558,-0.0843762531876564,-0.080176442861557,-0.07597663253545761,-0.07177682220935822,-0.06757701933383942,-0.06337720900774002,-0.059177398681640625,-0.05497758835554123,-0.050777778029441833,-0.04657796770334244,-0.04237815737724304,-0.038178350776433945,-0.03397854045033455,-0.029778730124235153,-0.025578921660780907,-0.02137911319732666,-0.017179302871227264,-0.012979493476450443,-0.008779684081673622,-0.004579874686896801,-0.00038006529211997986,0.0038197441026568413,0.008019553497433662,0.012219362892210484,0.0164191871881485,0.020618997514247894,0.02481880597770214,0.029018614441156387,0.03321842476725578,0.03741823509335518,0.041618041694164276,0.04581785202026367,0.05001766234636307,0.05421747267246246,0.05841728299856186,0.06261709332466125,0.06681689620018005,0.07101670652627945,0.07521651685237885,0.07941632717847824,0.08361613750457764,0.08781594783067703,0.09201575815677643,0.09621556848287582,0.10041537880897522,0.10461518168449402,0.10881499201059341,0.11301480233669281,0.1172146126627922,0.1214144229888916,0.1256142258644104,0.1298140436410904,0.1340138465166092,0.13821366429328918,0.14241346716880798,0.14661328494548798,0.15081308782100677],"_type":"histogram","values":[1,0,0,0,0,0,0,0,0,0,0,0,0,0,0,0,0,1,1,3,4,1,8,6,7,6,15,13,14,14,8,8,16,16,8,8,4,6,5,5,5,0,1,2,1,0,1,0,2,0,1,0,0,0,0,0,0,0,0,0,0,0,0,1]},"gradients/gru.weight_ih_l0":{"values":[2,1,2,1,0,0,1,2,1,1,3,6,1,6,5,11,9,7,10,17,26,20,23,35,57,95,332,176,75,50,38,23,18,16,14,12,10,10,9,5,1,5,3,2,3,3,0,1,0,0,0,1,0,1,0,0,0,0,1,0,0,0,0,1],"bins":[-0.04007921367883682,-0.03858263045549393,-0.03708604723215103,-0.035589464008808136,-0.03409288078546524,-0.032596297562122345,-0.0310997162014246,-0.029603132978081703,-0.028106549754738808,-0.026609966531395912,-0.025113383308053017,-0.02361680008471012,-0.022120218724012375,-0.02062363550066948,-0.019127052277326584,-0.01763046905398369,-0.016133885830640793,-0.014637302607297897,-0.013140719383955002,-0.011644137091934681,-0.010147553868591785,-0.00865097064524889,-0.007154387887567282,-0.0056578051298856735,-0.004161221906542778,-0.002664638916030526,-0.0011680559255182743,0.00032852706499397755,0.0018251100555062294,0.0033216930460184813,0.004818276036530733,0.006314858794212341,0.007811438292264938,0.009308021515607834,0.01080460473895073,0.01230118703097105,0.013797770254313946,0.015294353477656841,0.016790935769677162,0.018287518993020058,0.019784102216362953,0.02128068543970585,0.022777268663048744,0.02427385188639164,0.025770433247089386,0.02726701647043228,0.028763599693775177,0.030260182917118073,0.03175676614046097,0.033253349363803864,0.03474993258714676,0.036246515810489655,0.03774309903383255,0.039239682257175446,0.04073626548051834,0.04223284870386124,0.04372943192720413,0.04522601142525673,0.046722594648599625,0.04821917787194252,0.049715761095285416,0.05121234431862831,0.05270892754197121,0.0542055107653141,0.055702093988657],"_type":"histogram"},"gradients/gru.bias_ih_l0_reverse":{"_type":"histogram","values":[1,0,0,0,0,0,0,0,1,0,0,0,0,0,0,0,1,1,0,1,1,2,0,3,3,3,2,6,0,2,5,102,28,2,5,3,2,1,1,2,0,1,1,0,1,2,0,0,1,1,0,1,1,1,1,1,0,0,0,0,0,0,1,1],"bins":[-0.10211814939975739,-0.09890209883451462,-0.09568604826927185,-0.09246999770402908,-0.08925394713878632,-0.08603789657354355,-0.08282184600830078,-0.07960579544305801,-0.07638974487781525,-0.07317368686199188,-0.06995763629674911,-0.06674158573150635,-0.06352553516626358,-0.06030948460102081,-0.057093434035778046,-0.05387738347053528,-0.05066133290529251,-0.047445282340049744,-0.044229231774806976,-0.04101318120956421,-0.03779713064432144,-0.034581076353788376,-0.03136502578854561,-0.02814897522330284,-0.024932924658060074,-0.021716874092817307,-0.01850082352757454,-0.015284771099686623,-0.012068720534443855,-0.008852669969201088,-0.005636618472635746,-0.0024205674417316914,0.0007954835891723633,0.004011534620076418,0.0072275856509804726,0.010443637147545815,0.013659687712788582,0.01687573827803135,0.020091790705919266,0.023307841271162033,0.0265238918364048,0.029739942401647568,0.032955992966890335,0.0361720435321331,0.03938809782266617,0.042604148387908936,0.0458201989531517,0.04903624951839447,0.05225230008363724,0.055468350648880005,0.05868440121412277,0.06190045177936554,0.0651165023446083,0.06833255290985107,0.07154860347509384,0.07476465404033661,0.07798071205615997,0.08119676262140274,0.08441281318664551,0.08762886375188828,0.09084491431713104,0.09406096488237381,0.09727701544761658,0.10049306601285934,0.10370911657810211]},"gradients/gru.bias_hh_l0_reverse":{"values":[1,0,0,0,0,0,0,0,0,1,0,0,0,0,0,0,0,2,0,0,2,0,1,2,2,3,5,3,3,0,0,13,81,37,10,4,1,3,1,2,1,0,0,2,0,0,2,0,1,1,0,1,0,0,2,1,2,0,0,0,0,0,1,1],"bins":[-0.052653320133686066,-0.05104653909802437,-0.04943975433707237,-0.047832973301410675,-0.04622619226574898,-0.04461940750479698,-0.043012626469135284,-0.04140584543347359,-0.03979906439781189,-0.038192279636859894,-0.036585498601198196,-0.0349787175655365,-0.0333719328045845,-0.031765151768922806,-0.03015836887061596,-0.028551587834954262,-0.026944804936647415,-0.02533802203834057,-0.02373124100267887,-0.022124458104372025,-0.020517677068710327,-0.01891089417040348,-0.017304111272096634,-0.015697330236434937,-0.01409054733812809,-0.012483765371143818,-0.010876983404159546,-0.0092702005058527,-0.007663418538868427,-0.006056636571884155,-0.004449854139238596,-0.0028430719394236803,-0.0012362934648990631,0.00037048873491585255,0.001977270934730768,0.003584053134545684,0.0051908353343605995,0.0067976173013448715,0.008404400199651718,0.01001118216663599,0.011617964133620262,0.013224746100604534,0.014831528067588806,0.016438310965895653,0.0180450938642025,0.019651874899864197,0.021258657798171043,0.02286543883383274,0.024472221732139587,0.026079004630446434,0.02768578566610813,0.029292568564414978,0.030899349600076675,0.03250613436102867,0.03411291539669037,0.035719696432352066,0.03732647746801376,0.03893326222896576,0.04054004326462746,0.042146824300289154,0.04375360906124115,0.04536039009690285,0.046967171132564545,0.04857395589351654,0.05018073692917824],"_type":"histogram"},"gradients/gru.weight_hh_l0":{"_type":"histogram","values":[1,0,0,0,0,0,0,1,1,0,1,1,4,1,4,9,13,22,25,31,45,53,59,85,101,176,232,384,784,1994,5190,1340,608,347,231,152,81,79,60,43,35,23,18,16,11,8,3,3,1,4,3,1,1,0,1,0,0,1,0,0,0,0,0,1],"bins":[-0.015385975129902363,-0.014879018068313599,-0.014372061006724834,-0.01386510394513607,-0.01335814781486988,-0.012851190753281116,-0.012344233691692352,-0.011837276630103588,-0.011330319568514824,-0.01082336250692606,-0.010316405445337296,-0.009809448383748531,-0.009302491322159767,-0.008795535191893578,-0.008288578130304813,-0.007781621068716049,-0.007274664007127285,-0.006767706945538521,-0.006260749883949757,-0.00575379328802228,-0.0052468362264335155,-0.004739879164844751,-0.0042329225689172745,-0.0037259655073285103,-0.003219008445739746,-0.002712051384150982,-0.0022050945553928614,-0.001698137610219419,-0.0011911806650459766,-0.0006842237198725343,-0.0001772667746990919,0.00032969017047435045,0.0008366461843252182,0.0013436031294986606,0.001850560074672103,0.0023575169034302235,0.0028644739650189877,0.003371431026607752,0.0038783878553658724,0.004385344684123993,0.004892301745712757,0.005399258807301521,0.0059062158688902855,0.006413172464817762,0.0069201295264065266,0.007427086587995291,0.007934043183922768,0.008441000245511532,0.008947957307100296,0.00945491436868906,0.009961871430277824,0.010468828491866589,0.010975785553455353,0.011482741683721542,0.011989698745310307,0.01249665580689907,0.013003612868487835,0.013510569930076599,0.014017526991665363,0.014524484053254128,0.015031440183520317,0.015538397245109081,0.016045354306697845,0.016552312299609184,0.017059268429875374]},"parameters/gru.bias_ih_l0_reverse":{"_type":"histogram","values":[1,0,0,0,0,0,0,0,0,0,0,0,0,0,0,0,1,0,2,3,3,3,6,8,7,6,10,17,11,15,8,9,20,13,7,8,4,6,5,5,5,0,1,2,1,0,1,0,2,0,0,1,0,0,0,0,0,0,0,0,0,0,0,1],"bins":[-0.11797472834587097,-0.11377491801977158,-0.10957510769367218,-0.10537529736757278,-0.10117548704147339,-0.09697568416595459,-0.0927758738398552,-0.0885760635137558,-0.0843762531876564,-0.080176442861557,-0.07597663253545761,-0.07177682220935822,-0.06757701933383942,-0.06337720900774002,-0.059177398681640625,-0.05497758835554123,-0.050777778029441833,-0.04657796770334244,-0.04237815737724304,-0.038178350776433945,-0.03397854045033455,-0.029778730124235153,-0.025578921660780907,-0.02137911319732666,-0.017179302871227264,-0.012979493476450443,-0.008779684081673622,-0.004579874686896801,-0.00038006529211997986,0.0038197441026568413,0.008019553497433662,0.012219362892210484,0.0164191871881485,0.020618997514247894,0.02481880597770214,0.029018614441156387,0.03321842476725578,0.03741823509335518,0.041618041694164276,0.04581785202026367,0.05001766234636307,0.05421747267246246,0.05841728299856186,0.06261709332466125,0.06681689620018005,0.07101670652627945,0.07521651685237885,0.07941632717847824,0.08361613750457764,0.08781594783067703,0.09201575815677643,0.09621556848287582,0.10041537880897522,0.10461518168449402,0.10881499201059341,0.11301480233669281,0.1172146126627922,0.1214144229888916,0.1256142258644104,0.1298140436410904,0.1340138465166092,0.13821366429328918,0.14241346716880798,0.14661328494548798,0.15081308782100677]},"parameters/gru.weight_ih_l1_reverse":{"bins":[-0.3872741758823395,-0.37518128752708435,-0.36308836936950684,-0.3509954810142517,-0.3389025926589966,-0.32680967450141907,-0.31471678614616394,-0.3026238977909088,-0.2905309796333313,-0.27843809127807617,-0.26634520292282104,-0.2542523145675659,-0.2421593964099884,-0.23006650805473328,-0.21797360479831696,-0.20588071644306183,-0.1937878131866455,-0.1816949099302292,-0.16960202157497406,-0.15750911831855774,-0.1454162299633026,-0.1333233267068863,-0.12123042345046997,-0.10913752764463425,-0.09704463183879852,-0.0849517360329628,-0.07285884022712708,-0.060765936970710754,-0.04867304116487503,-0.03658014535903931,-0.024487245827913284,-0.012394348159432411,-0.0003014504909515381,0.011791447177529335,0.023884344846010208,0.03597724437713623,0.048070140182971954,0.06016303598880768,0.072255939245224,0.08434883505105972,0.09644173085689545,0.10853462666273117,0.1206275224685669,0.13272042572498322,0.14481332898139954,0.15690621733665466,0.16899912059307098,0.1810920089483261,0.19318491220474243,0.20527781546115875,0.21737070381641388,0.2294636070728302,0.24155649542808533,0.25364941358566284,0.26574230194091797,0.2778351902961731,0.2899280786514282,0.30202099680900574,0.31411388516426086,0.326206773519516,0.3382996916770935,0.35039258003234863,0.36248546838760376,0.3745783865451813,0.3866712749004364],"_type":"histogram","values":[2,0,3,1,0,3,2,11,12,21,40,45,77,124,220,299,443,523,667,681,723,710,781,775,727,722,728,747,731,794,769,776,789,789,787,735,771,774,731,772,800,721,745,713,672,668,578,482,311,202,125,93,62,29,22,16,11,4,5,3,4,1,2,2]},"gradients/gru.weight_hh_l1":{"bins":[-0.049443893134593964,-0.047719139605760574,-0.045994386076927185,-0.044269632548093796,-0.042544879019260406,-0.04082012549042702,-0.03909537196159363,-0.03737061843276024,-0.03564586490392685,-0.03392111137509346,-0.03219635784626007,-0.030471602454781532,-0.028746848925948143,-0.027022095397114754,-0.025297341868281364,-0.023572588339447975,-0.021847834810614586,-0.020123081281781197,-0.018398327752947807,-0.016673574224114418,-0.014948820695281029,-0.013224066235125065,-0.011499312706291676,-0.009774559177458286,-0.008049805648624897,-0.006325052119791508,-0.0046002985909581184,-0.002875544596463442,-0.0011507910676300526,0.0005739625776186585,0.0022987162228673697,0.004023469984531403,0.005748223513364792,0.007472977042198181,0.00919773057103157,0.01092248409986496,0.012647237628698349,0.014371992088854313,0.016096744686365128,0.017821498215198517,0.019546251744031906,0.021271007135510445,0.022995760664343834,0.024720514193177223,0.026445267722010612,0.028170021250844002,0.02989477477967739,0.03161952644586563,0.03334428369998932,0.03506903722882271,0.0367937907576561,0.03851854428648949,0.040243297815322876,0.041968051344156265,0.043692804872989655,0.045417558401823044,0.04714231193065643,0.04886706545948982,0.05059181898832321,0.0523165725171566,0.05404132604598999,0.05576607957482338,0.05749083310365677,0.05921558663249016,0.06094034016132355],"_type":"histogram","values":[2,1,0,0,0,0,2,4,4,6,1,5,7,10,12,12,16,20,30,35,32,50,71,85,127,184,280,755,8046,1321,380,191,130,115,79,50,49,40,34,14,18,10,3,17,9,5,6,4,1,2,2,3,0,2,0,3,0,1,0,0,0,1,0,1]},"parameters/gru.weight_hh_l0":{"values":[1,0,0,0,0,0,0,0,1,0,0,2,1,7,3,5,14,8,20,30,47,53,88,109,164,200,241,312,380,445,534,536,611,593,655,722,730,725,724,673,612,532,476,413,336,269,239,182,152,108,103,70,52,32,23,22,11,11,5,1,1,1,0,3],"bins":[-0.4279574751853943,-0.4161563515663147,-0.4043552577495575,-0.3925541341304779,-0.3807530105113983,-0.3689519166946411,-0.3571507930755615,-0.34534966945648193,-0.33354854583740234,-0.32174745202064514,-0.30994632840156555,-0.29814520478248596,-0.28634411096572876,-0.27454298734664917,-0.2627418637275696,-0.2509407699108124,-0.2391396462917328,-0.2273385375738144,-0.2155374139547348,-0.2037363052368164,-0.19193518161773682,-0.18013407289981842,-0.16833296418190002,-0.15653184056282043,-0.14473073184490204,-0.13292962312698364,-0.12112849950790405,-0.10932739078998566,-0.09752627462148666,-0.08572515845298767,-0.07392404973506927,-0.06212293356657028,-0.05032181739807129,-0.038520701229572296,-0.0267195887863636,-0.014918474480509758,-0.0031173601746559143,0.00868375413119793,0.020484868437051773,0.03228598088026047,0.04408709704875946,0.05588821321725845,0.06768932938575745,0.07949043810367584,0.09129155427217484,0.10309267044067383,0.11489377915859222,0.12669490277767181,0.1384960114955902,0.1502971202135086,0.1620982438325882,0.1738993525505066,0.18570047616958618,0.19750158488750458,0.20930269360542297,0.22110381722450256,0.23290492594242096,0.24470603466033936,0.25650715827941895,0.26830828189849854,0.28010937571525574,0.2919104993343353,0.3037116229534149,0.3155127167701721,0.3273138403892517],"_type":"histogram"},"gradients/gru.bias_ih_l0":{"values":[1,0,2,0,3,0,0,0,0,0,1,1,0,1,0,0,1,2,1,1,2,0,2,4,1,1,2,2,1,2,2,7,113,10,4,4,4,0,2,2,2,1,1,2,2,0,0,1,0,0,1,0,1,1,0,0,0,0,0,0,0,0,0,1],"bins":[-0.09574679285287857,-0.09280475229024887,-0.08986271172761917,-0.08692067861557007,-0.08397863805294037,-0.08103659749031067,-0.07809455692768097,-0.07515251636505127,-0.07221047580242157,-0.06926844269037247,-0.06632640212774277,-0.06338436156511307,-0.06044232100248337,-0.05750028416514397,-0.05455824360251427,-0.051616206765174866,-0.048674166202545166,-0.045732125639915466,-0.042790088802576065,-0.039848048239946365,-0.036906011402606964,-0.033963970839977264,-0.031021930277347565,-0.028079891577363014,-0.025137852877378464,-0.022195814177393913,-0.019253775477409363,-0.016311734914779663,-0.013369696214795113,-0.010427657514810562,-0.007485617883503437,-0.004543578717857599,-0.0016015321016311646,0.0013405070640146732,0.004282546229660511,0.007224585395306349,0.010166624560952187,0.013108663260936737,0.016050703823566437,0.018992742523550987,0.021934781223535538,0.024876819923520088,0.02781885862350464,0.03076089918613434,0.03370293974876404,0.03664497658610344,0.03958701714873314,0.04252905398607254,0.04547109454870224,0.04841313511133194,0.05135517194867134,0.05429721251130104,0.05723924934864044,0.06018128991127014,0.06312333047389984,0.06606537103652954,0.06900741159915924,0.07194944471120834,0.07489148527383804,0.07783352583646774,0.08077556639909744,0.08371760696172714,0.08665964007377625,0.08960168063640594,0.09254372119903564],"_type":"histogram"},"parameters/head.4.weight":{"_type":"histogram","values":[1,0,0,0,1,0,1,1,2,1,1,3,2,4,8,8,10,10,13,8,17,12,13,11,16,17,18,17,14,15,19,18,15,26,14,27,23,22,16,14,23,25,25,22,20,22,25,14,26,18,14,12,22,21,22,7,10,6,2,2,4,4,2,2],"bins":[-0.47643718123435974,-0.4634052515029907,-0.4503733515739441,-0.4373414218425751,-0.42430949211120605,-0.41127756237983704,-0.398245632648468,-0.3852137327194214,-0.37218180298805237,-0.35914987325668335,-0.3461179733276367,-0.3330860435962677,-0.3200541138648987,-0.30702218413352966,-0.29399025440216064,-0.280958354473114,-0.267926424741745,-0.254894495010376,-0.24186258018016815,-0.22883066534996033,-0.2157987356185913,-0.2027668058872223,-0.18973489105701447,-0.17670297622680664,-0.16367104649543762,-0.1506391167640686,-0.13760720193386078,-0.12457527965307236,-0.11154335737228394,-0.09851143509149551,-0.08547951281070709,-0.07244759052991867,-0.05941569805145264,-0.046383775770664215,-0.03335185348987579,-0.020319931209087372,-0.00728800892829895,0.0057439133524894714,0.018775835633277893,0.031807757914066315,0.044839680194854736,0.05787160247564316,0.07090352475643158,0.08393544703722,0.09696736931800842,0.10999929159879684,0.12303121387958527,0.1360631287097931,0.1490950584411621,0.16212698817253113,0.17515890300273895,0.18819081783294678,0.2012227475643158,0.21425467729568481,0.22728659212589264,0.24031850695610046,0.2533504366874695,0.2663823664188385,0.2794142961502075,0.29244619607925415,0.30547812581062317,0.3185100555419922,0.3315419554710388,0.34457388520240784,0.35760581493377686]},"parameters/head.1.bias":{"values":[2,2,0,0,0,0,1,0,1,2,2,2,2,3,2,1,3,3,4,2,3,6,8,4,4,4,2,10,4,3,4,4,1,1,4,4,6,0,1,0,5,4,2,1,2,0,0,1,1,1,0,0,0,1,3,0,0,1,0,0,0,0,0,1],"bins":[-0.08609158545732498,-0.08325335383415222,-0.08041512966156006,-0.0775769054889679,-0.07473867386579514,-0.07190044224262238,-0.06906221807003021,-0.06622399389743805,-0.06338576227426529,-0.06054753437638283,-0.057709306478500366,-0.054871078580617905,-0.05203285068273544,-0.04919462278485298,-0.04635639488697052,-0.04351816698908806,-0.0406799390912056,-0.037841711193323135,-0.035003483295440674,-0.03216525539755821,-0.02932702749967575,-0.02648879960179329,-0.023650571703910828,-0.020812343806028366,-0.017974115908145905,-0.015135888010263443,-0.012297660112380981,-0.00945943221449852,-0.006621204316616058,-0.003782976418733597,-0.0009447485208511353,0.0018934793770313263,0.004731714725494385,0.007569942623376846,0.010408170521259308,0.01324639841914177,0.01608462631702423,0.018922854214906693,0.021761082112789154,0.024599310010671616,0.027437537908554077,0.03027576580643654,0.033113993704319,0.03595222160220146,0.03879044950008392,0.041628677397966385,0.044466905295848846,0.04730513319373131,0.05014336109161377,0.05298158898949623,0.05581981688737869,0.058658044785261154,0.061496272683143616,0.06433449685573578,0.06717272847890854,0.0700109601020813,0.07284918427467346,0.07568740844726562,0.07852564007043839,0.08136387169361115,0.08420209586620331,0.08704032003879547,0.08987855166196823,0.09271678328514099,0.09555500745773315],"_type":"histogram"},"gradients/gru.weight_ih_l0_reverse":{"bins":[-0.04216037318110466,-0.04092150926589966,-0.039682649075984955,-0.03844378516077995,-0.03720492124557495,-0.03596605733036995,-0.03472719341516495,-0.033488333225250244,-0.03224946931004524,-0.03101060539484024,-0.029771743342280388,-0.028532881289720535,-0.027294017374515533,-0.02605515345931053,-0.02481629140675068,-0.023577429354190826,-0.022338565438985825,-0.021099701523780823,-0.01986083947122097,-0.018621977418661118,-0.017383113503456116,-0.016144249588251114,-0.014905387535691261,-0.013666524551808834,-0.012427661567926407,-0.01118879858404398,-0.009949935600161552,-0.008711072616279125,-0.007472209632396698,-0.006233346648514271,-0.004994483664631844,-0.0037556206807494164,-0.002516757696866989,-0.001277894712984562,-3.9031729102134705e-05,0.0011998312547802925,0.0024386942386627197,0.003677557222545147,0.004916420206427574,0.006155283190310001,0.007394146174192429,0.008633009158074856,0.009871872141957283,0.01111073512583971,0.012349598109722137,0.013588461093604565,0.014827324077486992,0.016066186130046844,0.017305050045251846,0.018543913960456848,0.0197827760130167,0.021021638065576553,0.022260501980781555,0.023499365895986557,0.02473822794854641,0.025977090001106262,0.027215953916311264,0.028454817831516266,0.02969367988407612,0.03093254193663597,0.03217140585184097,0.033410269767045975,0.03464913368225098,0.03588799387216568,0.03712685778737068],"_type":"histogram","values":[1,1,1,0,0,0,0,1,1,0,0,0,3,0,0,1,2,2,1,3,6,6,8,7,11,12,14,23,21,21,28,50,76,253,285,85,47,30,22,22,23,14,20,6,9,6,6,7,3,3,4,0,1,2,0,1,0,0,1,0,1,0,0,1]}}