{"parameters/gru.bias_ih_l0":{"bins":[-0.3057331442832947,-0.2910403907299042,-0.2763476073741913,-0.2616548538208008,-0.24696208536624908,-0.2322693169116974,-0.21757656335830688,-0.2028837949037552,-0.1881910264492035,-0.1734982579946518,-0.1588054895401001,-0.1441127359867096,-0.1294199675321579,-0.1147271990776062,-0.1000344380736351,-0.085341677069664,-0.0706489086151123,-0.055956143885850906,-0.04126337915658951,-0.02657061442732811,-0.011877849698066711,0.002814915031194687,0.017507679760456085,0.032200444489717484,0.04689320921897888,0.06158597394824028,0.07627873867750168,0.09097149968147278,0.10566426813602448,0.12035703659057617,0.13504979014396667,0.14974255859851837,0.16443532705307007,0.17912809550762177,0.19382086396217346,0.20851361751556396,0.22320638597011566,0.23789915442466736,0.25259190797805786,0.26728469133377075,0.28197744488716125,0.29667019844055176,0.31136298179626465,0.32605573534965515,0.34074848890304565,0.35544127225875854,0.37013402581214905,0.38482680916786194,0.39951956272125244,0.41421231627464294,0.42890509963035583,0.44359785318374634,0.45829063653945923,0.47298339009284973,0.48767614364624023,0.5023689270019531,0.517061710357666,0.5317544341087341,0.546447217464447,0.5611400008201599,0.575832724571228,0.5905255079269409,0.6052182912826538,0.6199110150337219,0.6346037983894348],"_type":"histogram","values":[1,0,0,0,0,2,1,0,0,0,2,1,0,2,8,3,5,10,7,6,7,16,3,7,8,14,12,12,8,10,7,10,2,2,1,4,2,0,3,5,0,1,0,1,0,0,0,2,0,0,0,0,0,1,0,1,0,2,0,1,0,1,0,1]},"_timestamp":1.7617144874767883e+09,"_step":212,"gradients/gru.weight_ih_l0":{"bins":[-0.01781972125172615,-0.017004169523715973,-0.016188615933060646,-0.015373064205050468,-0.014557511545717716,-0.013741959817707539,-0.012926407158374786,-0.012110854499042034,-0.011295301839709282,-0.010479750111699104,-0.009664197452366352,-0.0088486447930336,-0.008033093065023422,-0.00721754040569067,-0.006401988212019205,-0.005586435552686453,-0.004770883359014988,-0.003955331165343523,-0.003139778506010771,-0.002324226312339306,-0.0015086738858371973,-0.0006931215175427496,0.00012243085075169802,0.0009379832190461457,0.0017535355873405933,0.002569088013842702,0.0033846404403448105,0.004200192634016275,0.00501574482768774,0.0058312974870204926,0.0066468496806919575,0.00746240234002471,0.008277954533696175,0.009093507193028927,0.009909058921039104,0.010724611580371857,0.011540164239704609,0.012355715967714787,0.013171268627047539,0.013986821286380291,0.014802373945713043,0.01561792567372322,0.0164334774017334,0.017249030992388725,0.018064582720398903,0.01888013444840908,0.019695688039064407,0.020511239767074585,0.021326791495084763,0.02214234508574009,0.022957896813750267,0.023773450404405594,0.02458900213241577,0.02540455386042595,0.026220107451081276,0.027035659179091454,0.02785121090710163,0.028666764497756958,0.029482316225767136,0.030297867953777313,0.03111342154443264,0.03192897140979767,0.032744526863098145,0.03356007859110832,0.0343756303191185],"_type":"histogram","values":[1,0,1,1,1,3,3,1,4,1,3,4,7,2,7,11,9,22,32,63,113,353,260,95,42,27,17,6,13,14,7,5,3,0,5,1,3,1,1,1,1,1,0,1,1,0,1,1,1,1,0,0,0,0,0,0,0,0,0,0,0,0,0,1]},"gradients/gru.bias_ih_l0":{"bins":[-0.014957962557673454,-0.014534097164869308,-0.014110230840742588,-0.013686365447938442,-0.013262499123811722,-0.012838633731007576,-0.012414767406880856,-0.01199090201407671,-0.01156703568994999,-0.011143170297145844,-0.010719303973019123,-0.010295438580214977,-0.009871572256088257,-0.009447706863284111,-0.00902384053915739,-0.008599975146353245,-0.008176108822226524,-0.0077522434294223785,-0.007328377570956945,-0.006904511712491512,-0.006480645854026079,-0.006056779995560646,-0.005632914137095213,-0.00520904827862978,-0.004785182885825634,-0.004361317027360201,-0.003937451168894768,-0.003513585077598691,-0.0030897194519639015,-0.0026658535934984684,-0.0022419877350330353,-0.0018181218765676022,-0.001394256018102169,-0.0009703901596367359,-0.0005465243593789637,-0.00012265853001736104,0.0003012072993442416,0.0007250731578096747,0.001148938899859786,0.0015728047583252192,0.0019966706167906523,0.0024205364752560854,0.0028444023337215185,0.0032682681921869516,0.003692133817821741,0.004115999676287174,0.004539865534752607,0.0049637313932180405,0.005387597251683474,0.005811463110148907,0.00623532896861434,0.006659194827079773,0.007083060685545206,0.007506926544010639,0.007930791936814785,0.008354658260941505,0.008778523653745651,0.009202389977872372,0.009626255370676517,0.010050121694803238,0.010473987087607384,0.010897853411734104,0.01132171880453825,0.01174558512866497,0.012169450521469116],"_type":"histogram","values":[1,0,0,0,0,0,0,0,0,1,1,0,0,0,0,0,1,0,0,0,1,0,3,1,0,3,3,4,2,0,6,6,6,17,25,29,25,16,8,2,4,1,1,2,2,1,2,1,1,1,4,0,0,1,0,1,2,1,1,0,2,1,0,2]},"parameters/gru.weight_hh_l0":{"_type":"histogram","values":[1,2,1,1,0,0,1,1,5,4,3,9,11,12,19,20,28,35,53,70,75,124,156,209,290,338,417,563,640,728,862,936,932,916,853,809,691,575,463,355,236,203,143,124,80,64,40,51,31,25,26,17,13,6,7,1,6,1,4,1,0,0,0,1],"bins":[-1.024381399154663,-0.9929007291793823,-0.9614201188087463,-0.9299395084381104,-0.8984588384628296,-0.8669781684875488,-0.8354975581169128,-0.8040169477462769,-0.7725362777709961,-0.7410556077957153,-0.7095749974250793,-0.6780943870544434,-0.6466137170791626,-0.6151330471038818,-0.5836524367332458,-0.5521718263626099,-0.5206911563873291,-0.4892105162143707,-0.45772987604141235,-0.426249235868454,-0.3947685956954956,-0.36328795552253723,-0.33180731534957886,-0.3003266751766205,-0.2688460350036621,-0.23736539483070374,-0.20588475465774536,-0.174404114484787,-0.1429234743118286,-0.11144283413887024,-0.07996219396591187,-0.04848155379295349,-0.017000913619995117,0.014479726552963257,0.04596036672592163,0.07744100689888,0.10892164707183838,0.14040228724479675,0.17188292741775513,0.2033635675907135,0.23484420776367188,0.26632484793663025,0.2978054881095886,0.329286128282547,0.36076676845550537,0.39224740862846375,0.4237280488014221,0.4552086889743805,0.48668932914733887,0.5181699991226196,0.5496506094932556,0.5811312198638916,0.6126118898391724,0.6440925598144531,0.6755731701850891,0.7070537805557251,0.7385344505310059,0.7700151205062866,0.8014957308769226,0.8329763412475586,0.8644570112228394,0.8959376811981201,0.9274182915687561,0.9588989019393921,0.9903795719146729]},"parameters/gru.bias_ih_l0_reverse":{"values":[1,0,0,1,2,2,3,5,8,11,6,9,7,10,13,16,9,13,14,9,4,3,10,8,4,4,3,2,1,1,1,0,2,2,1,0,3,0,0,1,1,0,0,1,0,0,0,0,0,0,0,0,0,0,0,0,0,0,0,0,0,0,0,1],"bins":[-0.26884040236473083,-0.24934405088424683,-0.229847714304924,-0.21035136282444,-0.1908550262451172,-0.17135867476463318,-0.15186232328414917,-0.13236598670482635,-0.11286963522434235,-0.09337329119443893,-0.07387694716453552,-0.054380595684051514,-0.0348842516541481,-0.01538790576159954,0.00410844013094902,0.02360478602349758,0.04310113191604614,0.06259747594594955,0.08209381997585297,0.10159017145633698,0.12108651548624039,0.1405828595161438,0.1600792109966278,0.17957554757595062,0.19907189905643463,0.21856825053691864,0.23806458711624146,0.25756093859672546,0.2770572900772095,0.2965536415576935,0.3160499632358551,0.3355463147163391,0.35504263639450073,0.37453898787498474,0.39403533935546875,0.41353166103363037,0.4330280125141144,0.4525243639945984,0.4720207154750824,0.4915170669555664,0.511013388633728,0.5305097699165344,0.550006091594696,0.5695024132728577,0.5889987945556641,0.6084951162338257,0.6279914975166321,0.6474878191947937,0.6669842004776001,0.6864805221557617,0.7059768438339233,0.7254732251167297,0.7449695467948914,0.7644659280776978,0.7839622497558594,0.803458571434021,0.8229549527168274,0.842451274394989,0.8619476556777954,0.881443977355957,0.9009402990341187,0.920436680316925,0.9399330019950867,0.9594293832778931,0.9789257049560547],"_type":"histogram"},"epoch":212,"parameters/gru.weight_hh_l0_reverse":{"_type":"histogram","values":[2,4,1,3,5,9,5,5,13,12,22,27,49,53,54,57,68,100,135,129,176,221,261,340,430,511,601,627,693,756,816,743,814,723,657,584,474,422,339,275,206,180,142,99,93,68,63,50,31,32,18,24,13,8,11,5,7,6,7,2,3,1,2,1],"bins":[-0.8632296919822693,-0.8353970050811768,-0.8075643181800842,-0.7797316312789917,-0.7518989443778992,-0.7240662574768066,-0.6962335705757141,-0.6684008836746216,-0.640568196773529,-0.6127355098724365,-0.584902822971344,-0.5570701360702515,-0.5292374491691589,-0.5014047622680664,-0.47357210516929626,-0.44573941826820374,-0.4179067313671112,-0.3900740444660187,-0.36224135756492615,-0.3344086706638336,-0.3065759837627411,-0.27874329686164856,-0.25091060996055603,-0.2230779379606247,-0.19524525105953217,-0.16741256415843964,-0.1395798772573471,-0.11174719780683517,-0.08391451090574265,-0.056081824004650116,-0.028249140828847885,-0.00041645579040050507,0.027416229248046875,0.055248916149139404,0.08308160305023193,0.11091428250074387,0.138746976852417,0.16657964885234833,0.19441233575344086,0.2222450226545334,0.2500777244567871,0.27791038155555725,0.3057430684566498,0.3335757553577423,0.36140844225883484,0.38924112915992737,0.4170738160610199,0.4449065029621124,0.47273918986320496,0.5005718469619751,0.5284045338630676,0.5562372207641602,0.5840699076652527,0.6119025945663452,0.6397352814674377,0.6675679683685303,0.6954006552696228,0.7232333421707153,0.7510660290718079,0.7788987159729004,0.8067314028739929,0.8345640897750854,0.862396776676178,0.8902294635772705,0.918062150478363]},"parameters/gru.bias_hh_l0_reverse":{"values":[1,0,1,0,2,3,1,2,3,2,4,7,3,8,12,12,8,10,11,10,15,9,6,9,8,4,4,8,5,2,2,1,3,0,0,1,2,2,1,0,1,2,1,1,2,0,1,0,0,0,0,0,0,0,0,0,0,0,0,0,1,0,0,1],"bins":[-0.2894335091114044,-0.2722727954387665,-0.2551121115684509,-0.237951397895813,-0.22079069912433624,-0.2036300003528595,-0.18646928668022156,-0.1693085879087448,-0.15214788913726807,-0.13498719036579132,-0.11782648414373398,-0.10066577792167664,-0.08350507915019989,-0.06634438037872314,-0.0491836741566658,-0.03202297165989876,-0.014862269163131714,0.00229843333363533,0.019459135830402374,0.03661983832716942,0.05378054082393646,0.07094123959541321,0.08810194581747055,0.1052626520395279,0.12242335081100464,0.13958404958248138,0.15674474835395813,0.17390546202659607,0.19106616079807281,0.20822685956954956,0.2253875732421875,0.24254827201366425,0.2597090005874634,0.2768697142601013,0.29403039813041687,0.3111911118030548,0.32835179567337036,0.3455125093460083,0.36267322301864624,0.3798339068889618,0.39699462056159973,0.41415533423423767,0.4313160181045532,0.44847673177719116,0.4656374454498291,0.48279812932014465,0.4999588429927826,0.5171195268630981,0.5342802405357361,0.551440954208374,0.568601667881012,0.5857623219490051,0.6029230356216431,0.620083749294281,0.637244462966919,0.6544051766395569,0.6715658903121948,0.688726544380188,0.7058872580528259,0.7230479717254639,0.7402086853981018,0.7573693990707397,0.7745300531387329,0.7916907668113708,0.8088514804840088],"_type":"histogram"},"gradients/fc.bias":{"_type":"histogram","values":[1,0,0,0,0,0,0,0,0,0,0,0,0,0,0,0,0,0,0,0,0,0,0,0,0,0,0,0,1,1,0,1,1,0,0,0,0,0,0,0,0,0,0,0,0,0,0,0,0,0,0,0,0,0,0,0,0,0,0,0,0,0,0,1],"bins":[-0.02118093892931938,-0.02049948088824749,-0.019818022847175598,-0.019136566668748856,-0.018455108627676964,-0.017773650586605072,-0.01709219254553318,-0.016410736367106438,-0.015729278326034546,-0.015047820284962654,-0.014366362243890762,-0.013684905134141445,-0.013003447093069553,-0.012321989983320236,-0.011640531942248344,-0.010959074832499027,-0.010277616791427135,-0.009596158750355244,-0.008914701640605927,-0.008233243599534035,-0.0075517864897847176,-0.006870328448712826,-0.006188870873302221,-0.005507413297891617,-0.004825955722481012,-0.004144498147070408,-0.0034630405716598034,-0.0027815827634185553,-0.0021001251880079508,-0.0014186676125973463,-0.00073720992077142,-5.575228715315461e-05,0.0006257053464651108,0.0013071629218757153,0.0019886204972863197,0.002670078305527568,0.0033515358809381723,0.0040329936891794205,0.004714451264590025,0.005395908840000629,0.006077366415411234,0.006758823990821838,0.007440281566232443,0.008121739141643047,0.008803197182714939,0.009484654292464256,0.010166112333536148,0.010847569443285465,0.011529027484357357,0.012210485525429249,0.012891942635178566,0.013573400676250458,0.014254857785999775,0.014936315827071667,0.015617772936820984,0.016299230977892876,0.016980689018964767,0.01766214706003666,0.018343603238463402,0.019025061279535294,0.019706519320607185,0.020387977361679077,0.02106943354010582,0.02175089158117771,0.022432349622249603]},"parameters/gru.weight_ih_l0":{"_type":"histogram","values":[2,1,1,1,0,1,0,2,2,2,3,3,0,3,4,10,5,13,14,10,13,23,16,26,24,34,27,21,46,35,45,49,43,53,48,47,58,51,33,47,41,42,39,37,37,19,22,14,13,14,18,8,9,6,6,1,3,1,2,1,1,1,0,1],"bins":[-0.8769646286964417,-0.8522434830665588,-0.827522337436676,-0.8028011918067932,-0.7780800461769104,-0.7533589005470276,-0.7286377549171448,-0.703916609287262,-0.6791954636573792,-0.6544743180274963,-0.6297531723976135,-0.6050320267677307,-0.5803108811378479,-0.5555897355079651,-0.5308685898780823,-0.5061474442481995,-0.48142629861831665,-0.45670515298843384,-0.431984007358551,-0.4072628617286682,-0.3825417160987854,-0.3578205704689026,-0.3330994248390198,-0.30837827920913696,-0.28365713357925415,-0.25893598794937134,-0.23421484231948853,-0.2094936966896057,-0.1847725510597229,-0.1600514054298401,-0.13533025979995728,-0.11060911417007446,-0.08588796854019165,-0.06116682291030884,-0.036445677280426025,-0.011724531650543213,0.0129966139793396,0.03771775960922241,0.062438905239105225,0.08716005086898804,0.11188119649887085,0.13660234212875366,0.16132348775863647,0.1860446333885193,0.2107657790184021,0.2354869246482849,0.2602080702781677,0.28492921590805054,0.30965036153793335,0.33437150716781616,0.359092652797699,0.3838137984275818,0.4085349440574646,0.4332560896873474,0.4579772353172302,0.48269838094711304,0.5074195265769958,0.5321406722068787,0.5568618178367615,0.5815829634666443,0.6063041090965271,0.6310252547264099,0.6557464003562927,0.6804675459861755,0.7051886916160583]},"gradients/gru.bias_hh_l0":{"_type":"histogram","values":[1,0,0,1,0,0,0,1,1,0,2,1,2,3,1,1,3,1,0,2,4,4,3,2,5,8,10,14,14,16,14,17,7,10,10,2,1,3,7,1,2,0,0,2,1,1,1,0,3,3,1,0,1,1,1,0,1,0,1,0,0,0,0,1],"bins":[-0.006827328819781542,-0.006594937760382891,-0.00636254670098424,-0.0061301556415855885,-0.005897765047848225,-0.0056653739884495735,-0.005432982929050922,-0.005200591869652271,-0.00496820081025362,-0.004735809750854969,-0.004503418691456318,-0.004271027632057667,-0.004038636572659016,-0.003806245746091008,-0.0035738549195230007,-0.0033414638601243496,-0.0031090728007256985,-0.0028766817413270473,-0.0026442906819283962,-0.0024118998553603888,-0.0021795087959617376,-0.0019471177365630865,-0.0017147267935797572,-0.001482335850596428,-0.0012499447911977768,-0.0010175537317991257,-0.0007851627888157964,-0.0005527717876248062,-0.00032038078643381596,-8.798978524282575e-05,0.00014440121594816446,0.00037679221713915467,0.0006091836839914322,0.0008415746851824224,0.0010739656863734126,0.001306356629356742,0.001538747688755393,0.0017711387481540442,0.0020035295747220516,0.0022359206341207027,0.002468311693519354,0.002700702752918005,0.002933093812316656,0.0031654846388846636,0.0033978756982833147,0.003630266757681966,0.0038626575842499733,0.004095048643648624,0.0043274397030472755,0.004559830762445927,0.004792221821844578,0.005024612881243229,0.00525700394064188,0.005489394534379244,0.005721785593777895,0.005954176653176546,0.006186567712575197,0.006418958771973848,0.0066513498313724995,0.006883740890771151,0.007116131484508514,0.0073485225439071655,0.007580913603305817,0.007813304662704468,0.008045695722103119]},"gradients/gru.bias_ih_l0_reverse":{"values":[1,0,1,0,0,0,0,0,0,0,0,0,0,0,1,1,0,4,2,1,1,2,1,2,1,2,1,4,3,6,4,10,18,35,38,20,8,2,6,3,1,3,0,0,3,1,1,1,0,1,0,0,0,0,1,0,1,0,0,0,0,0,0,1],"bins":[-0.031379684805870056,-0.030460793524980545,-0.029541900381445885,-0.028623009100556374,-0.027704115957021713,-0.026785224676132202,-0.02586633339524269,-0.02494744025170803,-0.02402854897081852,-0.02310965582728386,-0.022190764546394348,-0.021271873265504837,-0.020352980121970177,-0.019434088841080666,-0.018515195697546005,-0.017596304416656494,-0.016677413135766983,-0.015758519992232323,-0.014839627780020237,-0.013920736499130726,-0.01300184428691864,-0.012082952074706554,-0.011164059862494469,-0.010245167650282383,-0.009326275438070297,-0.008407384157180786,-0.0074884919449687,-0.006569599732756615,-0.005650707520544529,-0.0047318157739937305,-0.003812923561781645,-0.0028940315824002028,-0.0019751396030187607,-0.0010562476236373186,-0.00013735552784055471,0.0007815365097485483,0.0017004285473376513,0.0026193205267190933,0.003538212738931179,0.0044571044854819775,0.005375996697694063,0.006294888909906149,0.007213780656456947,0.008132672868669033,0.009051565080881119,0.009970457293093204,0.010889348573982716,0.011808240786194801,0.012727132998406887,0.013646025210618973,0.014564917422831059,0.01548380870372057,0.016402700915932655,0.017321594059467316,0.018240485340356827,0.019159376621246338,0.020078269764780998,0.02099716104567051,0.02191605418920517,0.02283494547009468,0.023753836750984192,0.024672729894518852,0.025591621175408363,0.026510514318943024,0.027429405599832535],"_type":"histogram"},"gradients/gru.weight_hh_l0_reverse":{"bins":[-0.026023490354418755,-0.025218430906534195,-0.024413371458649635,-0.023608312010765076,-0.022803252562880516,-0.021998193114995956,-0.021193133667111397,-0.020388074219226837,-0.019583016633987427,-0.018777957186102867,-0.017972897738218307,-0.017167838290333748,-0.016362778842449188,-0.015557719394564629,-0.014752659946680069,-0.01394760049879551,-0.01314254105091095,-0.01233748160302639,-0.01153242215514183,-0.01072736270725727,-0.009922303259372711,-0.009117244742810726,-0.008312185294926167,-0.007507125847041607,-0.006702066399157047,-0.005897006951272488,-0.005091947503387928,-0.004286888521164656,-0.003481829073280096,-0.0026767696253955364,-0.0018717104103416204,-0.0010666510788723826,-0.00026159361004829407,0.0005434657214209437,0.0013485250528901815,0.0021535842679440975,0.002958643715828657,0.0037637031637132168,0.004568762145936489,0.005373821593821049,0.006178881041705608,0.006983940489590168,0.007788999937474728,0.008594059385359287,0.009399117901921272,0.010204177349805832,0.011009236797690392,0.011814296245574951,0.01261935569345951,0.01342441514134407,0.01422947458922863,0.01503453403711319,0.01583959348499775,0.01664465293288231,0.01744971238076687,0.018254771828651428,0.01905982941389084,0.019864888861775398,0.020669948309659958,0.021475007757544518,0.022280067205429077,0.023085126653313637,0.023890186101198196,0.024695245549082756,0.025500304996967316],"_type":"histogram","values":[1,0,0,0,0,1,1,1,0,2,1,1,0,2,4,5,6,3,5,11,19,20,16,27,65,56,112,183,274,456,926,2473,4081,1694,697,408,202,135,104,66,66,38,38,24,12,6,8,7,9,1,5,4,2,2,1,0,3,0,0,0,1,0,1,2]},"val_loss":1.6575889388720195,"gradients/gru.bias_hh_l0_reverse":{"_type":"histogram","values":[1,0,0,0,0,0,0,0,0,0,0,0,0,0,0,0,0,1,0,0,0,1,0,1,0,0,0,1,2,0,3,0,5,2,2,2,5,4,8,12,19,22,34,15,19,8,7,6,3,2,1,0,2,1,0,0,0,1,0,1,0,0,0,1],"bins":[-0.02772817760705948,-0.027075959369540215,-0.02642374113202095,-0.025771522894501686,-0.025119304656982422,-0.024467088282108307,-0.023814870044589043,-0.02316265180706978,-0.022510433569550514,-0.02185821533203125,-0.021205997094511986,-0.02055377885699272,-0.019901562482118607,-0.019249344244599342,-0.018597126007080078,-0.017944907769560814,-0.01729268953204155,-0.016640471294522285,-0.01598825305700302,-0.015336035750806332,-0.014683817513287067,-0.014031599275767803,-0.013379381969571114,-0.01272716373205185,-0.012074945494532585,-0.011422727257013321,-0.010770509019494057,-0.010118291713297367,-0.009466073475778103,-0.008813855238258839,-0.008161637932062149,-0.007509419694542885,-0.006857201457023621,-0.006204983219504356,-0.0055527654476463795,-0.0049005476757884026,-0.004248329438269138,-0.0035961114335805178,-0.002943893428891897,-0.0022916754242032766,-0.001639457419514656,-0.0009872394148260355,-0.00033502141013741493,0.00031719659455120564,0.0009694145992398262,0.0016216326039284468,0.0022738506086170673,0.002926068613305688,0.0035782866179943085,0.004230504855513573,0.00488272262737155,0.0055349403992295265,0.006187158636748791,0.006839376874268055,0.007491594646126032,0.008143812417984009,0.008796030655503273,0.009448248893022537,0.010100467130541801,0.010752684436738491,0.011404902674257755,0.01205712091177702,0.012709338217973709,0.013361556455492973,0.014013774693012238]},"_wandb":{"runtime":58},"train_loss":0.6794014324744543,"parameters/gru.weight_ih_l0_reverse":{"_type":"histogram","values":[2,0,0,1,2,1,1,2,5,1,8,3,6,4,12,6,12,14,22,32,23,17,38,34,53,47,55,35,53,45,50,57,56,56,53,52,49,33,36,40,18,25,26,17,11,6,8,7,5,2,4,1,2,2,1,0,0,0,0,0,0,0,0,1],"bins":[-0.9681596159934998,-0.9368804693222046,-0.9056013226509094,-0.8743221759796143,-0.8430430293083191,-0.8117638826370239,-0.7804847359657288,-0.7492055892944336,-0.7179263830184937,-0.6866472363471985,-0.6553680896759033,-0.6240889430046082,-0.592809796333313,-0.5615306496620178,-0.5302515029907227,-0.4989723563194275,-0.4676932096481323,-0.43641406297683716,-0.405134916305542,-0.3738557696342468,-0.34257662296295166,-0.3112974464893341,-0.28001829981803894,-0.24873915314674377,-0.2174600064754486,-0.18618085980415344,-0.15490171313285828,-0.12362255156040192,-0.09234340488910675,-0.061064254492521286,-0.02978510409593582,0.001494046300649643,0.03277325630187988,0.06405240297317505,0.09533155709505081,0.12661071121692657,0.15788985788822174,0.1891690045595169,0.22044816613197327,0.25172731280326843,0.2830064594745636,0.31428560614585876,0.34556475281715393,0.3768438994884491,0.40812307596206665,0.4394022226333618,0.470681369304657,0.5019605159759521,0.5332396626472473,0.5645188093185425,0.5957979559898376,0.6270771026611328,0.658356249332428,0.6896353960037231,0.7209145426750183,0.7521936893463135,0.7834728956222534,0.8147520422935486,0.8460311889648438,0.8773103356361389,0.9085894823074341,0.9398686289787292,0.9711477756500244,1.0024268627166748,1.0337060689926147]},"gradients/gru.weight_ih_l0_reverse":{"_type":"histogram","values":[1,0,0,0,0,0,0,0,0,0,1,0,0,0,0,0,0,0,0,0,1,0,0,0,1,1,2,2,2,0,4,1,4,1,1,10,16,20,36,45,86,409,288,78,47,24,15,9,12,6,6,3,6,6,1,1,0,3,2,0,0,0,0,1],"bins":[-0.07091065496206284,-0.06921707838773727,-0.06752350181341171,-0.06582993268966675,-0.06413635611534119,-0.062442779541015625,-0.06074920669198036,-0.0590556301176548,-0.05736205726861954,-0.055668480694293976,-0.05397490784525871,-0.05228133127093315,-0.05058775842189789,-0.04889418184757233,-0.047200608998537064,-0.0455070324242115,-0.04381345957517624,-0.04211988300085068,-0.040426306426525116,-0.03873273357748985,-0.03703915700316429,-0.03534558415412903,-0.03365200757980347,-0.031958434730768204,-0.030264858156442642,-0.02857128344476223,-0.026877708733081818,-0.025184134021401405,-0.023490559309720993,-0.02179698459804058,-0.02010340988636017,-0.018409835174679756,-0.016716260462999344,-0.015022685751318932,-0.01332911103963852,-0.011635536327958107,-0.009941961616277695,-0.008248385973274708,-0.0065548112615942955,-0.004861236549913883,-0.003167661838233471,-0.0014740870101377368,0.00021948781795799732,0.0019130626460537314,0.0036066374741494656,0.005300212185829878,0.0069937873631715775,0.00868736207485199,0.010380936786532402,0.012074511498212814,0.013768086209893227,0.015461660921573639,0.01715523563325405,0.018848810344934464,0.020542385056614876,0.022235959768295288,0.02392953634262085,0.025623111054301262,0.027316685765981674,0.029010260477662086,0.0307038351893425,0.03239740803837776,0.03409098461270332,0.035784557461738586,0.03747813403606415]},"parameters/fc.weight":{"values":[1,1,0,0,0,1,1,1,0,2,4,4,1,5,4,6,8,5,12,12,14,20,33,33,23,30,44,33,24,44,39,37,45,33,44,37,18,22,20,12,20,8,8,10,6,5,13,4,6,6,1,0,1,0,3,2,0,1,0,0,0,0,0,1],"bins":[-0.6300144791603088,-0.6093955039978027,-0.5887765288352966,-0.5681574940681458,-0.5475385189056396,-0.5269195437431335,-0.5063005685806274,-0.48568156361579895,-0.46506255865097046,-0.44444358348846436,-0.42382460832595825,-0.40320560336112976,-0.38258662819862366,-0.36196762323379517,-0.34134864807128906,-0.32072964310646057,-0.30011066794395447,-0.27949169278144836,-0.2588726878166199,-0.23825369775295258,-0.21763470768928528,-0.19701573252677917,-0.17639674246311188,-0.15577775239944458,-0.13515876233577728,-0.11453977227210999,-0.09392078220844269,-0.07330179959535599,-0.05268280953168869,-0.03206381946802139,-0.011444833129644394,0.009174155071377754,0.029793143272399902,0.0504121333360672,0.0710311233997345,0.0916501060128212,0.1122690960764885,0.1328880786895752,0.1535070687532425,0.1741260588169098,0.1947450488805771,0.21536403894424438,0.23598302900791168,0.256602019071579,0.2772209942340851,0.2978399991989136,0.3184589743614197,0.33907797932624817,0.3596969544887543,0.3803159296512604,0.40093493461608887,0.42155390977859497,0.44217291474342346,0.46279188990592957,0.48341089487075806,0.5040298700332642,0.5246488451957703,0.5452678203582764,0.5658868551254272,0.5865058302879333,0.6071248054504395,0.6277437806129456,0.6483628153800964,0.6689817905426025,0.6896007657051086],"_type":"histogram"},"gradients/gru.weight_hh_l0":{"bins":[-0.010198080912232399,-0.009893659502267838,-0.009589238092303276,-0.00928481761366129,-0.008980396203696728,-0.008675974793732166,-0.00837155431509018,-0.008067132905125618,-0.0077627114951610565,-0.007458290085196495,-0.007153869140893221,-0.006849448196589947,-0.006545026786625385,-0.006240605376660824,-0.00593618443235755,-0.0056317634880542755,-0.005327342078089714,-0.005022920668125153,-0.004718499723821878,-0.004414078779518604,-0.004109657369554043,-0.003805236192420125,-0.003500815015286207,-0.0031963938381522894,-0.0028919726610183716,-0.0025875514838844538,-0.002283130306750536,-0.001978709129616618,-0.0016742879524827003,-0.0013698667753487825,-0.0010654455982148647,-0.0007610244210809469,-0.00045660417526960373,-0.00015218299813568592,0.0001522381789982319,0.0004566593561321497,0.0007610805332660675,0.0010655017103999853,0.0013699228875339031,0.001674344064667821,0.0019787652418017387,0.0022831864189356565,0.0025876075960695744,0.002892028773203492,0.00319644995033741,0.0035008711274713278,0.0038052923046052456,0.00410971324890852,0.004414134658873081,0.004718556068837643,0.005022977013140917,0.005327397957444191,0.0056318193674087524,0.005936240777373314,0.006240661721676588,0.006545082665979862,0.006849504075944424,0.007153925485908985,0.007458346430212259,0.0077627673745155334,0.008067188784480095,0.008371610194444656,0.008676031604409218,0.008980452083051205,0.009284873493015766],"_type":"histogram","values":[1,0,0,1,0,0,3,1,3,1,3,1,1,3,5,9,5,12,18,28,37,36,55,65,98,112,140,189,275,388,622,991,1819,2689,1773,964,520,364,269,196,139,93,95,60,56,42,23,15,16,10,11,11,4,5,4,1,0,3,1,1,0,0,0,1]},"parameters/fc.bias":{"values":[1,0,0,0,0,0,0,0,0,0,0,0,0,0,0,0,0,0,0,0,0,0,1,0,0,0,0,0,0,0,0,0,0,0,1,1,0,0,0,0,0,0,0,0,0,1,0,0,0,0,0,0,0,0,0,0,0,0,0,0,0,0,0,1],"bins":[-0.19630394876003265,-0.19049328565597534,-0.18468263745307922,-0.1788719743490219,-0.1730613112449646,-0.16725066304206848,-0.16143999993801117,-0.15562933683395386,-0.14981868863105774,-0.14400802552700043,-0.13819736242294312,-0.1323866993188858,-0.12657605111598969,-0.12076538801193237,-0.11495473235845566,-0.10914406925439835,-0.10333341360092163,-0.09752275794744492,-0.0917120948433876,-0.08590143918991089,-0.08009077608585358,-0.07428012043237686,-0.06846946477890015,-0.06265880167484283,-0.05684814602136612,-0.051037486642599106,-0.04522682726383209,-0.03941617161035538,-0.033605512231588364,-0.02779485285282135,-0.021984195336699486,-0.01617353782057762,-0.010362863540649414,-0.004552205093204975,0.0012584533542394638,0.007069111801683903,0.012879770249128342,0.018690429627895355,0.02450108714401722,0.030311744660139084,0.0361224040389061,0.04193306341767311,0.047743722796440125,0.05355437844991684,0.05936503782868385,0.06517569720745087,0.07098635286092758,0.0767970159649849,0.08260767161846161,0.08841832727193832,0.09422899037599564,0.10003964602947235,0.10585030913352966,0.11166096478700638,0.1174716204404831,0.1232822835445404,0.12909293174743652,0.13490359485149384,0.14071425795555115,0.14652492105960846,0.15233556926250458,0.1581462323665619,0.1639568954706192,0.16976754367351532,0.17557820677757263],"_type":"histogram"},"parameters/gru.bias_hh_l0":{"values":[2,0,2,1,0,6,4,7,4,5,4,7,7,9,7,6,3,8,9,11,8,11,10,8,8,3,7,3,3,3,4,0,3,0,1,1,2,1,1,1,0,3,0,1,2,0,0,0,0,1,0,0,2,2,0,0,0,0,0,0,0,0,0,1],"bins":[-0.2150925099849701,-0.20099617540836334,-0.1868998408317566,-0.17280349135398865,-0.1587071567773819,-0.14461082220077515,-0.1305144727230072,-0.11641813814640045,-0.1023218035697937,-0.08822546899318695,-0.0741291269659996,-0.060032788664102554,-0.045936450362205505,-0.031840112060308456,-0.017743773758411407,-0.0036474354565143585,0.01044890284538269,0.02454524114727974,0.03864157944917679,0.05273791775107384,0.06683425605297089,0.08093059062957764,0.09502693265676498,0.10912327468395233,0.12321960926055908,0.13731594383716583,0.15141227841377258,0.16550862789154053,0.17960496246814728,0.19370129704475403,0.20779764652252197,0.22189398109912872,0.23599028587341309,0.25008663535118103,0.2641829550266266,0.27827930450439453,0.2923756241798401,0.30647197365760803,0.320568323135376,0.33466464281082153,0.3487609922885895,0.3628573417663574,0.376953661441803,0.3910500109195709,0.40514636039733887,0.4192426800727844,0.43333902955055237,0.4474353492259979,0.46153169870376587,0.4756280481815338,0.48972436785697937,0.5038207173347473,0.5179170370101929,0.5320134162902832,0.5461097359657288,0.5602060556411743,0.5743024349212646,0.5883987545967102,0.6024950742721558,0.6165913939476013,0.6306877732276917,0.6447840929031372,0.6588804125785828,0.6729767918586731,0.6870731115341187],"_type":"histogram"},"gradients/fc.weight":{"_type":"histogram","values":[3,2,0,1,0,4,1,4,2,5,5,1,7,4,6,13,5,9,4,7,6,6,9,9,18,26,51,85,120,111,57,43,22,20,9,4,12,5,3,3,4,9,6,6,7,4,5,2,4,4,1,3,4,4,0,1,0,0,0,0,0,0,1,1],"bins":[-0.01827962137758732,-0.017644064500927925,-0.017008505761623383,-0.01637294888496399,-0.015737392008304596,-0.015101833269000053,-0.01446627639234066,-0.013830718584358692,-0.013195160776376724,-0.012559602968394756,-0.011924045160412788,-0.011288488283753395,-0.010652930475771427,-0.01001737266778946,-0.009381815791130066,-0.008746257983148098,-0.00811070017516613,-0.007475142367184162,-0.0068395850248634815,-0.006204027682542801,-0.005568469874560833,-0.004932912066578865,-0.004297354724258184,-0.00366179714910686,-0.003026239573955536,-0.0023906819988042116,-0.0017551244236528873,-0.001119566848501563,-0.0004840092733502388,0.00015154830180108547,0.0007871058769524097,0.001422663452103734,0.002058219164609909,0.0026937767397612333,0.0033293343149125576,0.003964891657233238,0.004600449465215206,0.005236007273197174,0.005871564615517855,0.006507121957838535,0.007142679765820503,0.007778237573802471,0.008413795381784439,0.009049352258443832,0.0096849100664258,0.010320467874407768,0.010956024751067162,0.01159158255904913,0.012227140367031097,0.012862698175013065,0.013498255982995033,0.014133812859654427,0.014769370667636395,0.015404928475618362,0.016040485352277756,0.0166760440915823,0.01731160096824169,0.017947157844901085,0.018582716584205627,0.01921827346086502,0.019853830337524414,0.020489389076828957,0.02112494595348835,0.021760504692792892,0.022396061569452286]},"_runtime":58.724139191,"val_accuracy":0.5179597701149425}