{"epoch":197,"parameters/gru.bias_hh_l0":{"_type":"histogram","values":[1,0,0,0,0,1,1,0,3,1,0,1,1,5,1,4,10,2,5,4,6,9,3,7,5,8,7,9,9,8,5,11,9,6,9,8,3,2,1,4,3,4,1,1,3,0,1,2,1,1,2,2,1,0,0,0,0,0,0,0,0,0,0,1],"bins":[-0.059739187359809875,-0.057408012449741364,-0.05507683753967285,-0.05274566635489464,-0.050414491444826126,-0.048083316534757614,-0.0457521453499794,-0.04342097043991089,-0.04108979552984238,-0.038758620619773865,-0.03642744570970535,-0.03409627452492714,-0.03176509961485863,-0.029433924704790115,-0.027102751657366753,-0.02477157860994339,-0.022440403699874878,-0.020109228789806366,-0.017778055742383003,-0.015446881763637066,-0.013115707784891129,-0.010784533806145191,-0.008453359827399254,-0.0061221858486533165,-0.003791011869907379,-0.0014598378911614418,0.0008713360875844955,0.003202510066330433,0.00553368404507637,0.007864858023822308,0.010196032002568245,0.012527205981314182,0.01485837996006012,0.01718955487012863,0.019520727917551994,0.021851900964975357,0.02418307587504387,0.02651425078511238,0.028845423832535744,0.031176596879959106,0.03350777179002762,0.03583894670009613,0.03817012161016464,0.040501292794942856,0.04283246770501137,0.04516364261507988,0.04749481379985809,0.049825988709926605,0.05215716361999512,0.05448833853006363,0.05681951344013214,0.059150684624910355,0.06148185953497887,0.06381303071975708,0.06614420562982559,0.0684753805398941,0.07080655544996262,0.07313773036003113,0.07546890527009964,0.07780008018016815,0.08013124763965607,0.08246242254972458,0.08479359745979309,0.0871247723698616,0.08945594727993011]},"gradients/head.4.weight":{"_type":"histogram","values":[1,0,0,0,1,1,1,0,0,0,0,0,1,0,0,2,0,0,3,0,0,3,6,5,13,34,52,154,330,77,51,13,6,3,2,1,2,0,0,0,0,1,0,0,1,1,0,1,0,0,0,0,0,0,0,0,0,0,0,1,0,0,0,1],"bins":[-0.06464344263076782,-0.062346696853637695,-0.06004994735121727,-0.05775320157408714,-0.05545645207166672,-0.05315970629453659,-0.050862960517406464,-0.04856621101498604,-0.04626946523785591,-0.043972719460725784,-0.04167596995830536,-0.03937922418117523,-0.037082478404045105,-0.03478572890162468,-0.03248898312449455,-0.030192235484719276,-0.027895487844944,-0.025598740205168724,-0.023301992565393448,-0.02100524678826332,-0.018708499148488045,-0.01641175150871277,-0.014115004800260067,-0.011818258091807365,-0.00952151045203209,-0.0072247632779181,-0.0049280161038041115,-0.0026312689296901226,-0.00033452175557613373,0.001962225418537855,0.004258972592651844,0.006555719766765833,0.008852459490299225,0.011149207130074501,0.013445953838527203,0.015742700546979904,0.01803944818675518,0.020336195826530457,0.022632941603660583,0.02492968924343586,0.027226436883211136,0.029523184522986412,0.03181993216276169,0.034116677939891815,0.03641342371702194,0.03871017321944237,0.041006918996572495,0.04330366849899292,0.04560041427612305,0.047897160053253174,0.0501939095556736,0.052490655332803726,0.05478740483522415,0.05708415061235428,0.059380896389484406,0.06167764589190483,0.06397439539432526,0.06627114117145538,0.06856788694858551,0.07086463272571564,0.07316137850284576,0.07545812427997589,0.07775487750768661,0.08005162328481674,0.08234836906194687]},"parameters/gru.weight_ih_l1":{"values":[4,2,8,15,20,36,56,82,132,183,281,368,435,511,493,502,528,563,538,553,542,593,583,529,549,528,606,558,523,539,600,537,531,544,550,559,546,557,555,568,584,589,560,619,543,556,558,545,567,515,467,472,457,351,272,192,98,87,42,38,24,14,8,11],"bins":[-0.2855643332004547,-0.27681437134742737,-0.2680644094944,-0.25931447744369507,-0.2505645155906677,-0.24181455373764038,-0.23306459188461304,-0.2243146449327469,-0.21556468307971954,-0.2068147212266922,-0.19806477427482605,-0.1893148124217987,-0.18056485056877136,-0.1718149036169052,-0.16306494176387787,-0.15431499481201172,-0.14556503295898438,-0.13681507110595703,-0.12806512415409088,-0.11931516230106354,-0.11056520789861679,-0.10181525349617004,-0.0930652916431427,-0.08431533724069595,-0.0755653828382492,-0.06681542843580246,-0.058065470308065414,-0.04931551218032837,-0.04056555777788162,-0.031815603375434875,-0.02306564524769783,-0.014315688982605934,-0.00556570291519165,0.0031842533499002457,0.011934209614992142,0.020684165880084038,0.029434122145175934,0.03818407654762268,0.046934034675359726,0.05568399280309677,0.06443394720554352,0.07318390160799026,0.08193385601043701,0.09068381786346436,0.0994337722659111,0.10818372666835785,0.11693368852138519,0.12568363547325134,0.1344335973262787,0.14318355917930603,0.15193350613117218,0.16068346798419952,0.16943341493606567,0.17818337678909302,0.18693333864212036,0.1956832855939865,0.20443324744701385,0.2131832093000412,0.22193315625190735,0.2306831181049347,0.23943307995796204,0.24818302690982819,0.25693297386169434,0.2656829357147217,0.274432897567749],"_type":"histogram"},"parameters/gru.bias_ih_l0":{"_type":"histogram","values":[1,0,0,0,0,2,1,1,1,1,1,0,1,5,1,6,8,2,5,6,5,7,5,5,8,6,6,9,9,9,3,12,10,6,8,9,3,2,2,2,4,4,1,1,3,0,2,2,1,1,1,2,1,0,0,0,0,0,0,0,0,0,0,1],"bins":[-0.059739187359809875,-0.057408012449741364,-0.05507683753967285,-0.05274566635489464,-0.050414491444826126,-0.048083316534757614,-0.0457521453499794,-0.04342097043991089,-0.04108979552984238,-0.038758620619773865,-0.03642744570970535,-0.03409627452492714,-0.03176509961485863,-0.029433924704790115,-0.027102751657366753,-0.02477157860994339,-0.022440403699874878,-0.020109228789806366,-0.017778055742383003,-0.015446881763637066,-0.013115707784891129,-0.010784533806145191,-0.008453359827399254,-0.0061221858486533165,-0.003791011869907379,-0.0014598378911614418,0.0008713360875844955,0.003202510066330433,0.00553368404507637,0.007864858023822308,0.010196032002568245,0.012527205981314182,0.01485837996006012,0.01718955487012863,0.019520727917551994,0.021851900964975357,0.02418307587504387,0.02651425078511238,0.028845423832535744,0.031176596879959106,0.03350777179002762,0.03583894670009613,0.03817012161016464,0.040501292794942856,0.04283246770501137,0.04516364261507988,0.04749481379985809,0.049825988709926605,0.05215716361999512,0.05448833853006363,0.05681951344013214,0.059150684624910355,0.06148185953497887,0.06381303071975708,0.06614420562982559,0.0684753805398941,0.07080655544996262,0.07313773036003113,0.07546890527009964,0.07780008018016815,0.08013124763965607,0.08246242254972458,0.08479359745979309,0.0871247723698616,0.08945594727993011]},"parameters/in_norm.bias":{"bins":[-0.028583364561200142,-0.027570175006985664,-0.026556985452771187,-0.02554379589855671,-0.024530604481697083,-0.023517414927482605,-0.022504225373268127,-0.02149103581905365,-0.020477846264839172,-0.019464656710624695,-0.018451467156410217,-0.01743827760219574,-0.016425088047981262,-0.01541189756244421,-0.014398707076907158,-0.01338551752269268,-0.012372327968478203,-0.011359138414263725,-0.010345948860049248,-0.009332758374512196,-0.008319568820297718,-0.0073063792660832405,-0.006293189246207476,-0.005279999226331711,-0.004266809672117233,-0.003253619885072112,-0.002240430098026991,-0.0012272403109818697,-0.0002140505239367485,0.0007991392631083727,0.0018123290501534939,0.002825518837198615,0.0038387104868888855,0.004851900041103363,0.005865090060979128,0.006878280080854893,0.00789146963506937,0.008904659189283848,0.0099178496748209,0.010931039229035378,0.011944228783249855,0.012957418337464333,0.01397060789167881,0.014983798377215862,0.015996988862752914,0.017010178416967392,0.01802336797118187,0.019036557525396347,0.020049747079610825,0.021062936633825302,0.02207612618803978,0.023089315742254257,0.024102505296468735,0.02511569671332836,0.02612888626754284,0.027142075821757317,0.028155265375971794,0.02916845493018627,0.03018164448440075,0.031194834038615227,0.032208025455474854,0.03322121500968933,0.03423440456390381,0.035247594118118286,0.036260783672332764],"_type":"histogram","values":[1,0,0,0,2,1,0,0,0,0,0,0,0,0,0,0,0,0,0,0,0,0,0,0,0,0,0,0,0,0,0,0,0,0,0,0,0,0,0,0,0,0,0,0,0,0,0,0,0,0,0,0,0,0,0,0,0,0,1,0,0,0,0,1]},"gradients/gru.bias_hh_l0":{"values":[2,0,0,1,0,0,0,0,1,0,1,0,1,2,1,2,2,2,1,2,0,2,3,5,3,29,78,18,6,5,2,2,3,1,1,1,2,3,1,0,0,1,1,2,1,0,0,1,0,0,1,0,0,0,0,0,1,0,0,0,0,0,0,1],"bins":[-0.02942841313779354,-0.02831341326236725,-0.027198411524295807,-0.026083411648869514,-0.024968411773443222,-0.02385341003537178,-0.022738410159945488,-0.021623408421874046,-0.020508408546447754,-0.01939340867102146,-0.01827840693295002,-0.017163407057523727,-0.016048405319452286,-0.014933405444025993,-0.013818405568599701,-0.012703404761850834,-0.011588403955101967,-0.0104734031483531,-0.009358402341604233,-0.00824340246617794,-0.007128401659429073,-0.006013400852680206,-0.004898400511592627,-0.003783399937674403,-0.00266839936375618,-0.0015533987898379564,-0.00043839821591973305,0.0006766023579984903,0.0017916029319167137,0.002906603505834937,0.0040216040797531605,0.00513660442084074,0.0062516070902347565,0.0073666078969836235,0.00848160870373249,0.009596608579158783,0.01071160938590765,0.011826610192656517,0.01294161006808281,0.014056610874831676,0.015171611681580544,0.016286611557006836,0.017401613295078278,0.01851661317050457,0.019631613045930862,0.020746614784002304,0.021861614659428596,0.022976616397500038,0.02409161627292633,0.025206616148352623,0.026321617886424065,0.027436617761850357,0.0285516194999218,0.02966661937534809,0.030781619250774384,0.031896620988845825,0.03301162272691727,0.03412662073969841,0.03524162247776985,0.03635662421584129,0.037471622228622437,0.03858662396669388,0.03970162570476532,0.04081662371754646,0.041931625455617905],"_type":"histogram"},"gradients/in_norm.weight":{"bins":[-0.01935884729027748,-0.018571246415376663,-0.017783645540475845,-0.016996044665575027,-0.01620844379067421,-0.015420843847095966,-0.014633243903517723,-0.013845643028616905,-0.013058042153716087,-0.01227044127881527,-0.011482840403914452,-0.010695240460336208,-0.00990763958543539,-0.009120038710534573,-0.00833243876695633,-0.0075448378920555115,-0.006757237017154694,-0.005969636142253876,-0.005182035733014345,-0.004394435323774815,-0.0036068344488739967,-0.0028192338068038225,-0.0020316331647336483,-0.001244032522663474,-0.00045643188059329987,0.00033116876147687435,0.0011187694035470486,0.0019063700456172228,0.002693970687687397,0.0034815713297575712,0.0042691719718277454,0.005056772381067276,0.005844373255968094,0.006631974130868912,0.007419574540108442,0.008207174949347973,0.00899477582424879,0.009782376699149609,0.010569976642727852,0.01135757751762867,0.012145178392529488,0.012932779267430305,0.013720380142331123,0.014507980085909367,0.015295580960810184,0.016083180904388428,0.016870781779289246,0.017658382654190063,0.01844598352909088,0.0192335844039917,0.020021185278892517,0.020808786153793335,0.021596387028694153,0.02238398604094982,0.02317158691585064,0.023959187790751457,0.024746788665652275,0.025534389540553093,0.02632199041545391,0.02710959129035473,0.027897190302610397,0.028684791177511215,0.029472392052412033,0.03025999292731285,0.03104759380221367],"_type":"histogram","values":[1,0,0,0,0,0,0,0,0,0,0,0,0,0,0,0,0,0,0,0,1,0,0,0,0,0,1,0,0,1,0,0,0,0,0,0,0,0,0,0,1,0,0,0,0,0,0,0,0,0,0,0,0,0,0,0,0,0,0,0,0,0,0,1]},"parameters/gru.weight_hh_l0_reverse":{"_type":"histogram","values":[1,0,0,0,1,1,1,0,3,5,4,19,19,29,36,60,60,78,114,147,163,211,246,262,291,359,411,432,498,507,578,604,573,590,646,590,565,589,507,484,446,372,336,287,224,207,155,124,110,95,59,60,36,20,23,15,12,11,4,2,3,2,0,1],"bins":[-0.322404682636261,-0.31280845403671265,-0.3032122552394867,-0.29361602663993835,-0.2840198278427124,-0.27442359924316406,-0.2648273706436157,-0.25523117184638977,-0.24563494324684143,-0.23603872954845428,-0.22644251585006714,-0.2168462872505188,-0.20725007355213165,-0.1976538598537445,-0.18805763125419617,-0.17846141755580902,-0.16886520385742188,-0.15926899015903473,-0.14967277646064758,-0.14007654786109924,-0.1304803341627121,-0.12088412046432495,-0.11128789931535721,-0.10169167816638947,-0.09209546446800232,-0.08249925076961517,-0.07290302962064743,-0.06330680847167969,-0.05371059477329254,-0.0441143773496151,-0.03451815992593765,-0.024921942502260208,-0.015325725078582764,-0.005729507654905319,0.0038667097687721252,0.01346292719244957,0.023059144616127014,0.03265536203980446,0.0422515794634819,0.05184779688715935,0.06144401431083679,0.07104022800922394,0.08063644915819168,0.09023267030715942,0.09982888400554657,0.10942509770393372,0.11902131885290146,0.1286175400018692,0.13821375370025635,0.1478099673986435,0.15740618109703064,0.16700240969657898,0.17659862339496613,0.18619483709335327,0.1957910656929016,0.20538727939128876,0.2149834930896759,0.22457970678806305,0.2341759204864502,0.24377214908599854,0.2533683776855469,0.2629645764827728,0.27256080508232117,0.2821570038795471,0.29175323247909546]},"gradients/gru.weight_hh_l0_reverse":{"_type":"histogram","values":[1,0,1,1,0,3,0,4,3,2,4,0,0,1,3,4,4,8,8,11,17,15,28,44,64,87,137,252,369,701,4007,4783,684,364,237,133,81,57,42,31,19,15,7,7,11,9,8,2,2,0,4,2,0,2,1,1,0,1,1,0,1,2,1,1],"bins":[-0.03440875932574272,-0.03329957276582718,-0.032190386205911636,-0.031081201508641243,-0.02997201681137085,-0.028862830251455307,-0.027753643691539764,-0.02664445899426937,-0.02553527243435383,-0.024426085874438286,-0.023316901177167892,-0.02220771461725235,-0.021098528057336807,-0.019989343360066414,-0.01888015680015087,-0.017770972102880478,-0.016661785542964935,-0.015552599914371967,-0.014443414285779,-0.013334227725863457,-0.012225042097270489,-0.01111585646867752,-0.010006669908761978,-0.00889748428016901,-0.007788298651576042,-0.006679113022983074,-0.005569926928728819,-0.004460740834474564,-0.0033515552058815956,-0.002242369344457984,-0.0011331834830343723,-2.399762161076069e-05,0.0010851845145225525,0.002194370375946164,0.0033035562373697758,0.004412742331624031,0.005521927960216999,0.006631113588809967,0.007740299683064222,0.008849485777318478,0.009958671405911446,0.011067857034504414,0.012177042663097382,0.013286229223012924,0.014395414851605892,0.01550460048019886,0.016613787040114403,0.017722971737384796,0.01883215829730034,0.01994134485721588,0.021050529554486275,0.022159716114401817,0.02326890081167221,0.024378087371587753,0.025487273931503296,0.02659645862877369,0.027705645188689232,0.028814831748604774,0.029924016445875168,0.03103320300579071,0.03214238956570625,0.033251576125621796,0.03436075896024704,0.03546994552016258,0.036579132080078125]},"gradients/gru.bias_ih_l1_reverse":{"bins":[-0.02897016331553459,-0.02804461680352688,-0.027119072154164314,-0.0261935256421566,-0.025267979130148888,-0.024342434480786324,-0.02341688796877861,-0.022491341456770897,-0.021565796807408333,-0.02064025029540062,-0.019714703783392906,-0.018789159134030342,-0.01786361262202263,-0.016938066110014915,-0.01601252146065235,-0.015086974948644638,-0.0141614293679595,-0.01323588378727436,-0.012310337275266647,-0.011384791694581509,-0.01045924611389637,-0.009533699601888657,-0.008608154021203518,-0.007682608440518379,-0.006757062394171953,-0.005831516347825527,-0.0049059707671403885,-0.0039804247207939625,-0.00305487890727818,-0.0021293330937623978,-0.0012037871638312936,-0.0002782412921078503,0.000647304579615593,0.0015728503931313753,0.0024983962066471577,0.0034239422529935837,0.004349487833678722,0.005275033880025148,0.006200579926371574,0.007126125507056713,0.008051671087741852,0.008977217599749565,0.009902763180434704,0.010828308761119843,0.011753855273127556,0.012679400853812695,0.013604946434497833,0.014530492946505547,0.015456038527190685,0.016381584107875824,0.017307130619883537,0.0182326752692461,0.019158221781253815,0.020083768293261528,0.021009312942624092,0.021934859454631805,0.02286040596663952,0.023785950616002083,0.024711497128009796,0.02563704364001751,0.026562588289380074,0.027488134801387787,0.0284136813133955,0.029339225962758064,0.030264772474765778],"_type":"histogram","values":[1,0,0,1,1,0,0,1,0,0,1,2,2,4,1,2,1,1,1,3,1,1,2,2,0,1,3,6,4,19,24,75,5,4,2,3,1,2,0,1,2,2,0,1,0,0,1,2,0,0,2,1,1,0,1,0,0,0,0,0,0,0,0,1]},"gradients/head.1.weight":{"bins":[-0.0060374499298632145,-0.005829801317304373,-0.005622153170406818,-0.005414504557847977,-0.005206856410950422,-0.004999207798391581,-0.004791559651494026,-0.0045839110389351845,-0.004376262426376343,-0.004168614279478788,-0.003960965666919947,-0.0037533175200223923,-0.0035456689074635506,-0.0033380205277353525,-0.0031303721480071545,-0.0029227237682789564,-0.0027150753885507584,-0.0025074270088225603,-0.0022997786290943623,-0.002092130249366164,-0.0018844817532226443,-0.0016768333734944463,-0.0014691848773509264,-0.0012615364976227283,-0.0010538881178945303,-0.0008462397381663322,-0.0006385913002304733,-0.00043094289139844477,-0.00022329448256641626,-1.5646073734387755e-05,0.00019200233509764075,0.00039965074392966926,0.0006072991527616978,0.0008149475324898958,0.0010225959122180939,0.0012302444083616138,0.0014378927880898118,0.0016455411678180099,0.0018531896639615297,0.002060838043689728,0.002268486423417926,0.002476134803146124,0.002683783182874322,0.00289143156260252,0.0030990801751613617,0.0033067285548895597,0.003514376934617758,0.003722025314345956,0.003929673694074154,0.004137322306632996,0.00434497045353055,0.004552619066089392,0.004760267212986946,0.004967915825545788,0.005175563972443342,0.005383212585002184,0.005590860731899738,0.00579850934445858,0.006006157957017422,0.006213806103914976,0.006421454716473818,0.006629102863371372,0.006836751475930214,0.007044399622827768,0.00725204823538661],"_type":"histogram","values":[1,3,1,0,2,8,4,4,3,13,18,19,21,33,49,58,51,88,111,120,164,194,284,367,494,693,918,1425,2651,3089,1629,982,670,499,387,285,245,172,134,110,85,74,55,41,35,23,21,13,9,8,6,5,2,4,1,0,0,1,0,0,0,1,0,1]},"parameters/head.1.bias":{"_type":"histogram","values":[1,0,1,3,3,0,3,2,3,5,2,1,1,2,0,3,7,2,3,6,5,5,5,5,4,7,6,4,4,4,5,2,5,1,1,3,1,1,1,2,0,2,0,0,1,1,0,1,0,0,0,0,1,1,0,0,0,1,0,0,0,0,0,1],"bins":[-0.047571826726198196,-0.04560777544975281,-0.04364372417330742,-0.04167967662215233,-0.03971562534570694,-0.03775157406926155,-0.03578752279281616,-0.03382347151637077,-0.031859420239925385,-0.029895370826125145,-0.027931321412324905,-0.025967270135879517,-0.024003218859434128,-0.022039169445633888,-0.0200751181691885,-0.01811106875538826,-0.01614701747894287,-0.014182967133820057,-0.012218916788697243,-0.010254865512251854,-0.00829081516712904,-0.006326764822006226,-0.004362714011222124,-0.0023986634332686663,-0.00043461285531520844,0.0015294377226382494,0.0034934883005917072,0.005457539111375809,0.007421589456498623,0.009385639801621437,0.011349691078066826,0.01331374142318964,0.015277788043022156,0.017241839319467545,0.019205888733267784,0.021169940009713173,0.023133989423513412,0.0250980406999588,0.02706209197640419,0.02902614139020443,0.03099019266664982,0.03295424208045006,0.03491829335689545,0.036882344633340836,0.038846395909786224,0.04081044718623161,0.042774494737386703,0.04473854601383209,0.04670259729027748,0.04866664856672287,0.05063069984316826,0.05259474739432335,0.05455879867076874,0.05652284994721413,0.058486901223659515,0.060450952500104904,0.06241500377655029,0.06437905132770538,0.06634310632944107,0.06830715388059616,0.07027120143175125,0.07223525643348694,0.07419930398464203,0.07616335898637772,0.0781274065375328]},"gradients/gru.bias_hh_l1":{"_type":"histogram","values":[1,0,0,0,1,1,0,0,0,1,1,2,1,1,0,0,1,1,2,1,1,1,3,0,2,2,3,6,3,3,8,73,27,16,8,1,1,1,4,1,1,2,0,1,1,1,1,1,1,0,0,2,1,0,0,0,0,0,0,0,0,1,0,1],"bins":[-0.03535323590040207,-0.03423338755965233,-0.03311353921890259,-0.03199369087815285,-0.030873840674757957,-0.029753992334008217,-0.028634142130613327,-0.027514293789863586,-0.026394445449113846,-0.025274597108364105,-0.024154748767614365,-0.023034898564219475,-0.021915050223469734,-0.020795201882719994,-0.019675351679325104,-0.018555503338575363,-0.017435654997825623,-0.016315806657075882,-0.015195957385003567,-0.014076108112931252,-0.012956259772181511,-0.01183641143143177,-0.010716562159359455,-0.00959671288728714,-0.0084768645465374,-0.007357015740126371,-0.0062371669337153435,-0.005117318127304316,-0.003997469320893288,-0.0028776205144822598,-0.0017577717080712318,-0.0006379229016602039,0.00048192963004112244,0.0016017784364521503,0.0027216272428631783,0.003841476049274206,0.004961324855685234,0.006081173662096262,0.00720102246850729,0.008320871740579605,0.009440720081329346,0.010560568422079086,0.011680417694151402,0.012800266966223717,0.013920115306973457,0.015039963647723198,0.016159813851118088,0.01727966219186783,0.01839951053261757,0.01951935887336731,0.02063920721411705,0.02175905741751194,0.02287890575826168,0.02399875409901142,0.02511860430240631,0.02623845264315605,0.027358300983905792,0.028478149324655533,0.029597997665405273,0.030717847868800163,0.031837694346904755,0.032957546412944794,0.034077394753694534,0.035197243094444275,0.036317091435194016]},"parameters/head.1.weight":{"values":[4,3,1,8,17,37,69,113,178,229,289,299,323,324,333,332,308,325,316,310,342,314,380,342,378,304,315,334,355,351,341,322,331,341,364,332,334,331,370,365,352,301,361,320,329,302,368,325,355,335,355,337,347,309,256,290,209,122,81,33,14,8,7,4],"bins":[-0.285905659198761,-0.2771766185760498,-0.26844754815101624,-0.25971850752830505,-0.25098946690559387,-0.2422604113817215,-0.23353135585784912,-0.22480230033397675,-0.21607324481010437,-0.2073442041873932,-0.1986151486635208,-0.18988609313964844,-0.18115705251693726,-0.17242799699306488,-0.1636989414691925,-0.15496990084648132,-0.14624084532260895,-0.13751178979873657,-0.1287827491760254,-0.12005369365215302,-0.11132463812828064,-0.10259559005498886,-0.09386654198169708,-0.08513748645782471,-0.07640843838453293,-0.06767939031124115,-0.058950334787368774,-0.050221286714076996,-0.04149223491549492,-0.03276318311691284,-0.024034133180975914,-0.015305082313716412,-0.006576031446456909,0.0021530194208025932,0.010882070288062096,0.019611120223999023,0.0283401720225811,0.03706922382116318,0.045798271894454956,0.05452732369303703,0.06325637549161911,0.07198542356491089,0.08071447908878326,0.08944352716207504,0.09817257523536682,0.1069016307592392,0.11563067883253098,0.12435973435640335,0.13308878242969513,0.1418178379535675,0.1505468785762787,0.15927593410015106,0.16800498962402344,0.17673403024673462,0.185463085770607,0.19419214129447937,0.20292118191719055,0.21165023744106293,0.2203792929649353,0.22910834848880768,0.23783738911151886,0.24656644463539124,0.2552954852581024,0.264024555683136,0.27275359630584717],"_type":"histogram"},"val_accuracy":0.6048850574712644,"gradients/gru.weight_hh_l0":{"bins":[-0.018791373819112778,-0.01825590245425701,-0.017720431089401245,-0.01718495972454548,-0.016649488359689713,-0.016114016994833946,-0.015578544698655605,-0.015043073333799839,-0.014507601968944073,-0.013972130604088306,-0.01343665923923254,-0.012901187874376774,-0.012365715578198433,-0.011830244213342667,-0.0112947728484869,-0.010759301483631134,-0.010223830118775368,-0.009688358753919601,-0.009152887389063835,-0.008617416024208069,-0.008081944659352303,-0.007546472828835249,-0.007011000998318195,-0.006475529633462429,-0.005940058268606663,-0.0054045869037508965,-0.00486911553889513,-0.0043336437083780766,-0.0037981723435223103,-0.003262700978666544,-0.002727229380980134,-0.002191757783293724,-0.0016562854871153831,-0.001120814005844295,-0.0005853425245732069,-4.987104330211878e-05,0.00048560043796896935,0.0010210719192400575,0.0015565434005111456,0.0020920149981975555,0.002627486363053322,0.003162957727909088,0.003698429325595498,0.004233900923281908,0.004769372288137674,0.005304843652993441,0.005840315483510494,0.0063757868483662605,0.006911258213222027,0.007446729578077793,0.00798220094293356,0.008517672307789326,0.009053144603967667,0.009588615968823433,0.0101240873336792,0.010659558698534966,0.011195030063390732,0.011730501428246498,0.012265972793102264,0.01280144415795803,0.013336915522813797,0.013872387818992138,0.014407859183847904,0.01494333054870367,0.015478801913559437],"_type":"histogram","values":[1,0,0,1,0,0,0,0,1,1,0,1,0,1,2,3,0,3,3,5,9,12,17,21,18,36,58,69,108,132,148,236,329,645,3213,5050,847,359,247,188,142,99,60,52,50,37,14,17,16,5,6,5,7,5,1,2,1,1,0,1,0,1,1,1]},"gradients/head.4.bias":{"_type":"histogram","values":[1,0,0,0,0,0,0,0,0,0,0,0,0,0,0,0,0,0,0,0,0,0,0,0,0,0,1,0,0,0,0,0,1,0,1,0,0,0,1,0,0,0,0,0,0,0,0,0,0,0,0,0,0,0,0,0,0,0,0,0,0,0,0,1],"bins":[-0.03425886109471321,-0.03321005403995514,-0.03216124698519707,-0.031112438067793846,-0.030063631013035774,-0.029014822095632553,-0.02796601504087448,-0.02691720798611641,-0.025868400931358337,-0.024819592013955116,-0.023770784959197044,-0.022721977904438972,-0.02167316898703575,-0.02062436193227768,-0.019575554877519608,-0.018526745960116386,-0.017477938905358315,-0.016429131850600243,-0.015380323864519596,-0.01433151587843895,-0.013282708823680878,-0.012233900837600231,-0.011185092851519585,-0.010136285796761513,-0.009087477810680866,-0.00803866982460022,-0.006989862769842148,-0.005941054783761501,-0.004892247263342142,-0.003843439742922783,-0.00279463198967278,-0.001745824352838099,-0.000697016716003418,0.00035179092083126307,0.001400598557665944,0.002449406310915947,0.003498213831335306,0.004547021351754665,0.005595829337835312,0.006644636858254671,0.00769344437867403,0.008742252364754677,0.009791059419512749,0.010839867405593395,0.011888675391674042,0.012937482446432114,0.01398629043251276,0.015035097487270832,0.01608390547335148,0.01713271252810955,0.01818152144551277,0.019230328500270844,0.020279135555028915,0.021327944472432137,0.02237675152719021,0.02342555858194828,0.0244743674993515,0.025523174554109573,0.026571981608867645,0.027620788663625717,0.02866959758102894,0.02971840463578701,0.030767211690545082,0.0318160206079483,0.032864827662706375]},"gradients/in_norm.bias":{"values":[1,0,0,0,0,0,0,0,0,0,0,0,0,0,0,0,0,0,0,0,0,0,0,0,0,0,0,0,0,0,1,0,0,0,0,0,0,0,0,1,1,0,0,1,0,0,0,0,0,0,0,0,0,0,0,0,0,0,0,0,0,0,0,1],"bins":[-0.13367849588394165,-0.13032306730747223,-0.126967653632164,-0.12361222505569458,-0.12025679647922516,-0.11690137535333633,-0.11354595422744751,-0.11019052565097809,-0.10683510452508926,-0.10347968339920044,-0.10012425482273102,-0.0967688336968422,-0.09341341257095337,-0.09005798399448395,-0.08670256286859512,-0.0833471342921257,-0.07999171316623688,-0.07663629204034805,-0.07328086346387863,-0.06992544233798981,-0.06657001376152039,-0.06321459263563156,-0.05985917150974274,-0.056503746658563614,-0.05314832180738449,-0.04979289695620537,-0.046437472105026245,-0.04308205097913742,-0.0397266261279583,-0.036371201276779175,-0.03301578015089035,-0.029660355299711227,-0.026304930448532104,-0.02294950559735298,-0.019594082608819008,-0.016238659620285034,-0.012883234769105911,-0.009527810849249363,-0.006172386929392815,-0.0028169630095362663,0.000538460910320282,0.0038938848301768303,0.007249308750033379,0.010604732669889927,0.013960156589746475,0.017315581440925598,0.020671004429459572,0.024026427417993546,0.02738185226917267,0.03073727712035179,0.034092701971530914,0.03744812309741974,0.04080354794859886,0.044158972799777985,0.04751439392566681,0.05086981877684593,0.054225243628025055,0.05758066847920418,0.0609360933303833,0.06429151445627213,0.06764693558216095,0.07100236415863037,0.0743577852845192,0.07771321386098862,0.08106863498687744],"_type":"histogram"},"train_loss":1.015086789925893,"_runtime":112.358991945,"gradients/gru.weight_ih_l0_reverse":{"bins":[-0.0884118378162384,-0.0857987329363823,-0.08318563550710678,-0.08057253062725067,-0.07795943319797516,-0.07534632831811905,-0.07273323088884354,-0.07012012600898743,-0.06750702857971191,-0.0648939236998558,-0.06228082254528999,-0.05966772139072418,-0.05705462023615837,-0.05444151908159256,-0.05182841792702675,-0.04921531677246094,-0.046602215617895126,-0.043989114463329315,-0.041376013308763504,-0.03876291215419769,-0.03614981099963188,-0.03353670984506607,-0.03092360682785511,-0.0283105056732893,-0.025697404518723488,-0.023084303364157677,-0.020471202209591866,-0.017858101055026054,-0.015244998969137669,-0.012631897814571857,-0.010018795728683472,-0.0074056945741176605,-0.004792593419551849,-0.0021794920321553946,0.00043360935524106026,0.003046710742637515,0.00565981213003397,0.008272913284599781,0.010886015370488167,0.013499116525053978,0.01611221767961979,0.0187253188341856,0.02133841998875141,0.023951521143317223,0.026564624160528183,0.029177725315093994,0.031790826469659805,0.034403927624225616,0.03701702877879143,0.03963012993335724,0.04224323108792305,0.04485633224248886,0.04746943339705467,0.05008253455162048,0.052695635706186295,0.055308736860752106,0.057921841740608215,0.060534942895174026,0.06314804404973984,0.06576114147901535,0.06837424635887146,0.07098734378814697,0.07360044866800308,0.0762135460972786,0.0788266509771347],"_type":"histogram","values":[1,0,1,0,0,0,0,0,0,0,0,2,1,3,3,2,0,5,4,1,5,5,5,4,3,4,5,16,13,19,15,41,78,476,236,47,34,23,17,10,10,12,10,8,4,3,7,2,5,1,1,1,2,2,0,1,0,1,1,0,1,0,0,1]},"_step":197,"gradients/gru.bias_ih_l0":{"_type":"histogram","values":[3,0,0,0,1,0,1,0,0,0,1,1,0,2,1,2,2,2,1,2,2,2,3,1,2,19,102,11,3,2,2,1,4,1,1,1,0,1,3,2,1,1,0,0,1,0,2,0,0,0,1,1,1,0,0,0,0,0,0,0,0,0,0,2],"bins":[-0.05281810835003853,-0.05081324279308319,-0.048808373510837555,-0.04680350795388222,-0.04479863867163658,-0.042793773114681244,-0.04078890383243561,-0.03878403827548027,-0.03677917271852493,-0.0347743034362793,-0.03276943787932396,-0.030764568597078323,-0.028759703040122986,-0.0267548356205225,-0.024749968200922012,-0.022745100781321526,-0.02074023336172104,-0.018735365942120552,-0.016730498522520065,-0.014725632034242153,-0.012720764614641666,-0.01071589719504118,-0.008711030706763268,-0.006706163287162781,-0.004701295867562294,-0.002696428680792451,-0.0006915614940226078,0.0013133056927472353,0.0033181728795170784,0.005323040299117565,0.007327907253056765,0.009332774206995964,0.01133764535188675,0.013342512771487236,0.015347380191087723,0.01735224761068821,0.019357115030288696,0.021361980587244034,0.02336684800684452,0.025371715426445007,0.027376582846045494,0.02938145026564598,0.03138631582260132,0.033391185104846954,0.03539605066180229,0.03740091994404793,0.039405785501003265,0.0414106547832489,0.04341552034020424,0.045420385897159576,0.04742525517940521,0.04943012073636055,0.051434990018606186,0.05343985557556152,0.05544472485780716,0.0574495904147625,0.059454455971717834,0.06145932525396347,0.0634641945362091,0.06546905636787415,0.06747392565011978,0.06947879493236542,0.07148366421461105,0.07348852604627609,0.07549339532852173]},"parameters/head.4.weight":{"values":[2,0,0,0,1,1,3,1,4,6,8,12,9,13,12,7,13,17,23,12,18,21,13,11,13,18,12,11,19,12,18,10,16,8,19,17,17,15,24,11,11,16,15,14,24,24,16,19,18,17,20,11,19,17,22,17,12,9,8,7,1,2,1,1],"bins":[-0.41268759965896606,-0.40087100863456726,-0.38905441761016846,-0.37723782658576965,-0.36542123556137085,-0.35360464453697205,-0.34178808331489563,-0.3299714922904968,-0.318154901266098,-0.3063383102416992,-0.2945217192173004,-0.2827051281929016,-0.2708885371685028,-0.259071946144104,-0.2472553700208664,-0.2354387789964676,-0.2236221879720688,-0.21180559694766998,-0.19998900592327118,-0.18817242980003357,-0.17635583877563477,-0.16453924775123596,-0.15272265672683716,-0.14090606570243835,-0.12908947467803955,-0.11727289110422134,-0.10545630753040314,-0.09363971650600433,-0.08182312548160553,-0.07000654190778732,-0.05818995088338852,-0.046373363584280014,-0.03455677628517151,-0.022740188986063004,-0.010923599824309349,0.0008929884061217308,0.01270957663655281,0.024526163935661316,0.03634275496006012,0.048159342259168625,0.05997592955827713,0.07179252058267593,0.08360910415649414,0.09542569518089294,0.10724228620529175,0.11905886977910995,0.13087545335292816,0.14269204437732697,0.15450863540172577,0.16632522642612457,0.17814181745052338,0.189958393573761,0.2017749845981598,0.2135915756225586,0.2254081666469574,0.2372247576713562,0.249041348695755,0.2608579397201538,0.2726745307445526,0.28449109196662903,0.29630768299102783,0.30812427401542664,0.31994086503982544,0.33175745606422424,0.34357404708862305],"_type":"histogram"},"_wandb":{"runtime":112},"parameters/gru.weight_hh_l1":{"values":[4,2,2,1,5,5,6,14,14,19,24,24,28,60,80,79,98,124,164,202,222,269,306,357,419,413,449,520,553,561,574,568,573,586,574,498,467,479,438,384,324,328,282,248,176,161,143,108,90,71,51,28,30,28,11,14,9,9,4,2,4,0,0,2],"bins":[-0.315071702003479,-0.3050946891307831,-0.29511764645576477,-0.28514063358306885,-0.2751636207103729,-0.2651865780353546,-0.2552095651626587,-0.24523255228996277,-0.23525552451610565,-0.22527849674224854,-0.2153014838695526,-0.2053244560956955,-0.19534742832183838,-0.18537041544914246,-0.17539338767528534,-0.16541637480258942,-0.1554393470287323,-0.14546231925487518,-0.13548530638217926,-0.12550827860832214,-0.11553125828504562,-0.1055542379617691,-0.09557721018791199,-0.08560018986463547,-0.07562316954135895,-0.06564614921808243,-0.05566912516951561,-0.04569210112094879,-0.03571508079767227,-0.025738058611750603,-0.015761036425828934,-0.005784014239907265,0.004193037748336792,0.014170059934258461,0.02414708212018013,0.03412410616874695,0.04410112649202347,0.05407814681529999,0.0640551745891571,0.07403219491243362,0.08400921523571014,0.09398623555898666,0.10396325588226318,0.1139402836561203,0.12391730397939682,0.13389432430267334,0.14387135207653046,0.15384836494922638,0.1638253927230835,0.1738024204969406,0.18377943336963654,0.19375646114349365,0.20373347401618958,0.2137105017900467,0.2236875295639038,0.23366454243659973,0.24364157021045685,0.25361859798431396,0.2635956108570099,0.2735726237297058,0.2835496664047241,0.29352667927742004,0.30350369215011597,0.3134807348251343,0.3234577476978302],"_type":"histogram"},"parameters/gru.weight_ih_l0_reverse":{"values":[3,4,4,7,7,13,22,16,24,20,21,22,16,19,24,23,23,21,19,22,16,22,18,12,12,19,28,24,29,19,28,22,17,19,18,22,18,19,24,26,18,15,26,19,22,16,21,19,17,23,14,18,23,25,22,26,21,15,17,11,7,7,6,2],"bins":[-0.2936685383319855,-0.2846904397010803,-0.27571234107017517,-0.26673424243927,-0.2577561140060425,-0.24877803027629852,-0.23979991674423218,-0.23082181811332703,-0.22184371948242188,-0.21286562085151672,-0.20388752222061157,-0.19490940868854523,-0.18593131005764008,-0.17695321142673492,-0.16797509789466858,-0.15899699926376343,-0.15001890063285828,-0.14104080200195312,-0.13206270337104797,-0.12308458983898163,-0.11410649120807648,-0.10512839257717133,-0.09615028649568558,-0.08717218041419983,-0.07819408178329468,-0.06921598315238953,-0.06023787707090378,-0.05125977471470833,-0.04228167235851288,-0.03330357000231743,-0.02432546764612198,-0.015347365289926529,-0.006369262933731079,0.0026088394224643707,0.01158694177865982,0.02056504413485527,0.02954314649105072,0.03852124884724617,0.04749935120344162,0.05647745355963707,0.06545555591583252,0.07443365454673767,0.08341176062822342,0.09238986670970917,0.10136796534061432,0.11034606397151947,0.11932417005300522,0.12830227613449097,0.13728037476539612,0.14625847339630127,0.15523657202720642,0.16421468555927277,0.17319278419017792,0.18217088282108307,0.19114899635314941,0.20012709498405457,0.20910519361495972,0.21808329224586487,0.22706139087677002,0.23603950440883636,0.24501760303974152,0.25399571657180786,0.262973815202713,0.27195191383361816,0.2809300124645233],"_type":"histogram"},"parameters/head.4.bias":{"values":[1,0,0,1,0,0,0,0,0,0,0,0,0,0,0,0,0,0,0,0,0,0,0,0,0,0,0,0,0,0,0,0,1,0,0,0,0,0,0,0,0,0,0,0,0,0,0,0,0,0,0,0,0,0,1,0,0,0,0,0,1,0,0,1],"bins":[-0.0699073001742363,-0.06838349997997284,-0.06685970723628998,-0.06533590704202652,-0.06381210684776306,-0.0622883066534996,-0.060764510184526443,-0.059240713715553284,-0.057716913521289825,-0.05619311332702637,-0.05466931685805321,-0.05314552038908005,-0.05162172019481659,-0.05009792000055313,-0.04857412353157997,-0.04705032706260681,-0.04552652686834335,-0.044002726674079895,-0.042478930205106735,-0.040955133736133575,-0.03943133354187012,-0.03790753334760666,-0.0363837368786335,-0.03485994040966034,-0.03333614021539688,-0.03181234002113342,-0.030288543552160263,-0.028764745220541954,-0.027240946888923645,-0.025717148557305336,-0.024193350225687027,-0.022669551894068718,-0.02114575169980526,-0.01962195336818695,-0.01809815503656864,-0.016574356704950333,-0.015050558373332024,-0.013526760041713715,-0.012002961710095406,-0.010479163378477097,-0.008955365046858788,-0.0074315667152404785,-0.0059077683836221695,-0.0043839700520038605,-0.0028601717203855515,-0.0013363733887672424,0.0001874249428510666,0.0017112232744693756,0.0032350216060876846,0.004758819937705994,0.006282618269324303,0.007806416600942612,0.00933021493256092,0.01085401326417923,0.012377811595797539,0.013901609927415848,0.015425408259034157,0.016949206590652466,0.018473004922270775,0.019996803253889084,0.021520601585507393,0.023044399917125702,0.02456819824874401,0.02609199658036232,0.02761579491198063],"_type":"histogram"},"parameters/gru.bias_hh_l1":{"bins":[-0.05029139295220375,-0.04573911428451538,-0.04118683934211731,-0.03663456067442894,-0.03208228200674057,-0.0275300070643425,-0.02297772839665413,-0.01842545159161091,-0.013873174786567688,-0.009320897981524467,-0.004768620245158672,-0.0002163429744541645,0.004335934296250343,0.008888211101293564,0.013440488837659359,0.017992766574025154,0.022545043379068375,0.027097320184111595,0.031649596989154816,0.036201875656843185,0.040754154324531555,0.045306429266929626,0.049858707934617996,0.05441098287701607,0.05896326154470444,0.06351553648710251,0.06806781888008118,0.07262009382247925,0.07717236876487732,0.08172465115785599,0.08627692610025406,0.09082920104265213,0.0953814834356308,0.09993375837802887,0.10448604077100754,0.10903831571340561,0.11359059065580368,0.11814287304878235,0.12269514799118042,0.1272474229335785,0.13179969787597656,0.13635197281837463,0.1409042626619339,0.14545653760433197,0.15000881254673004,0.1545610874891281,0.15911336243152618,0.16366563737392426,0.16821792721748352,0.1727702021598816,0.17732247710227966,0.18187475204467773,0.1864270269870758,0.19097930192947388,0.19553157687187195,0.2000838667154312,0.20463614165782928,0.20918841660022736,0.21374069154262543,0.2182929664850235,0.22284524142742157,0.22739753127098083,0.2319498062133789,0.23650208115577698,0.24105435609817505],"_type":"histogram","values":[1,2,1,3,3,2,1,2,4,3,5,10,12,7,10,5,6,15,9,9,3,5,7,6,8,0,1,5,2,5,6,6,3,1,4,0,5,3,3,2,1,0,2,0,1,0,0,1,0,0,1,0,0,0,0,0,0,0,0,0,0,0,0,1]},"parameters/gru.bias_hh_l1_reverse":{"values":[8,1,3,2,8,2,9,8,9,5,9,8,7,8,7,6,8,7,9,7,5,4,6,5,2,1,3,0,8,1,4,2,3,2,0,2,4,1,0,1,0,2,1,0,0,1,0,1,0,0,0,1,0,0,0,0,0,0,0,0,0,0,0,1],"bins":[-0.024228712543845177,-0.020731156691908836,-0.017233598977327347,-0.013736043125391006,-0.010238486342132092,-0.006740929558873177,-0.003243373241275549,0.00025418330915272236,0.0037517398595809937,0.007249296642839909,0.010746853426098824,0.014244409278035164,0.017741966992616653,0.021239522844552994,0.024737078696489334,0.028234636411070824,0.03173219412565231,0.035229749977588654,0.038727305829524994,0.042224861681461334,0.045722417533397675,0.049219973385334015,0.052717532962560654,0.056215088814496994,0.059712644666433334,0.06321020424365997,0.06670776009559631,0.07020531594753265,0.073702871799469,0.07720042765140533,0.08069798350334167,0.08419553935527802,0.08769310265779495,0.09119065850973129,0.09468821436166763,0.09818577021360397,0.10168332606554031,0.10518088191747665,0.10867844521999359,0.11217600107192993,0.11567355692386627,0.11917111277580261,0.12266866862773895,0.1261662244796753,0.12966378033161163,0.13316133618354797,0.13665889203548431,0.14015644788742065,0.143654003739357,0.14715155959129333,0.15064911544322968,0.15414667129516602,0.15764422714710236,0.1611417829990387,0.16463935375213623,0.16813690960407257,0.1716344654560089,0.17513202130794525,0.1786295771598816,0.18212713301181793,0.18562468886375427,0.1891222447156906,0.19261980056762695,0.1961173564195633,0.19961491227149963],"_type":"histogram"},"parameters/gru.weight_ih_l0":{"bins":[-0.28979939222335815,-0.28064098954200745,-0.27148258686065674,-0.26232418417930603,-0.2531657814979553,-0.24400736391544342,-0.23484894633293152,-0.2256905436515808,-0.2165321409702301,-0.2073737382888794,-0.1982153356075287,-0.18905691802501678,-0.17989851534366608,-0.17074011266231537,-0.16158169507980347,-0.15242329239845276,-0.14326488971710205,-0.13410648703575134,-0.12494807690382004,-0.11578966677188873,-0.10663126409053802,-0.09747286140918732,-0.08831445127725601,-0.07915604114532471,-0.069997638463974,-0.06083923205733299,-0.051680825650691986,-0.04252241924405098,-0.03336401283740997,-0.024205606430768967,-0.01504720002412796,-0.005888793617486954,0.0032696425914764404,0.012428048998117447,0.021586455404758453,0.03074486181139946,0.039903268218040466,0.04906167462468147,0.05822008103132248,0.06737849116325378,0.07653689384460449,0.0856952965259552,0.0948537066578865,0.10401211678981781,0.11317051947116852,0.12232892215251923,0.13148733973503113,0.14064574241638184,0.14980414509773254,0.15896254777908325,0.16812095046043396,0.17727936804294586,0.18643777072429657,0.19559617340564728,0.20475459098815918,0.2139129936695099,0.2230713963508606,0.2322297990322113,0.241388201713562,0.2505466043949127,0.2597050070762634,0.2688634395599365,0.27802184224128723,0.28718024492263794,0.29633864760398865],"_type":"histogram","values":[4,3,4,9,10,16,19,17,16,20,22,21,18,23,21,16,15,27,19,22,29,22,15,24,22,30,25,19,21,22,22,23,28,17,25,21,20,29,22,14,21,22,16,19,19,24,24,13,22,16,18,32,22,23,14,18,17,14,10,5,5,0,4,2]},"_timestamp":1.7617153404067054e+09,"parameters/gru.weight_ih_l1_reverse":{"_type":"histogram","values":[2,1,6,7,11,27,42,62,96,151,244,353,453,528,542,551,575,578,607,626,569,587,639,609,591,590,570,577,577,574,615,582,576,576,587,573,597,569,587,560,557,580,594,556,638,577,573,569,531,556,483,373,298,189,133,83,40,30,21,8,9,3,3,5],"bins":[-0.29618194699287415,-0.28690314292907715,-0.27762433886528015,-0.26834553480148315,-0.25906670093536377,-0.24978791177272797,-0.24050909280776978,-0.23123028874397278,-0.22195148468017578,-0.21267268061637878,-0.2033938765525818,-0.1941150575876236,-0.1848362535238266,-0.1755574494600296,-0.1662786304950714,-0.15699982643127441,-0.14772102236747742,-0.13844221830368042,-0.12916341423988342,-0.11988459527492523,-0.11060579121112823,-0.10132698714733124,-0.09204817563295364,-0.08276936411857605,-0.07349056005477905,-0.06421175599098206,-0.05493294447660446,-0.045654136687517166,-0.03637532889842987,-0.027096521109342575,-0.01781771332025528,-0.008538905531167984,0.0007399320602416992,0.010018739849328995,0.01929754763841629,0.028576355427503586,0.03785516321659088,0.04713397100567818,0.05641277879476547,0.06569159030914307,0.07497039437294006,0.08424919843673706,0.09352800995111465,0.10280682146549225,0.11208562552928925,0.12136442959308624,0.13064324855804443,0.13992205262184143,0.14920085668563843,0.15847966074943542,0.16775846481323242,0.1770372837781906,0.1863160878419876,0.1955948919057846,0.2048737108707428,0.2141525149345398,0.2234313189983368,0.2327101230621338,0.2419889271259308,0.2512677311897278,0.26054656505584717,0.26982536911964417,0.27910417318344116,0.28838297724723816,0.29766178131103516]},"parameters/gru.bias_ih_l1_reverse":{"bins":[-0.03159075975418091,-0.027978170663118362,-0.024365581572055817,-0.02075299434363842,-0.017140405252575874,-0.013527816161513329,-0.009915228001773357,-0.006302639376372099,-0.0026900507509708405,0.000922537874430418,0.0045351264998316765,0.008147714659571648,0.011760303750634193,0.01537289284169674,0.018985480070114136,0.02259806916117668,0.026210658252239227,0.029823247343301773,0.03343583643436432,0.037048425525426865,0.04066101461648941,0.04427359998226166,0.047886189073324203,0.05149877816438675,0.055111367255449295,0.05872395634651184,0.06233654543757439,0.06594913452863693,0.06956171989440918,0.07317431271076202,0.07678689807653427,0.08039949089288712,0.08401207625865936,0.08762466162443161,0.09123725444078445,0.0948498398065567,0.09846243262290955,0.1020750179886818,0.10568761080503464,0.10930019617080688,0.11291278898715973,0.11652537435293198,0.12013795971870422,0.12375055253505707,0.1273631453514099,0.13097572326660156,0.1345883160829544,0.13820090889930725,0.1418134868144989,0.14542607963085175,0.1490386724472046,0.15265126526355743,0.15626384317874908,0.15987643599510193,0.16348902881145477,0.16710162162780762,0.17071419954299927,0.1743267923593521,0.17793938517570496,0.1815519630908966,0.18516455590724945,0.1887771487236023,0.19238974153995514,0.1960023194551468,0.19961491227149963],"_type":"histogram","values":[1,1,4,2,4,3,4,5,14,8,5,5,10,8,10,9,7,2,9,10,6,6,4,5,6,4,2,2,1,7,2,4,2,3,2,0,2,4,1,0,1,0,3,0,0,0,1,1,0,0,0,1,0,0,0,0,0,0,0,0,0,0,0,1]},"parameters/gru.bias_hh_l0_reverse":{"bins":[-0.0672125369310379,-0.064669668674469,-0.06212679296731949,-0.05958392098546028,-0.057041049003601074,-0.054498180747032166,-0.05195530876517296,-0.04941243678331375,-0.046869564801454544,-0.04432669281959534,-0.04178382083773613,-0.03924094885587692,-0.036698080599308014,-0.03415520861744881,-0.0316123366355896,-0.029069464653730392,-0.026526592671871185,-0.023983720690011978,-0.02144084870815277,-0.018897978588938713,-0.016355106607079506,-0.013812234625220299,-0.011269363574683666,-0.008726492524147034,-0.0061836205422878265,-0.0036407490260899067,-0.0010978775098919868,0.001444994006305933,0.003987865522503853,0.006530737038701773,0.009073608554899693,0.011616479605436325,0.014159351587295532,0.01670222356915474,0.019245095551013947,0.021787965670228004,0.02433083765208721,0.02687370963394642,0.029416579753160477,0.031959451735019684,0.03450232371687889,0.0370451956987381,0.039588067680597305,0.04213093966245651,0.04467380791902542,0.04721667990088463,0.049759551882743835,0.05230242386460304,0.05484529584646225,0.05738816782832146,0.059931039810180664,0.06247391179203987,0.06501678377389908,0.06755965203046799,0.07010252773761749,0.0726453959941864,0.07518826425075531,0.07773113995790482,0.08027400821447372,0.08281688392162323,0.08535975217819214,0.08790262788534164,0.09044549614191055,0.09298837184906006,0.09553124010562897],"_type":"histogram","values":[1,0,0,1,0,0,1,2,1,0,2,0,1,1,0,4,4,5,3,8,5,6,7,2,10,3,12,10,15,7,11,4,8,8,3,5,5,4,4,3,2,5,3,2,1,2,1,4,2,0,3,0,0,0,0,0,0,0,0,0,0,0,0,1]},"parameters/gru.bias_ih_l0_reverse":{"values":[1,0,0,0,1,0,2,1,1,0,1,1,1,1,0,4,4,4,3,8,4,10,6,2,9,3,12,10,15,8,10,4,10,6,3,4,8,2,4,3,2,5,3,2,1,2,1,4,2,0,3,0,0,0,0,0,0,0,0,0,0,0,0,1],"bins":[-0.0672125369310379,-0.064669668674469,-0.06212679296731949,-0.05958392098546028,-0.057041049003601074,-0.054498180747032166,-0.05195530876517296,-0.04941243678331375,-0.046869564801454544,-0.04432669281959534,-0.04178382083773613,-0.03924094885587692,-0.036698080599308014,-0.03415520861744881,-0.0316123366355896,-0.029069464653730392,-0.026526592671871185,-0.023983720690011978,-0.02144084870815277,-0.018897978588938713,-0.016355106607079506,-0.013812234625220299,-0.011269363574683666,-0.008726492524147034,-0.0061836205422878265,-0.0036407490260899067,-0.0010978775098919868,0.001444994006305933,0.003987865522503853,0.006530737038701773,0.009073608554899693,0.011616479605436325,0.014159351587295532,0.01670222356915474,0.019245095551013947,0.021787965670228004,0.02433083765208721,0.02687370963394642,0.029416579753160477,0.031959451735019684,0.03450232371687889,0.0370451956987381,0.039588067680597305,0.04213093966245651,0.04467380791902542,0.04721667990088463,0.049759551882743835,0.05230242386460304,0.05484529584646225,0.05738816782832146,0.059931039810180664,0.06247391179203987,0.06501678377389908,0.06755965203046799,0.07010252773761749,0.0726453959941864,0.07518826425075531,0.07773113995790482,0.08027400821447372,0.08281688392162323,0.08535975217819214,0.08790262788534164,0.09044549614191055,0.09298837184906006,0.09553124010562897],"_type":"histogram"},"gradients/gru.weight_ih_l0":{"bins":[-0.058849599212408066,-0.05725489556789398,-0.0556601919233799,-0.054065484553575516,-0.05247078090906143,-0.05087607726454735,-0.049281373620033264,-0.04768666625022888,-0.0460919626057148,-0.044497258961200714,-0.04290255531668663,-0.041307851672172546,-0.039713144302368164,-0.03811844065785408,-0.036523737013339996,-0.03492903336882591,-0.03333432972431183,-0.031739622354507446,-0.030144918709993362,-0.02855021506547928,-0.026955509558320045,-0.02536080591380596,-0.02376610040664673,-0.022171396762132645,-0.02057669311761856,-0.018981987610459328,-0.017387283965945244,-0.01579257845878601,-0.014197874814271927,-0.012603170238435268,-0.01100846566259861,-0.009413761086761951,-0.007819056510925293,-0.0062243519350886345,-0.004629647359251976,-0.003034943249076605,-0.0014402386732399464,0.00015446578618139029,0.001749170245602727,0.0033438745886087418,0.0049385791644454,0.006533283740282059,0.008127988316118717,0.009722692891955376,0.01131739653646946,0.012912101112306118,0.014506805688142776,0.01610151119530201,0.017696214839816093,0.019290918484330177,0.02088562399148941,0.022480327636003494,0.024075033143162727,0.02566973678767681,0.027264442294836044,0.028859145939350128,0.030453849583864212,0.032048553228378296,0.03364326059818268,0.03523796424269676,0.036832667887210846,0.03842737153172493,0.04002207890152931,0.041616782546043396,0.04321148619055748],"_type":"histogram","values":[1,1,0,0,0,0,0,0,1,1,1,1,0,0,1,1,2,1,0,2,5,1,6,5,6,5,8,6,10,6,17,15,20,24,44,71,371,252,74,40,23,21,16,11,12,18,14,9,7,2,4,1,1,3,4,0,0,0,0,1,2,1,2,1]},"parameters/gru.weight_hh_l0":{"values":[1,0,0,1,3,5,8,11,17,22,20,35,49,67,83,87,135,163,210,258,266,322,405,411,493,493,580,608,582,623,642,627,630,577,529,518,473,386,334,321,282,205,175,134,111,102,83,51,46,34,26,11,15,6,7,2,0,0,1,1,0,0,0,1],"bins":[-0.29986199736595154,-0.2900031805038452,-0.2801443934440613,-0.27028557658195496,-0.260426789522171,-0.2505679726600647,-0.24070918560028076,-0.23085038363933563,-0.2209915816783905,-0.21113276481628418,-0.20127396285533905,-0.19141516089439392,-0.1815563589334488,-0.17169755697250366,-0.16183875501155853,-0.1519799530506134,-0.14212115108966827,-0.13226234912872314,-0.12240354716777802,-0.11254474520683289,-0.10268594324588776,-0.09282713383436203,-0.0829683318734169,-0.07310952991247177,-0.06325072795152664,-0.05339192599058151,-0.04353312402963638,-0.033674318343400955,-0.023815516382455826,-0.013956713490188122,-0.004097910597920418,0.005760892294347286,0.01561969518661499,0.02547849714756012,0.03533729910850525,0.04519610479474068,0.055054906755685806,0.06491371244192123,0.07477251440286636,0.08463131636381149,0.09449011832475662,0.10434892028570175,0.11420772224664688,0.12406652420759201,0.13392533361911774,0.14378413558006287,0.153642937541008,0.16350173950195312,0.17336054146289825,0.18321934342384338,0.1930781453847885,0.20293694734573364,0.21279574930667877,0.2226545512676239,0.23251335322856903,0.24237215518951416,0.2522309720516205,0.2620897591114044,0.27194857597351074,0.2818073630332947,0.291666179895401,0.30152496695518494,0.31138378381729126,0.3212425708770752,0.3311013877391815],"_type":"histogram"},"val_loss":1.0281356076399486,"gradients/gru.bias_hh_l1_reverse":{"bins":[-0.017539244145154953,-0.01701020449399948,-0.01648116484284401,-0.015952125191688538,-0.015423084609210491,-0.014894044026732445,-0.014365004375576973,-0.013835964724421501,-0.01330692507326603,-0.012777884490787983,-0.012248844839632511,-0.01171980518847704,-0.011190764605998993,-0.010661724954843521,-0.01013268530368805,-0.009603644721210003,-0.009074605070054531,-0.00854556541889906,-0.008016524836421013,-0.007487485185265541,-0.006958445534110069,-0.00642940541729331,-0.005900365300476551,-0.005371325649321079,-0.00484228553250432,-0.004313245415687561,-0.0037842057645320892,-0.00325516564771533,-0.0027261257637292147,-0.002197085879743099,-0.001668045879341662,-0.0011390058789402246,-0.0006099659949541092,-8.092605276033282e-05,0.00044811388943344355,0.0009771538898348808,0.0015061937738209963,0.0020352336578071117,0.002564273774623871,0.0030933136586099863,0.0036223535425961018,0.004151393659412861,0.004680433310568333,0.005209473427385092,0.005738513544201851,0.006267553195357323,0.006796593312174082,0.007325632963329554,0.007854673080146313,0.008383712731301785,0.008912753313779831,0.009441792964935303,0.009970832616090775,0.010499873198568821,0.011028912849724293,0.011557952500879765,0.012086993083357811,0.012616032734513283,0.013145072385668755,0.013674112036824226,0.014203152619302273,0.014732192270457745,0.015261231921613216,0.015790272504091263,0.016319312155246735],"_type":"histogram","values":[1,0,1,0,0,1,0,0,0,1,1,1,1,0,1,2,1,2,0,0,3,4,3,1,2,5,1,3,4,8,10,14,36,46,11,3,3,6,2,1,1,0,2,0,1,2,0,1,0,0,1,0,0,0,2,0,1,0,0,0,0,0,1,1]},"gradients/head.1.bias":{"_type":"histogram","values":[1,0,0,0,0,0,0,1,0,0,0,1,4,0,1,1,1,0,2,3,4,4,4,2,7,5,1,1,5,5,3,1,6,9,5,3,7,1,6,4,3,2,1,4,1,4,1,0,1,0,2,2,1,1,1,1,2,0,0,0,2,0,0,1],"bins":[-0.008404573425650597,-0.008159064687788486,-0.007913555949926376,-0.0076680476777255535,-0.007422538939863443,-0.007177030202001333,-0.006931521464139223,-0.006686012726277113,-0.00644050445407629,-0.00619499571621418,-0.00594948697835207,-0.00570397824048996,-0.00545846950262785,-0.0052129607647657394,-0.004967452492564917,-0.0047219437547028065,-0.004476435016840696,-0.004230926278978586,-0.003985417541116476,-0.0037399090360850096,-0.003494400531053543,-0.003248891793191433,-0.003003383055329323,-0.0027578745502978563,-0.002512365812435746,-0.002266857074573636,-0.0020213485695421696,-0.0017758398316800594,-0.0015303312102332711,-0.0012848225887864828,-0.0010393138509243727,-0.0007938052294775844,-0.0005482970736920834,-0.0003027884231414646,-5.727977259084582e-05,0.00018822887795977294,0.0004337375285103917,0.00067924614995718,0.0009247548296116292,0.0011702635092660785,0.0014157721307128668,0.001661280752159655,0.0019067893736064434,0.0021522981114685535,0.0023978068493306637,0.00264331535436213,0.0028888240922242403,0.003134332597255707,0.003379841335117817,0.003625350072979927,0.0038708585780113935,0.00411636708304286,0.00436187582090497,0.00460738455876708,0.0048528932966291904,0.005098402034491301,0.005343910306692123,0.0055894190445542336,0.005834927782416344,0.006080436520278454,0.006325945258140564,0.006571453996002674,0.006816962268203497,0.007062471006065607,0.007307979743927717]},"gradients/gru.bias_ih_l1":{"values":[2,1,0,0,0,1,2,1,1,0,1,1,1,0,0,4,1,2,2,0,2,3,3,2,2,2,5,24,79,19,8,1,2,1,2,0,0,2,2,3,1,1,1,0,0,0,2,1,1,1,0,0,0,0,0,0,0,1,0,0,0,0,0,1],"bins":[-0.05015017092227936,-0.048366907984018326,-0.046583645045757294,-0.04480038210749626,-0.04301711916923523,-0.0412338562309742,-0.039450597018003464,-0.03766733407974243,-0.0358840711414814,-0.03410080820322037,-0.032317545264959335,-0.030534282326698303,-0.02875101938843727,-0.02696775645017624,-0.025184495374560356,-0.023401232436299324,-0.021617969498038292,-0.01983470655977726,-0.018051443621516228,-0.016268182545900345,-0.014484919607639313,-0.01270165666937828,-0.010918393731117249,-0.009135131724178791,-0.007351868785917759,-0.005568606313318014,-0.0037853436078876257,-0.0020020809024572372,-0.00021881842985749245,0.0015644441591575742,0.003347706748172641,0.005130969453603029,0.006914231926202774,0.008697494864463806,0.010480756871402264,0.012264019809663296,0.014047281816601753,0.015830544754862785,0.017613807693123817,0.01939707063138485,0.021180331707000732,0.022963594645261765,0.024746857583522797,0.02653012052178383,0.02831338346004486,0.030096646398305893,0.031879909336566925,0.03366317227482796,0.03544643521308899,0.03722969442605972,0.039012957364320755,0.04079622030258179,0.04257948324084282,0.04436274617910385,0.04614600911736488,0.047929272055625916,0.04971253499388695,0.05149579793214798,0.05327906087040901,0.055062320083379745,0.05684558302164078,0.05862884595990181,0.06041210889816284,0.062195371836423874,0.0639786347746849],"_type":"histogram"},"gradients/gru.weight_ih_l1_reverse":{"_type":"histogram","values":[1,1,1,3,5,9,6,10,17,17,15,26,32,19,36,34,43,56,61,94,125,150,155,192,269,362,429,521,799,1709,13077,2599,890,642,459,362,273,219,181,126,94,88,66,67,35,30,27,25,29,11,20,12,14,11,5,2,5,3,1,2,3,0,0,1],"bins":[-0.012590410187840462,-0.012179459445178509,-0.011768508702516556,-0.011357558891177177,-0.010946608148515224,-0.010535657405853271,-0.010124707594513893,-0.00971375685185194,-0.009302806109189987,-0.008891855366528034,-0.008480904623866081,-0.008069954812526703,-0.00765900406986475,-0.007248053327202797,-0.006837103050202131,-0.006426152773201466,-0.006015202030539513,-0.00560425128787756,-0.005193301010876894,-0.004782350733876228,-0.004371399991214275,-0.003960449248552322,-0.0035494989715516567,-0.0031385484617203474,-0.002727597951889038,-0.0023166474420577288,-0.0019056969322264194,-0.0014947464223951101,-0.0010837959125638008,-0.0006728454027324915,-0.0002618948929011822,0.00014905561693012714,0.0005600061267614365,0.0009709566365927458,0.001381907146424055,0.0017928576562553644,0.0022038081660866737,0.002614758675917983,0.0030257091857492924,0.0034366596955806017,0.003847610205411911,0.004258560948073864,0.00466951122507453,0.005080461502075195,0.005491412244737148,0.005902362987399101,0.006313313264399767,0.006724263541400433,0.0071352142840623856,0.0075461650267243385,0.007957115769386292,0.00836806558072567,0.008779016323387623,0.009189967066049576,0.009600916877388954,0.010011867620050907,0.01042281836271286,0.010833769105374813,0.011244719848036766,0.011655669659376144,0.012066620402038097,0.01247757114470005,0.012888520956039429,0.013299471698701382,0.013710422441363335]},"parameters/gru.bias_ih_l1":{"values":[2,4,2,0,5,0,2,4,3,6,10,11,8,7,6,6,15,8,9,4,4,7,6,8,2,1,3,4,3,4,10,3,1,3,1,3,4,2,2,2,1,0,2,0,1,0,0,1,0,1,0,0,0,0,0,0,0,0,0,0,0,0,0,1],"bins":[-0.04487021639943123,-0.040402643382549286,-0.03593507409095764,-0.0314675010740757,-0.026999929919838905,-0.022532358765602112,-0.01806478574872017,-0.013597214594483376,-0.009129643440246582,-0.004662071820348501,-0.00019450020045042038,0.0042730714194476604,0.008740643039345741,0.013208214193582535,0.017675787210464478,0.02214335836470127,0.026610929518938065,0.031078500673174858,0.03554607182741165,0.040013644844293594,0.04448121786117554,0.04894878715276718,0.053416360169649124,0.05788392946124077,0.06235150247812271,0.06681907176971436,0.0712866485118866,0.07575421780347824,0.08022178709506989,0.08468936383724213,0.08915693312883377,0.09362450242042542,0.09809206426143646,0.1025596335530281,0.10702721029520035,0.11149477958679199,0.11596234887838364,0.12042992562055588,0.12489749491214752,0.12936507165431976,0.1338326334953308,0.13830021023750305,0.1427677869796753,0.14723534882068634,0.15170292556285858,0.15617050230503082,0.16063806414604187,0.1651056408882141,0.16957321763038635,0.1740407794713974,0.17850835621356964,0.1829759180545807,0.18744349479675293,0.19191107153892517,0.19637863337993622,0.20084621012210846,0.2053137868642807,0.20978134870529175,0.214248925447464,0.21871650218963623,0.22318406403064728,0.22765164077281952,0.23211921751499176,0.2365867793560028,0.24105435609817505],"_type":"histogram"},"gradients/gru.weight_hh_l1_reverse":{"bins":[-0.0119848707690835,-0.011655662208795547,-0.011326453648507595,-0.010997245088219643,-0.01066803652793169,-0.010338827967643738,-0.010009619407355785,-0.009680410847067833,-0.009351203218102455,-0.009021994657814503,-0.00869278609752655,-0.008363577537238598,-0.008034368976950645,-0.007705160416662693,-0.007375951856374741,-0.007046743296086788,-0.006717534735798836,-0.006388326175510883,-0.006059117615222931,-0.0057299090549349785,-0.005400700494647026,-0.005071492400020361,-0.0047422838397324085,-0.004413075279444456,-0.004083866719156504,-0.0037546581588685513,-0.003425449598580599,-0.00309624127112329,-0.0027670327108353376,-0.002437824150547385,-0.0021086158230900764,-0.001779407262802124,-0.001450197771191597,-0.0011209892109036446,-0.000791780767031014,-0.00046257226495072246,-0.00013336376287043095,0.00019584473920986056,0.0005250532412901521,0.0008542617433704436,0.001183470245450735,0.0015126788057386875,0.0018418872496113181,0.0021710956934839487,0.002500304253771901,0.0028295128140598536,0.0031587211415171623,0.0034879297018051147,0.003817138262093067,0.00414634682238102,0.004475555382668972,0.0048047639429569244,0.005133972503244877,0.005463180597871542,0.005792389158159494,0.006121597718447447,0.006450806278735399,0.006780014839023352,0.007109223399311304,0.0074384319595992565,0.007767640054225922,0.008096848614513874,0.008426057174801826,0.008755265735089779,0.009084474295377731],"_type":"histogram","values":[1,0,1,0,2,0,2,4,2,2,5,4,7,7,7,4,6,6,16,15,25,26,33,50,52,56,68,54,79,90,118,147,220,281,494,1404,6418,985,390,257,167,137,105,74,68,58,49,46,49,43,26,26,24,18,13,11,7,10,3,6,2,4,0,4]},"parameters/gru.weight_hh_l1_reverse":{"_type":"histogram","values":[1,0,0,0,0,0,0,0,2,1,3,2,2,8,8,12,25,36,41,50,76,87,106,167,204,256,314,346,419,490,560,625,665,670,707,704,716,687,687,588,495,426,407,370,313,245,213,154,110,80,59,51,40,22,11,9,6,1,6,3,0,0,1,1],"bins":[-0.4132424592971802,-0.4014146625995636,-0.389586865901947,-0.37775906920433044,-0.36593127250671387,-0.3541034758090973,-0.3422756791114807,-0.33044788241386414,-0.31862008571624756,-0.306792289018631,-0.2949644923210144,-0.2831366956233978,-0.27130889892578125,-0.2594811022281647,-0.2476533204317093,-0.2358255237340927,-0.22399772703647614,-0.21216993033885956,-0.20034213364124298,-0.1885143369436264,-0.17668654024600983,-0.16485874354839325,-0.15303094685077667,-0.1412031501531601,-0.1293753683567047,-0.11754756420850754,-0.10571976751089096,-0.09389197081327438,-0.0820641815662384,-0.07023638486862183,-0.05840858817100525,-0.04658079147338867,-0.034752994775772095,-0.022925198078155518,-0.01109740324318409,0.0007303925231099129,0.012558188289403915,0.024385984987020493,0.03621377795934677,0.04804157465696335,0.059869371354579926,0.0716971680521965,0.08352496474981308,0.09535276144742966,0.10718055069446564,0.11900834739208221,0.1308361440896988,0.14266394078731537,0.15449173748493195,0.16631953418254852,0.1781473308801651,0.18997512757778168,0.20180292427539825,0.21363072097301483,0.2254585176706314,0.23728631436824799,0.24911409616470337,0.26094189286231995,0.2727696895599365,0.2845974862575531,0.2964252829551697,0.30825307965278625,0.32008087635040283,0.3319086730480194,0.343736469745636]},"gradients/gru.weight_hh_l1":{"values":[2,0,0,0,1,0,2,1,0,2,4,1,3,2,1,6,13,7,12,8,20,18,24,36,31,41,62,55,81,114,132,239,379,888,7395,1296,419,246,158,122,97,54,60,47,35,34,19,23,13,13,12,7,18,6,9,3,1,5,3,1,1,3,1,2],"bins":[-0.030960557982325554,-0.030066657811403275,-0.029172755777835846,-0.028278855606913567,-0.027384953573346138,-0.02649105340242386,-0.02559715136885643,-0.02470325119793415,-0.02380935102701187,-0.022915448993444443,-0.022021548822522163,-0.021127646788954735,-0.020233746618032455,-0.019339844584465027,-0.018445944413542747,-0.01755204237997532,-0.01665814220905304,-0.01576424203813076,-0.014870340004563332,-0.013976438902318478,-0.013082537800073624,-0.012188637629151344,-0.01129473652690649,-0.010400835424661636,-0.009506934322416782,-0.008613033220171928,-0.007719132117927074,-0.006825231481343508,-0.005931330379098654,-0.0050374292768538,-0.004143528640270233,-0.003249627538025379,-0.002355726435780525,-0.001461825449950993,-0.0005679244641214609,0.00032597652170807123,0.0012198775075376034,0.0021137786097824574,0.0030076794791966677,0.003901580348610878,0.004795481450855732,0.005689382553100586,0.00658328365534544,0.007477184291929007,0.008371084928512573,0.009264986030757427,0.010158887133002281,0.011052788235247135,0.01194668933749199,0.012840590439736843,0.013734491541981697,0.014628392644226551,0.015522293746471405,0.016416193917393684,0.017310095950961113,0.018203996121883392,0.01909789815545082,0.0199917983263731,0.02088569849729538,0.021779600530862808,0.022673500701785088,0.023567402735352516,0.024461302906274796,0.025355204939842224,0.026249105110764503],"_type":"histogram"},"gradients/gru.weight_ih_l1":{"values":[2,1,1,0,0,1,1,2,4,3,4,5,6,6,8,11,6,15,19,15,33,40,46,51,76,104,130,166,227,267,390,534,854,4715,13241,1128,629,426,336,234,177,161,96,75,60,61,36,39,28,18,17,13,10,5,7,6,10,5,5,3,2,4,0,1],"bins":[-0.035870689898729324,-0.034819286316633224,-0.033767879009246826,-0.032716475427150726,-0.031665071845054626,-0.030613666400313377,-0.02956226095557213,-0.02851085737347603,-0.02745945192873478,-0.02640804648399353,-0.02535664290189743,-0.02430523745715618,-0.023253832012414932,-0.022202428430318832,-0.021151022985577583,-0.020099619403481483,-0.019048213958740234,-0.017996808513998985,-0.016945404931902885,-0.015893999487161636,-0.014842594973742962,-0.013791190460324287,-0.012739785015583038,-0.011688380502164364,-0.01063697598874569,-0.009585571475327015,-0.00853416696190834,-0.007482761517167091,-0.006431357003748417,-0.005379952490329742,-0.004328547511249781,-0.0032771427650004625,-0.0022257380187511444,-0.0011743332725018263,-0.00012292852625250816,0.00092847621999681,0.001979880966246128,0.003031285712495446,0.004082690458744764,0.005134095437824726,0.006185499951243401,0.007236904464662075,0.00828830897808075,0.009339714422821999,0.010391118936240673,0.011442523449659348,0.012493928894400597,0.013545333407819271,0.014596737921237946,0.015648143365979195,0.016699546948075294,0.017750952392816544,0.018802355974912643,0.019853761419653893,0.02090516686439514,0.02195657044649124,0.02300797589123249,0.02405938133597374,0.02511078491806984,0.02616219036281109,0.027213595807552338,0.028264999389648438,0.029316404834389687,0.030367808416485786,0.031419213861227036],"_type":"histogram"},"gradients/gru.bias_ih_l0_reverse":{"_type":"histogram","values":[1,0,0,0,0,0,0,0,0,0,0,1,1,0,1,0,1,0,0,1,0,1,0,2,2,2,1,2,1,2,3,8,64,59,8,2,2,2,0,3,6,3,2,0,2,0,0,0,0,0,3,0,0,1,0,1,0,0,1,1,0,1,0,1],"bins":[-0.09467282891273499,-0.09180258214473724,-0.0889323279261589,-0.08606208115816116,-0.08319182693958282,-0.08032158017158508,-0.07745133340358734,-0.074581079185009,-0.07171083241701126,-0.06884058564901352,-0.06597033143043518,-0.06310008466243744,-0.0602298341691494,-0.05735958367586136,-0.05448933690786362,-0.05161908641457558,-0.04874883592128754,-0.045878585427999496,-0.043008334934711456,-0.040138088166713715,-0.037267837673425674,-0.034397587180137634,-0.03152734041213989,-0.028657089918851852,-0.025786839425563812,-0.022916588932275772,-0.02004634030163288,-0.01717609167098999,-0.01430584117770195,-0.011435591615736485,-0.008565342053771019,-0.0056950924918055534,-0.002824842929840088,4.5406632125377655e-05,0.002915656194090843,0.005785905756056309,0.008656155318021774,0.01152640487998724,0.014396654441952705,0.017266903072595596,0.020137153565883636,0.023007404059171677,0.025877652689814568,0.02874790132045746,0.0316181518137455,0.03448840230703354,0.03735864907503128,0.04022889956831932,0.04309915006160736,0.0459694005548954,0.04883965104818344,0.05170989781618118,0.05458014830946922,0.05745039880275726,0.060320645570755005,0.06319089978933334,0.06606114655733109,0.06893139332532883,0.07180164754390717,0.07467189431190491,0.07754214107990265,0.08041239529848099,0.08328264206647873,0.08615289628505707,0.08902314305305481]},"gradients/gru.bias_hh_l0_reverse":{"values":[2,0,0,0,0,0,0,0,1,0,0,2,1,0,0,1,2,0,2,0,2,3,4,6,4,32,72,18,10,3,3,1,3,1,3,4,2,1,0,0,0,1,0,1,1,2,0,0,0,0,2,0,0,1,0,0,0,0,0,0,0,0,0,1],"bins":[-0.03847341984510422,-0.03701699152588844,-0.03556055948138237,-0.034104131162166595,-0.03264769911766052,-0.031191270798444748,-0.029734842479228973,-0.02827841229736805,-0.026821982115507126,-0.025365551933646202,-0.02390912175178528,-0.022452693432569504,-0.02099626325070858,-0.019539833068847656,-0.01808340474963188,-0.016626974567770958,-0.015170544385910034,-0.01371411420404911,-0.012257684953510761,-0.010801255702972412,-0.009344825521111488,-0.007888395339250565,-0.006431966088712215,-0.004975536372512579,-0.0035191066563129425,-0.002062676940113306,-0.0006062472239136696,0.0008501824922859669,0.0023066122084856033,0.00376304192468524,0.005219471640884876,0.006675901357084513,0.00813232734799385,0.009588757529854774,0.011045186780393124,0.012501616030931473,0.013958046212792397,0.01541447639465332,0.016870904713869095,0.01832733489573002,0.019783765077590942,0.021240195259451866,0.02269662544131279,0.024153053760528564,0.025609483942389488,0.027065914124250412,0.028522342443466187,0.02997877262532711,0.031435202807188034,0.03289163112640381,0.03434806317090988,0.035804491490125656,0.03726091980934143,0.038717351853847504,0.04017378017306328,0.04163021221756935,0.043086640536785126,0.0445430688560009,0.04599950090050697,0.04745592921972275,0.04891236126422882,0.050368789583444595,0.05182521790266037,0.05328164994716644,0.05473807826638222],"_type":"histogram"},"parameters/in_norm.weight":{"bins":[0.9884257912635803,0.9891721606254578,0.9899185299873352,0.9906648993492126,0.9914112091064453,0.9921575784683228,0.9929039478302002,0.9936503171920776,0.9943966865539551,0.9951430559158325,0.99588942527771,0.9966357350349426,0.9973821043968201,0.9981284737586975,0.998874843120575,0.9996212124824524,1.000367522239685,1.0011138916015625,1.00186026096344,1.0026066303253174,1.0033529996871948,1.0040993690490723,1.0048457384109497,1.0055921077728271,1.0063384771347046,1.007084846496582,1.0078312158584595,1.008577585220337,1.0093239545822144,1.0100702047348022,1.0108165740966797,1.0115629434585571,1.0123093128204346,1.013055682182312,1.0138020515441895,1.014548420906067,1.0152947902679443,1.0160411596298218,1.0167875289916992,1.0175338983535767,1.018280267715454,1.0190266370773315,1.019773006439209,1.0205192565917969,1.0212656259536743,1.0220119953155518,1.0227583646774292,1.0235047340393066,1.024251103401184,1.0249974727630615,1.025743842124939,1.0264902114868164,1.0272365808486938,1.0279829502105713,1.0287293195724487,1.0294756889343262,1.0302220582962036,1.0309683084487915,1.031714677810669,1.0324610471725464,1.0332074165344238,1.0339537858963013,1.0347001552581787,1.0354465246200562,1.0361928939819336],"_type":"histogram","values":[1,0,0,0,0,0,0,0,0,0,0,0,0,0,0,0,0,0,0,0,0,0,0,0,0,1,0,0,0,0,0,1,0,0,0,0,0,0,0,0,0,0,1,0,1,0,0,0,0,0,0,0,0,0,0,0,0,0,0,0,0,0,0,1]}}